<?xml version="1.0"?>
<MethodSetup Method="BDT::BDTG">
  <GeneralInfo>
    <Info name="TMVA Release" value="4.2.1 [262657]"/>
    <Info name="ROOT Release" value="6.10/09 [395785]"/>
    <Info name="Creator" value="cychuang"/>
    <Info name="Date" value="Tue Jan  7 00:17:05 2020"/>
    <Info name="Host" value="Linux cmsbuild49.cern.ch 2.6.32-696.10.2.el6.x86_64 #1 SMP Thu Sep 14 16:35:02 CEST 2017 x86_64 x86_64 x86_64 GNU/Linux"/>
    <Info name="Dir" value="/wk_cms2/cychuang/CMSSW_9_4_2/src/wk_mva"/>
    <Info name="Training events" value="8293545"/>
    <Info name="TrainingTime" value="6.78506563e+03"/>
    <Info name="AnalysisType" value="Classification"/>
  </GeneralInfo>
  <Options>
    <Option name="V" modified="Yes">False</Option>
    <Option name="VerbosityLevel" modified="No">Default</Option>
    <Option name="VarTransform" modified="No">None</Option>
    <Option name="H" modified="Yes">False</Option>
    <Option name="CreateMVAPdfs" modified="No">False</Option>
    <Option name="IgnoreNegWeightsInTraining" modified="No">False</Option>
    <Option name="NTrees" modified="Yes">800</Option>
    <Option name="MaxDepth" modified="Yes">3</Option>
    <Option name="MinNodeSize" modified="Yes">2.5%</Option>
    <Option name="nCuts" modified="Yes">20</Option>
    <Option name="BoostType" modified="Yes">Grad</Option>
    <Option name="AdaBoostR2Loss" modified="No">quadratic</Option>
    <Option name="UseBaggedBoost" modified="Yes">True</Option>
    <Option name="Shrinkage" modified="Yes">1.000000e-01</Option>
    <Option name="AdaBoostBeta" modified="No">5.000000e-01</Option>
    <Option name="UseRandomisedTrees" modified="No">False</Option>
    <Option name="UseNvars" modified="No">2</Option>
    <Option name="UsePoissonNvars" modified="No">True</Option>
    <Option name="BaggedSampleFraction" modified="Yes">5.000000e-01</Option>
    <Option name="UseYesNoLeaf" modified="No">True</Option>
    <Option name="NegWeightTreatment" modified="No">pray</Option>
    <Option name="Css" modified="No">1.000000e+00</Option>
    <Option name="Cts_sb" modified="No">1.000000e+00</Option>
    <Option name="Ctb_ss" modified="No">1.000000e+00</Option>
    <Option name="Cbb" modified="No">1.000000e+00</Option>
    <Option name="NodePurityLimit" modified="No">5.000000e-01</Option>
    <Option name="SeparationType" modified="No">giniindex</Option>
    <Option name="RegressionLossFunctionBDTG" modified="No">huber</Option>
    <Option name="HuberQuantile" modified="No">7.000000e-01</Option>
    <Option name="DoBoostMonitor" modified="No">False</Option>
    <Option name="UseFisherCuts" modified="No">False</Option>
    <Option name="MinLinCorrForFisher" modified="No">8.000000e-01</Option>
    <Option name="UseExclusiveVars" modified="No">False</Option>
    <Option name="DoPreselection" modified="No">False</Option>
    <Option name="SigToBkgFraction" modified="No">1.000000e+00</Option>
    <Option name="PruneMethod" modified="No">nopruning</Option>
    <Option name="PruneStrength" modified="No">0.000000e+00</Option>
    <Option name="PruningValFraction" modified="No">5.000000e-01</Option>
    <Option name="SkipNormalization" modified="No">False</Option>
    <Option name="nEventsMin" modified="No">0</Option>
    <Option name="UseBaggedGrad" modified="No">False</Option>
    <Option name="GradBaggingFraction" modified="No">5.000000e-01</Option>
    <Option name="UseNTrainEvents" modified="No">0</Option>
    <Option name="NNodesMax" modified="No">0</Option>
  </Options>
  <Variables NVar="2">
    <Variable VarIndex="0" Expression="top_mass" Label="top_mass" Title="top_mass" Unit="" Internal="top_mass" Type="D" Min="3.18515205e+01" Max="5.34845361e+03"/>
    <Variable VarIndex="1" Expression="w_mass" Label="w_mass" Title="w_mass" Unit="" Internal="w_mass" Type="D" Min="1.39813118e+01" Max="4.87760791e+03"/>
  </Variables>
  <Spectators NSpec="0"/>
  <Classes NClass="2">
    <Class Name="Signal" Index="0"/>
    <Class Name="Background" Index="1"/>
  </Classes>
  <Transformations NTransformations="0"/>
  <MVAPdfs/>
  <Weights NTrees="800" AnalysisType="1">
    <BinaryTree type="DecisionTree" boostWeight="1.0000000000000000e+00" itree="0">
      <Node pos="s" depth="0" NCoef="0" IVar="0" Cut="2.6659243774414062e+02" cType="1" res="-6.8796658888459206e-04" rms="4.9999952316284180e-01" purity="4.9931204319000244e-01" nType="0">
        <Node pos="l" depth="1" NCoef="0" IVar="0" Cut="2.1070159912109375e+02" cType="1" res="1.4282545447349548e-01" rms="4.7916686534881592e-01" purity="6.4282542467117310e-01" nType="0">
          <Node pos="l" depth="2" NCoef="0" IVar="1" Cut="1.0800092315673828e+02" cType="1" res="2.2623851895332336e-01" rms="4.4588801264762878e-01" purity="7.2623848915100098e-01" nType="0">
            <Node pos="l" depth="3" NCoef="0" IVar="-1" Cut="0.0000000000000000e+00" cType="1" res="1.6641715541481972e-02" rms="4.2299732565879822e-01" purity="7.6659578084945679e-01" nType="-99"/>
            <Node pos="r" depth="3" NCoef="0" IVar="-1" Cut="0.0000000000000000e+00" cType="1" res="-3.5392902791500092e-02" rms="4.2991864681243896e-01" purity="2.4471592903137207e-01" nType="-99"/>
          </Node>
          <Node pos="r" depth="2" NCoef="0" IVar="0" Cut="2.2400898742675781e+02" cType="1" res="-3.2906943559646606e-01" rms="3.7644827365875244e-01" purity="1.7093054950237274e-01" nType="0">
            <Node pos="l" depth="3" NCoef="0" IVar="-1" Cut="0.0000000000000000e+00" cType="1" res="-2.4637036025524139e-02" rms="4.5770841836929321e-01" purity="2.9874643683433533e-01" nType="-99"/>
            <Node pos="r" depth="3" NCoef="0" IVar="-1" Cut="0.0000000000000000e+00" cType="1" res="-7.6625056564807892e-02" rms="3.1651178002357483e-01" purity="1.1293374001979828e-01" nType="-99"/>
          </Node>
        </Node>
        <Node pos="r" depth="1" NCoef="0" IVar="0" Cut="4.9015527343750000e+02" cType="1" res="-4.8065418004989624e-01" rms="1.3773724436759949e-01" purity="1.9345808774232864e-02" nType="0">
          <Node pos="l" depth="2" NCoef="0" IVar="0" Cut="3.0917584228515625e+02" cType="1" res="-4.7665813565254211e-01" rms="1.5098680555820465e-01" purity="2.3341855034232140e-02" nType="0">
            <Node pos="l" depth="3" NCoef="0" IVar="-1" Cut="0.0000000000000000e+00" cType="1" res="-1.1992868781089783e-01" rms="1.9648329913616180e-01" purity="4.0223624557256699e-02" nType="-99"/>
            <Node pos="r" depth="3" NCoef="0" IVar="-1" Cut="0.0000000000000000e+00" cType="1" res="-1.4187067747116089e-01" rms="1.2218139320611954e-01" purity="1.5158060006797314e-02" nType="-99"/>
          </Node>
          <Node pos="r" depth="2" NCoef="0" IVar="-1" Cut="0.0000000000000000e+00" cType="1" res="-1.4917771518230438e-01" rms="8.2085095345973969e-02" purity="6.7839850671589375e-03" nType="-99"/>
        </Node>
      </Node>
    </BinaryTree>
    <BinaryTree type="DecisionTree" boostWeight="1.0000000000000000e+00" itree="1">
      <Node pos="s" depth="0" NCoef="0" IVar="0" Cut="2.7069055175781250e+02" cType="1" res="1.5200934372842312e-02" rms="4.7975859045982361e-01" purity="5.0006055831909180e-01" nType="0">
        <Node pos="l" depth="1" NCoef="0" IVar="0" Cut="2.0367997741699219e+02" cType="1" res="1.3831943273544312e-01" rms="4.7263398766517639e-01" purity="6.3866698741912842e-01" nType="0">
          <Node pos="l" depth="2" NCoef="0" IVar="1" Cut="1.0646458435058594e+02" cType="1" res="2.3105797171592712e-01" rms="4.3798670172691345e-01" purity="7.3764950037002563e-01" nType="0">
            <Node pos="l" depth="3" NCoef="0" IVar="-1" Cut="0.0000000000000000e+00" cType="1" res="1.6517089679837227e-02" rms="4.1747444868087769e-01" purity="7.7516371011734009e-01" nType="-99"/>
            <Node pos="r" depth="3" NCoef="0" IVar="-1" Cut="0.0000000000000000e+00" cType="1" res="-2.9815515503287315e-02" rms="4.3822333216667175e-01" purity="2.6160889863967896e-01" nType="-99"/>
          </Node>
          <Node pos="r" depth="2" NCoef="0" IVar="0" Cut="2.1963478088378906e+02" cType="1" res="-2.5619789958000183e-01" rms="4.0665784478187561e-01" purity="2.1758721768856049e-01" nType="0">
            <Node pos="l" depth="3" NCoef="0" IVar="-1" Cut="0.0000000000000000e+00" cType="1" res="-9.8417233675718307e-03" rms="4.8690235614776611e-01" purity="3.9702612161636353e-01" nType="-99"/>
            <Node pos="r" depth="3" NCoef="0" IVar="-1" Cut="0.0000000000000000e+00" cType="1" res="-6.6041000187397003e-02" rms="3.2609552145004272e-01" purity="1.2194950133562088e-01" nType="-99"/>
          </Node>
        </Node>
        <Node pos="r" depth="1" NCoef="0" IVar="0" Cut="4.9405816650390625e+02" cType="1" res="-4.1225790977478027e-01" rms="1.3556404411792755e-01" purity="1.8828745931386948e-02" nType="0">
          <Node pos="l" depth="2" NCoef="0" IVar="0" Cut="3.0260018920898438e+02" cType="1" res="-4.0999841690063477e-01" rms="1.4878953993320465e-01" purity="2.2741416469216347e-02" nType="0">
            <Node pos="l" depth="3" NCoef="0" IVar="-1" Cut="0.0000000000000000e+00" cType="1" res="-1.0454096645116806e-01" rms="2.0106609165668488e-01" purity="4.2209185659885406e-02" nType="-99"/>
            <Node pos="r" depth="3" NCoef="0" IVar="-1" Cut="0.0000000000000000e+00" cType="1" res="-1.2301684170961380e-01" rms="1.2584298849105835e-01" purity="1.6102243214845657e-02" nType="-99"/>
          </Node>
          <Node pos="r" depth="2" NCoef="0" IVar="-1" Cut="0.0000000000000000e+00" cType="1" res="-1.2981091439723969e-01" rms="8.1544131040573120e-02" purity="6.6942591220140457e-03" nType="-99"/>
        </Node>
      </Node>
    </BinaryTree>
    <BinaryTree type="DecisionTree" boostWeight="1.0000000000000000e+00" itree="2">
      <Node pos="s" depth="0" NCoef="0" IVar="0" Cut="2.6574450683593750e+02" cType="1" res="2.7466000989079475e-02" rms="4.6343538165092468e-01" purity="5.0007075071334839e-01" nType="0">
        <Node pos="l" depth="1" NCoef="0" IVar="0" Cut="2.1005567932128906e+02" cType="1" res="1.4235413074493408e-01" rms="4.6532586216926575e-01" purity="6.4451521635055542e-01" nType="0">
          <Node pos="l" depth="2" NCoef="0" IVar="1" Cut="1.0829647827148438e+02" cType="1" res="2.1530899405479431e-01" rms="4.4112637639045715e-01" purity="7.2779464721679688e-01" nType="0">
            <Node pos="l" depth="3" NCoef="0" IVar="-1" Cut="0.0000000000000000e+00" cType="1" res="1.5706947073340416e-02" rms="4.2223739624023438e-01" purity="7.6734417676925659e-01" nType="-99"/>
            <Node pos="r" depth="3" NCoef="0" IVar="-1" Cut="0.0000000000000000e+00" cType="1" res="-3.2315943390130997e-02" rms="4.2680716514587402e-01" purity="2.3981155455112457e-01" nType="-99"/>
          </Node>
          <Node pos="r" depth="2" NCoef="0" IVar="1" Cut="1.4808715820312500e+02" cType="1" res="-2.6577168703079224e-01" rms="3.7802094221115112e-01" purity="1.7863173782825470e-01" nType="0">
            <Node pos="l" depth="3" NCoef="0" IVar="-1" Cut="0.0000000000000000e+00" cType="1" res="-3.3155467361211777e-02" rms="4.0984743833541870e-01" purity="2.2149221599102020e-01" nType="-99"/>
            <Node pos="r" depth="3" NCoef="0" IVar="-1" Cut="0.0000000000000000e+00" cType="1" res="-9.9793858826160431e-02" rms="2.1775586903095245e-01" purity="4.9319855868816376e-02" nType="-99"/>
          </Node>
        </Node>
        <Node pos="r" depth="1" NCoef="0" IVar="0" Cut="4.8849972534179688e+02" cType="1" res="-3.5495623946189880e-01" rms="1.3691352307796478e-01" purity="1.9265839830040932e-02" nType="0">
          <Node pos="l" depth="2" NCoef="0" IVar="1" Cut="1.2394483184814453e+02" cType="1" res="-3.5402286052703857e-01" rms="1.5085232257843018e-01" purity="2.3435048758983612e-02" nType="0">
            <Node pos="l" depth="3" NCoef="0" IVar="-1" Cut="0.0000000000000000e+00" cType="1" res="-1.1143178492784500e-01" rms="1.2786212563514709e-01" purity="1.6692858189344406e-02" nType="-99"/>
            <Node pos="r" depth="3" NCoef="0" IVar="-1" Cut="0.0000000000000000e+00" cType="1" res="-1.0350956767797470e-01" rms="1.6038399934768677e-01" purity="2.6612209156155586e-02" nType="-99"/>
          </Node>
          <Node pos="r" depth="2" NCoef="0" IVar="-1" Cut="0.0000000000000000e+00" cType="1" res="-1.1712764203548431e-01" rms="7.9042911529541016e-02" purity="6.2873014248907566e-03" nType="-99"/>
        </Node>
      </Node>
    </BinaryTree>
    <BinaryTree type="DecisionTree" boostWeight="1.0000000000000000e+00" itree="3">
      <Node pos="s" depth="0" NCoef="0" IVar="0" Cut="2.8502304077148438e+02" cType="1" res="3.8115914911031723e-02" rms="4.4973680377006531e-01" purity="5.0041449069976807e-01" nType="0">
        <Node pos="l" depth="1" NCoef="0" IVar="0" Cut="2.0063250732421875e+02" cType="1" res="1.2588497996330261e-01" rms="4.6037563681602478e-01" purity="6.2397044897079468e-01" nType="0">
          <Node pos="l" depth="2" NCoef="0" IVar="0" Cut="1.2829777526855469e+02" cType="1" res="2.2190628945827484e-01" rms="4.3272563815116882e-01" purity="7.4167668819427490e-01" nType="0">
            <Node pos="l" depth="3" NCoef="0" IVar="-1" Cut="0.0000000000000000e+00" cType="1" res="-3.1995978206396103e-02" rms="4.4790458679199219e-01" purity="2.7782499790191650e-01" nType="-99"/>
            <Node pos="r" depth="3" NCoef="0" IVar="-1" Cut="0.0000000000000000e+00" cType="1" res="1.5718191862106323e-02" rms="4.1367411613464355e-01" purity="7.7194255590438843e-01" nType="-99"/>
          </Node>
          <Node pos="r" depth="2" NCoef="0" IVar="0" Cut="2.1670689392089844e+02" cType="1" res="-1.9932657480239868e-01" rms="3.9823630452156067e-01" purity="2.2531469166278839e-01" nType="0">
            <Node pos="l" depth="3" NCoef="0" IVar="-1" Cut="0.0000000000000000e+00" cType="1" res="-3.2565819565206766e-03" rms="4.8954522609710693e-01" purity="4.5129624009132385e-01" nType="-99"/>
            <Node pos="r" depth="3" NCoef="0" IVar="-1" Cut="0.0000000000000000e+00" cType="1" res="-5.5240597575902939e-02" rms="3.2134142518043518e-01" purity="1.2157376855611801e-01" nType="-99"/>
          </Node>
        </Node>
        <Node pos="r" depth="1" NCoef="0" IVar="1" Cut="2.4770149230957031e+02" cType="1" res="-3.0594858527183533e-01" rms="1.2541089951992035e-01" purity="1.6061581671237946e-02" nType="0">
          <Node pos="l" depth="2" NCoef="0" IVar="1" Cut="1.3746537780761719e+02" cType="1" res="-3.0535826086997986e-01" rms="1.3659860193729401e-01" purity="1.9137570634484291e-02" nType="0">
            <Node pos="l" depth="3" NCoef="0" IVar="-1" Cut="0.0000000000000000e+00" cType="1" res="-1.0552161186933517e-01" rms="1.0483527928590775e-01" purity="1.1143584735691547e-02" nType="-99"/>
            <Node pos="r" depth="3" NCoef="0" IVar="-1" Cut="0.0000000000000000e+00" cType="1" res="-9.4596736133098602e-02" rms="1.5836739540100098e-01" purity="2.5902997702360153e-02" nType="-99"/>
          </Node>
          <Node pos="r" depth="2" NCoef="0" IVar="0" Cut="5.2614099121093750e+02" cType="1" res="-3.0693745613098145e-01" rms="1.0399901866912842e-01" purity="1.0908640921115875e-02" nType="0">
            <Node pos="l" depth="3" NCoef="0" IVar="-1" Cut="0.0000000000000000e+00" cType="1" res="-1.0576042532920837e-01" rms="1.1305373162031174e-01" purity="1.2909328565001488e-02" nType="-99"/>
            <Node pos="r" depth="3" NCoef="0" IVar="-1" Cut="0.0000000000000000e+00" cType="1" res="-1.0670317709445953e-01" rms="9.0686932206153870e-02" purity="8.2928929477930069e-03" nType="-99"/>
          </Node>
        </Node>
      </Node>
    </BinaryTree>
    <BinaryTree type="DecisionTree" boostWeight="1.0000000000000000e+00" itree="4">
      <Node pos="s" depth="0" NCoef="0" IVar="0" Cut="2.9080392456054688e+02" cType="1" res="4.5975424349308014e-02" rms="4.3853875994682312e-01" purity="5.0011974573135376e-01" nType="0">
        <Node pos="l" depth="1" NCoef="0" IVar="0" Cut="2.0650965881347656e+02" cType="1" res="1.2134141474962234e-01" rms="4.5450457930564880e-01" purity="6.1822819709777832e-01" nType="0">
          <Node pos="l" depth="2" NCoef="0" IVar="1" Cut="1.0651513671875000e+02" cType="1" res="2.0854432880878448e-01" rms="4.3502503633499146e-01" purity="7.3360574245452881e-01" nType="0">
            <Node pos="l" depth="3" NCoef="0" IVar="-1" Cut="0.0000000000000000e+00" cType="1" res="1.5096409246325493e-02" rms="4.1713124513626099e-01" purity="7.7273726463317871e-01" nType="-99"/>
            <Node pos="r" depth="3" NCoef="0" IVar="-1" Cut="0.0000000000000000e+00" cType="1" res="-2.5617834180593491e-02" rms="4.4113120436668396e-01" purity="2.6904359459877014e-01" nType="-99"/>
          </Node>
          <Node pos="r" depth="2" NCoef="0" IVar="0" Cut="2.2657972717285156e+02" cType="1" res="-2.1750317513942719e-01" rms="3.5991746187210083e-01" purity="1.6990539431571960e-01" nType="0">
            <Node pos="l" depth="3" NCoef="0" IVar="-1" Cut="0.0000000000000000e+00" cType="1" res="-1.3885805383324623e-02" rms="4.6090120077133179e-01" purity="3.2737630605697632e-01" nType="-99"/>
            <Node pos="r" depth="3" NCoef="0" IVar="-1" Cut="0.0000000000000000e+00" cType="1" res="-6.3572265207767487e-02" rms="2.7959349751472473e-01" purity="8.7211482226848602e-02" nType="-99"/>
          </Node>
        </Node>
        <Node pos="r" depth="1" NCoef="0" IVar="0" Cut="5.3164459228515625e+02" cType="1" res="-2.6377272605895996e-01" rms="1.2011615931987762e-01" purity="1.4703574590384960e-02" nType="0">
          <Node pos="l" depth="2" NCoef="0" IVar="0" Cut="3.4814709472656250e+02" cType="1" res="-2.6429513096809387e-01" rms="1.2919439375400543e-01" purity="1.7038058489561081e-02" nType="0">
            <Node pos="l" depth="3" NCoef="0" IVar="-1" Cut="0.0000000000000000e+00" cType="1" res="-8.9695416390895844e-02" rms="1.5402682125568390e-01" purity="2.4375375360250473e-02" nType="-99"/>
            <Node pos="r" depth="3" NCoef="0" IVar="-1" Cut="0.0000000000000000e+00" cType="1" res="-9.8352201282978058e-02" rms="1.0912825912237167e-01" purity="1.2061732821166515e-02" nType="-99"/>
          </Node>
          <Node pos="r" depth="2" NCoef="0" IVar="-1" Cut="0.0000000000000000e+00" cType="1" res="-1.0084328055381775e-01" rms="8.1147976219654083e-02" purity="6.6183609887957573e-03" nType="-99"/>
        </Node>
      </Node>
    </BinaryTree>
    <BinaryTree type="DecisionTree" boostWeight="1.0000000000000000e+00" itree="5">
      <Node pos="s" depth="0" NCoef="0" IVar="0" Cut="2.6960122680664062e+02" cType="1" res="5.2262261509895325e-02" rms="4.2911562323570251e-01" purity="4.9950504302978516e-01" nType="0">
        <Node pos="l" depth="1" NCoef="0" IVar="0" Cut="2.0299101257324219e+02" cType="1" res="1.3404655456542969e-01" rms="4.5032241940498352e-01" purity="6.3944637775421143e-01" nType="0">
          <Node pos="l" depth="2" NCoef="0" IVar="1" Cut="5.5741046905517578e+01" cType="1" res="2.0641714334487915e-01" rms="4.3150445818901062e-01" purity="7.3821949958801270e-01" nType="0">
            <Node pos="l" depth="3" NCoef="0" IVar="-1" Cut="0.0000000000000000e+00" cType="1" res="-2.9253154993057251e-02" rms="4.5473402738571167e-01" purity="2.9574471712112427e-01" nType="-99"/>
            <Node pos="r" depth="3" NCoef="0" IVar="-1" Cut="0.0000000000000000e+00" cType="1" res="1.4882640913128853e-02" rms="4.1245362162590027e-01" purity="7.6915621757507324e-01" nType="-99"/>
          </Node>
          <Node pos="r" depth="2" NCoef="0" IVar="0" Cut="2.1567864990234375e+02" cType="1" res="-1.6908396780490875e-01" rms="3.9808368682861328e-01" purity="2.2572667896747589e-01" nType="0">
            <Node pos="l" depth="3" NCoef="0" IVar="-1" Cut="0.0000000000000000e+00" cType="1" res="-4.5683332718908787e-03" rms="4.8759803175926208e-01" purity="4.2970398068428040e-01" nType="-99"/>
            <Node pos="r" depth="3" NCoef="0" IVar="-1" Cut="0.0000000000000000e+00" cType="1" res="-4.3037123978137970e-02" rms="3.4170469641685486e-01" purity="1.4091502130031586e-01" nType="-99"/>
          </Node>
        </Node>
        <Node pos="r" depth="1" NCoef="0" IVar="0" Cut="4.9163513183593750e+02" cType="1" res="-2.2882770001888275e-01" rms="1.3431413471698761e-01" purity="1.8531059846282005e-02" nType="0">
          <Node pos="l" depth="2" NCoef="0" IVar="0" Cut="2.9074740600585938e+02" cType="1" res="-2.3017324507236481e-01" rms="1.4757816493511200e-01" purity="2.2425135597586632e-02" nType="0">
            <Node pos="l" depth="3" NCoef="0" IVar="-1" Cut="0.0000000000000000e+00" cType="1" res="-7.5515478849411011e-02" rms="2.0683456957340240e-01" purity="4.4801432639360428e-02" nType="-99"/>
            <Node pos="r" depth="3" NCoef="0" IVar="-1" Cut="0.0000000000000000e+00" cType="1" res="-8.8936969637870789e-02" rms="1.3147522509098053e-01" purity="1.7666572704911232e-02" nType="-99"/>
          </Node>
          <Node pos="r" depth="2" NCoef="0" IVar="-1" Cut="0.0000000000000000e+00" cType="1" res="-9.5723502337932587e-02" rms="8.0498389899730682e-02" purity="6.5151513554155827e-03" nType="-99"/>
        </Node>
      </Node>
    </BinaryTree>
    <BinaryTree type="DecisionTree" boostWeight="1.0000000000000000e+00" itree="6">
      <Node pos="s" depth="0" NCoef="0" IVar="0" Cut="2.8912115478515625e+02" cType="1" res="5.7537946850061417e-02" rms="4.2118296027183533e-01" purity="4.9919238686561584e-01" nType="0">
        <Node pos="l" depth="1" NCoef="0" IVar="0" Cut="2.0479890441894531e+02" cType="1" res="1.1989151686429977e-01" rms="4.4483608007431030e-01" purity="6.1861377954483032e-01" nType="0">
          <Node pos="l" depth="2" NCoef="0" IVar="1" Cut="1.0575385284423828e+02" cType="1" res="1.9802926480770111e-01" rms="4.3145325779914856e-01" purity="7.3527646064758301e-01" nType="0">
            <Node pos="l" depth="3" NCoef="0" IVar="-1" Cut="0.0000000000000000e+00" cType="1" res="1.4403088018298149e-02" rms="4.1447976231575012e-01" purity="7.7422779798507690e-01" nType="-99"/>
            <Node pos="r" depth="3" NCoef="0" IVar="-1" Cut="0.0000000000000000e+00" cType="1" res="-2.3753557354211807e-02" rms="4.4385546445846558e-01" purity="2.7816644310951233e-01" nType="-99"/>
          </Node>
          <Node pos="r" depth="2" NCoef="0" IVar="0" Cut="2.2086033630371094e+02" cType="1" res="-1.7161442339420319e-01" rms="3.6589083075523376e-01" purity="1.8338423967361450e-01" nType="0">
            <Node pos="l" depth="3" NCoef="0" IVar="-1" Cut="0.0000000000000000e+00" cType="1" res="-8.0815795809030533e-03" rms="4.7663450241088867e-01" purity="3.7720379233360291e-01" nType="-99"/>
            <Node pos="r" depth="3" NCoef="0" IVar="-1" Cut="0.0000000000000000e+00" cType="1" res="-5.0069063901901245e-02" rms="2.9930105805397034e-01" purity="1.0266157239675522e-01" nType="-99"/>
          </Node>
        </Node>
        <Node pos="r" depth="1" NCoef="0" IVar="0" Cut="5.3004174804687500e+02" cType="1" res="-1.9532319903373718e-01" rms="1.2091755867004395e-01" purity="1.4905104413628578e-02" nType="0">
          <Node pos="l" depth="2" NCoef="0" IVar="1" Cut="1.5568785095214844e+02" cType="1" res="-1.9623169302940369e-01" rms="1.3029076159000397e-01" purity="1.7335390672087669e-02" nType="0">
            <Node pos="l" depth="3" NCoef="0" IVar="-1" Cut="0.0000000000000000e+00" cType="1" res="-8.8131479918956757e-02" rms="1.1064691841602325e-01" purity="1.2460105121135712e-02" nType="-99"/>
            <Node pos="r" depth="3" NCoef="0" IVar="-1" Cut="0.0000000000000000e+00" cType="1" res="-8.2351960241794586e-02" rms="1.4126077294349670e-01" purity="2.0423555746674538e-02" nType="-99"/>
          </Node>
          <Node pos="r" depth="2" NCoef="0" IVar="-1" Cut="0.0000000000000000e+00" cType="1" res="-9.1296859085559845e-02" rms="8.0174736678600311e-02" purity="6.4620221965014935e-03" nType="-99"/>
        </Node>
      </Node>
    </BinaryTree>
    <BinaryTree type="DecisionTree" boostWeight="1.0000000000000000e+00" itree="7">
      <Node pos="s" depth="0" NCoef="0" IVar="0" Cut="2.6659243774414062e+02" cType="1" res="6.2624976038932800e-02" rms="4.1447344422340393e-01" purity="4.9988135695457458e-01" nType="0">
        <Node pos="l" depth="1" NCoef="0" IVar="1" Cut="1.1499240112304688e+02" cType="1" res="1.3260050117969513e-01" rms="4.4277900457382202e-01" purity="6.4325666427612305e-01" nType="0">
          <Node pos="l" depth="2" NCoef="0" IVar="1" Cut="5.7271759033203125e+01" cType="1" res="1.8071097135543823e-01" rms="4.3167409300804138e-01" purity="7.1031439304351807e-01" nType="0">
            <Node pos="l" depth="3" NCoef="0" IVar="-1" Cut="0.0000000000000000e+00" cType="1" res="-2.8310557827353477e-02" rms="4.3905174732208252e-01" purity="2.8355512022972107e-01" nType="-99"/>
            <Node pos="r" depth="3" NCoef="0" IVar="-1" Cut="0.0000000000000000e+00" cType="1" res="1.3901731930673122e-02" rms="4.1332077980041504e-01" purity="7.4663627147674561e-01" nType="-99"/>
          </Node>
          <Node pos="r" depth="2" NCoef="0" IVar="1" Cut="1.2781934356689453e+02" cType="1" res="-2.2614611685276031e-01" rms="3.5000714659690857e-01" purity="1.4322575926780701e-01" nType="0">
            <Node pos="l" depth="3" NCoef="0" IVar="-1" Cut="0.0000000000000000e+00" cType="1" res="-2.0063823089003563e-02" rms="4.4085249304771423e-01" purity="2.6109555363655090e-01" nType="-99"/>
            <Node pos="r" depth="3" NCoef="0" IVar="-1" Cut="0.0000000000000000e+00" cType="1" res="-6.2450867146253586e-02" rms="2.9429689049720764e-01" purity="9.1359034180641174e-02" nType="-99"/>
          </Node>
        </Node>
        <Node pos="r" depth="1" NCoef="0" IVar="0" Cut="4.9015527343750000e+02" cType="1" res="-1.7176288366317749e-01" rms="1.3846229016780853e-01" purity="1.9635973498225212e-02" nType="0">
          <Node pos="l" depth="2" NCoef="0" IVar="0" Cut="2.8788415527343750e+02" cType="1" res="-1.7396469414234161e-01" rms="1.5185339748859406e-01" purity="2.3678904399275780e-02" nType="0">
            <Node pos="l" depth="3" NCoef="0" IVar="-1" Cut="0.0000000000000000e+00" cType="1" res="-6.7701727151870728e-02" rms="2.1159280836582184e-01" purity="4.6893291175365448e-02" nType="-99"/>
            <Node pos="r" depth="3" NCoef="0" IVar="-1" Cut="0.0000000000000000e+00" cType="1" res="-7.9684793949127197e-02" rms="1.3519422709941864e-01" purity="1.8702879548072815e-02" nType="-99"/>
          </Node>
          <Node pos="r" depth="2" NCoef="0" IVar="-1" Cut="0.0000000000000000e+00" cType="1" res="-8.7548725306987762e-02" rms="8.3507463335990906e-02" purity="7.0153023116290569e-03" nType="-99"/>
        </Node>
      </Node>
    </BinaryTree>
    <BinaryTree type="DecisionTree" boostWeight="1.0000000000000000e+00" itree="8">
      <Node pos="s" depth="0" NCoef="0" IVar="0" Cut="2.8502304077148438e+02" cType="1" res="6.6506326198577881e-02" rms="4.0790697932243347e-01" purity="4.9996447563171387e-01" nType="0">
        <Node pos="l" depth="1" NCoef="0" IVar="0" Cut="2.0063229370117188e+02" cType="1" res="1.2047883123159409e-01" rms="4.3649309873580933e-01" purity="6.2342560291290283e-01" nType="0">
          <Node pos="l" depth="2" NCoef="0" IVar="0" Cut="1.3633485412597656e+02" cType="1" res="1.9337338209152222e-01" rms="4.2452105879783630e-01" purity="7.4162858724594116e-01" nType="0">
            <Node pos="l" depth="3" NCoef="0" IVar="-1" Cut="0.0000000000000000e+00" cType="1" res="-1.5802532434463501e-02" rms="4.8016369342803955e-01" purity="3.8415122032165527e-01" nType="-99"/>
            <Node pos="r" depth="3" NCoef="0" IVar="-1" Cut="0.0000000000000000e+00" cType="1" res="1.4419770799577236e-02" rms="4.0044367313385010e-01" purity="7.8098547458648682e-01" nType="-99"/>
          </Node>
          <Node pos="r" depth="2" NCoef="0" IVar="0" Cut="2.1268809509277344e+02" cType="1" res="-1.2553173303604126e-01" rms="3.8322418928146362e-01" purity="2.2450411319732666e-01" nType="0">
            <Node pos="l" depth="3" NCoef="0" IVar="-1" Cut="0.0000000000000000e+00" cType="1" res="-2.0101027621421963e-04" rms="4.8406594991683960e-01" purity="4.8207178711891174e-01" nType="-99"/>
            <Node pos="r" depth="3" NCoef="0" IVar="-1" Cut="0.0000000000000000e+00" cType="1" res="-3.5771314054727554e-02" rms="3.3235692977905273e-01" purity="1.3752770423889160e-01" nType="-99"/>
          </Node>
        </Node>
        <Node pos="r" depth="1" NCoef="0" IVar="0" Cut="5.2613885498046875e+02" cType="1" res="-1.4511637389659882e-01" rms="1.2465217709541321e-01" purity="1.5881441533565521e-02" nType="0">
          <Node pos="l" depth="2" NCoef="0" IVar="1" Cut="1.3218959045410156e+02" cType="1" res="-1.4623005688190460e-01" rms="1.3460999727249146e-01" purity="1.8556458875536919e-02" nType="0">
            <Node pos="l" depth="3" NCoef="0" IVar="-1" Cut="0.0000000000000000e+00" cType="1" res="-8.2132793962955475e-02" rms="1.0657846182584763e-01" purity="1.1522915214300156e-02" nType="-99"/>
            <Node pos="r" depth="3" NCoef="0" IVar="-1" Cut="0.0000000000000000e+00" cType="1" res="-7.3854438960552216e-02" rms="1.4572063088417053e-01" purity="2.1815508604049683e-02" nType="-99"/>
          </Node>
          <Node pos="r" depth="2" NCoef="0" IVar="-1" Cut="0.0000000000000000e+00" cType="1" res="-8.4917880594730377e-02" rms="8.0712564289569855e-02" purity="6.5517062321305275e-03" nType="-99"/>
        </Node>
      </Node>
    </BinaryTree>
    <BinaryTree type="DecisionTree" boostWeight="1.0000000000000000e+00" itree="9">
      <Node pos="s" depth="0" NCoef="0" IVar="0" Cut="2.6930484008789062e+02" cType="1" res="6.9457821547985077e-02" rms="4.0304699540138245e-01" purity="5.0037527084350586e-01" nType="0">
        <Node pos="l" depth="1" NCoef="0" IVar="1" Cut="1.0368372344970703e+02" cType="1" res="1.2706549465656281e-01" rms="4.3542954325675964e-01" purity="6.4048558473587036e-01" nType="0">
          <Node pos="l" depth="2" NCoef="0" IVar="1" Cut="5.2757499694824219e+01" cType="1" res="1.8246737122535706e-01" rms="4.2092242836952209e-01" purity="7.2539740800857544e-01" nType="0">
            <Node pos="l" depth="3" NCoef="0" IVar="-1" Cut="0.0000000000000000e+00" cType="1" res="-4.3306019157171249e-02" rms="3.9477479457855225e-01" purity="2.0399807393550873e-01" nType="-99"/>
            <Node pos="r" depth="3" NCoef="0" IVar="-1" Cut="0.0000000000000000e+00" cType="1" res="1.3648312538862228e-02" rms="4.0452325344085693e-01" purity="7.5940185785293579e-01" nType="-99"/>
          </Node>
          <Node pos="r" depth="2" NCoef="0" IVar="1" Cut="1.1747626495361328e+02" cType="1" res="-1.3357202708721161e-01" rms="4.0702828764915466e-01" purity="2.4101895093917847e-01" nType="0">
            <Node pos="l" depth="3" NCoef="0" IVar="-1" Cut="0.0000000000000000e+00" cType="1" res="-6.4172543352469802e-04" rms="4.8407679796218872e-01" purity="4.4224983453750610e-01" nType="-99"/>
            <Node pos="r" depth="3" NCoef="0" IVar="-1" Cut="0.0000000000000000e+00" cType="1" res="-4.4226855039596558e-02" rms="3.3648255467414856e-01" purity="1.2849894165992737e-01" nType="-99"/>
          </Node>
        </Node>
        <Node pos="r" depth="1" NCoef="0" IVar="0" Cut="4.9135290527343750e+02" cType="1" res="-1.2844148278236389e-01" rms="1.3640749454498291e-01" purity="1.9054964184761047e-02" nType="0">
          <Node pos="l" depth="2" NCoef="0" IVar="0" Cut="2.9045239257812500e+02" cType="1" res="-1.3084322214126587e-01" rms="1.4904265105724335e-01" purity="2.2813599556684494e-02" nType="0">
            <Node pos="l" depth="3" NCoef="0" IVar="-1" Cut="0.0000000000000000e+00" cType="1" res="-6.0454495251178741e-02" rms="2.1112906932830811e-01" purity="4.6723801642656326e-02" nType="-99"/>
            <Node pos="r" depth="3" NCoef="0" IVar="-1" Cut="0.0000000000000000e+00" cType="1" res="-7.4005581438541412e-02" rms="1.3176837563514709e-01" purity="1.7743535339832306e-02" nType="-99"/>
          </Node>
          <Node pos="r" depth="2" NCoef="0" IVar="1" Cut="3.5736340332031250e+02" cType="1" res="-1.2105476856231689e-01" rms="8.6267091333866119e-02" purity="7.4950032867491245e-03" nType="0">
            <Node pos="l" depth="3" NCoef="0" IVar="-1" Cut="0.0000000000000000e+00" cType="1" res="-8.1731222569942474e-02" rms="8.1680871546268463e-02" purity="6.7152860574424267e-03" nType="-99"/>
            <Node pos="r" depth="3" NCoef="0" IVar="-1" Cut="0.0000000000000000e+00" cType="1" res="-8.1252597272396088e-02" rms="9.0670131146907806e-02" purity="8.2885697484016418e-03" nType="-99"/>
          </Node>
        </Node>
      </Node>
    </BinaryTree>
    <BinaryTree type="DecisionTree" boostWeight="1.0000000000000000e+00" itree="10">
      <Node pos="s" depth="0" NCoef="0" IVar="0" Cut="2.5467945861816406e+02" cType="1" res="7.1823731064796448e-02" rms="3.9796993136405945e-01" purity="5.0018388032913208e-01" nType="0">
        <Node pos="l" depth="1" NCoef="0" IVar="1" Cut="1.1007181549072266e+02" cType="1" res="1.3501681387424469e-01" rms="4.3253362178802490e-01" purity="6.5835672616958618e-01" nType="0">
          <Node pos="l" depth="2" NCoef="0" IVar="1" Cut="5.5162944793701172e+01" cType="1" res="1.7704957723617554e-01" rms="4.2247161269187927e-01" purity="7.2558611631393433e-01" nType="0">
            <Node pos="l" depth="3" NCoef="0" IVar="-1" Cut="0.0000000000000000e+00" cType="1" res="-3.0240666121244431e-02" rms="4.2409464716911316e-01" purity="2.5288689136505127e-01" nType="-99"/>
            <Node pos="r" depth="3" NCoef="0" IVar="-1" Cut="0.0000000000000000e+00" cType="1" res="1.3272079639136791e-02" rms="4.0717247128486633e-01" purity="7.6052457094192505e-01" nType="-99"/>
          </Node>
          <Node pos="r" depth="2" NCoef="0" IVar="1" Cut="1.2227401733398438e+02" cType="1" res="-1.5733651816844940e-01" rms="3.8621762394905090e-01" purity="1.9075129926204681e-01" nType="0">
            <Node pos="l" depth="3" NCoef="0" IVar="-1" Cut="0.0000000000000000e+00" cType="1" res="-6.5957396291196346e-03" rms="4.7529214620590210e-01" purity="3.4872877597808838e-01" nType="-99"/>
            <Node pos="r" depth="3" NCoef="0" IVar="-1" Cut="0.0000000000000000e+00" cType="1" res="-4.7899212688207626e-02" rms="3.2334807515144348e-01" purity="1.1402396857738495e-01" nType="-99"/>
          </Node>
        </Node>
        <Node pos="r" depth="1" NCoef="0" IVar="0" Cut="4.6689666748046875e+02" cType="1" res="-1.1852464079856873e-01" rms="1.5379753708839417e-01" purity="2.3740172386169434e-02" nType="0">
          <Node pos="l" depth="2" NCoef="0" IVar="0" Cut="2.7489068603515625e+02" cType="1" res="-1.2289785593748093e-01" rms="1.7102421820163727e-01" purity="2.9430726543068886e-02" nType="0">
            <Node pos="l" depth="3" NCoef="0" IVar="-1" Cut="0.0000000000000000e+00" cType="1" res="-5.9484843164682388e-02" rms="2.4225480854511261e-01" purity="6.0859356075525284e-02" nType="-99"/>
            <Node pos="r" depth="3" NCoef="0" IVar="-1" Cut="0.0000000000000000e+00" cType="1" res="-6.7261755466461182e-02" rms="1.4941792190074921e-01" purity="2.2923914715647697e-02" nType="-99"/>
          </Node>
          <Node pos="r" depth="2" NCoef="0" IVar="1" Cut="3.6484576416015625e+02" cType="1" res="-1.0586652159690857e-01" rms="8.5098922252655029e-02" purity="7.2690560482442379e-03" nType="0">
            <Node pos="l" depth="3" NCoef="0" IVar="-1" Cut="0.0000000000000000e+00" cType="1" res="-8.0137103796005249e-02" rms="8.0358982086181641e-02" purity="6.4768139272928238e-03" nType="-99"/>
            <Node pos="r" depth="3" NCoef="0" IVar="-1" Cut="0.0000000000000000e+00" cType="1" res="-7.9068586230278015e-02" rms="9.0595796704292297e-02" purity="8.2567110657691956e-03" nType="-99"/>
          </Node>
        </Node>
      </Node>
    </BinaryTree>
    <BinaryTree type="DecisionTree" boostWeight="1.0000000000000000e+00" itree="11">
      <Node pos="s" depth="0" NCoef="0" IVar="0" Cut="2.7069055175781250e+02" cType="1" res="7.3667205870151520e-02" rms="3.9340758323669434e-01" purity="5.0003457069396973e-01" nType="0">
        <Node pos="l" depth="1" NCoef="0" IVar="0" Cut="2.0367988586425781e+02" cType="1" res="1.2240104377269745e-01" rms="4.2826268076896667e-01" purity="6.3870519399642944e-01" nType="0">
          <Node pos="l" depth="2" NCoef="0" IVar="0" Cut="1.3188328552246094e+02" cType="1" res="1.7692998051643372e-01" rms="4.1982650756835938e-01" purity="7.3750394582748413e-01" nType="0">
            <Node pos="l" depth="3" NCoef="0" IVar="-1" Cut="0.0000000000000000e+00" cType="1" res="-2.2842910140752792e-02" rms="4.6127343177795410e-01" purity="3.2482421398162842e-01" nType="-99"/>
            <Node pos="r" depth="3" NCoef="0" IVar="-1" Cut="0.0000000000000000e+00" cType="1" res="1.3183108530938625e-02" rms="4.0174537897109985e-01" purity="7.7074795961380005e-01" nType="-99"/>
          </Node>
          <Node pos="r" depth="2" NCoef="0" IVar="1" Cut="8.3740325927734375e+01" cType="1" res="-1.0956818610429764e-01" rms="3.8390925526618958e-01" purity="2.1840947866439819e-01" nType="0">
            <Node pos="l" depth="3" NCoef="0" IVar="-1" Cut="0.0000000000000000e+00" cType="1" res="-5.4621309041976929e-02" rms="3.0118525028228760e-01" purity="1.0993628203868866e-01" nType="-99"/>
            <Node pos="r" depth="3" NCoef="0" IVar="-1" Cut="0.0000000000000000e+00" cType="1" res="-1.0951546952128410e-02" rms="3.9538046717643738e-01" purity="2.4886226654052734e-01" nType="-99"/>
          </Node>
        </Node>
        <Node pos="r" depth="1" NCoef="0" IVar="0" Cut="4.9405816650390625e+02" cType="1" res="-9.5348216593265533e-02" rms="1.3653342425823212e-01" purity="1.9106483086943626e-02" nType="0">
          <Node pos="l" depth="2" NCoef="0" IVar="0" Cut="2.9196362304687500e+02" cType="1" res="-9.7246520221233368e-02" rms="1.4956720173358917e-01" purity="2.2984255105257034e-02" nType="0">
            <Node pos="l" depth="3" NCoef="0" IVar="-1" Cut="0.0000000000000000e+00" cType="1" res="-5.4077278822660446e-02" rms="2.0790064334869385e-01" purity="4.5125015079975128e-02" nType="-99"/>
            <Node pos="r" depth="3" NCoef="0" IVar="-1" Cut="0.0000000000000000e+00" cType="1" res="-6.7915640771389008e-02" rms="1.3375362753868103e-01" purity="1.8288161605596542e-02" nType="-99"/>
          </Node>
          <Node pos="r" depth="2" NCoef="0" IVar="-1" Cut="0.0000000000000000e+00" cType="1" res="-7.7561274170875549e-02" rms="8.3619393408298492e-02" purity="7.0403981953859329e-03" nType="-99"/>
        </Node>
      </Node>
    </BinaryTree>
    <BinaryTree type="DecisionTree" boostWeight="1.0000000000000000e+00" itree="12">
      <Node pos="s" depth="0" NCoef="0" IVar="0" Cut="2.6520672607421875e+02" cType="1" res="7.4866227805614471e-02" rms="3.8981360197067261e-01" purity="5.0023031234741211e-01" nType="0">
        <Node pos="l" depth="1" NCoef="0" IVar="1" Cut="1.0376895141601562e+02" cType="1" res="1.2319406121969223e-01" rms="4.2649024724960327e-01" purity="6.4532536268234253e-01" nType="0">
          <Node pos="l" depth="2" NCoef="0" IVar="1" Cut="5.6737300872802734e+01" cType="1" res="1.7077754437923431e-01" rms="4.1469722986221313e-01" purity="7.2730076313018799e-01" nType="0">
            <Node pos="l" depth="3" NCoef="0" IVar="-1" Cut="0.0000000000000000e+00" cType="1" res="-2.4085564538836479e-02" rms="4.2989581823348999e-01" purity="2.7525770664215088e-01" nType="-99"/>
            <Node pos="r" depth="3" NCoef="0" IVar="-1" Cut="0.0000000000000000e+00" cType="1" res="1.2993747368454933e-02" rms="3.9865845441818237e-01" purity="7.6670575141906738e-01" nType="-99"/>
          </Node>
          <Node pos="r" depth="2" NCoef="0" IVar="1" Cut="1.1766465759277344e+02" cType="1" res="-1.0736507922410965e-01" rms="4.0722519159317017e-01" purity="2.4812522530555725e-01" nType="0">
            <Node pos="l" depth="3" NCoef="0" IVar="-1" Cut="0.0000000000000000e+00" cType="1" res="-3.7169319693930447e-04" rms="4.8575955629348755e-01" purity="4.4939157366752625e-01" nType="-99"/>
            <Node pos="r" depth="3" NCoef="0" IVar="-1" Cut="0.0000000000000000e+00" cType="1" res="-3.7938863039016724e-02" rms="3.3980405330657959e-01" purity="1.3167811930179596e-01" nType="-99"/>
          </Node>
        </Node>
        <Node pos="r" depth="1" NCoef="0" IVar="0" Cut="4.8744976806640625e+02" cType="1" res="-8.5113614797592163e-02" rms="1.3971917331218719e-01" purity="1.9921643659472466e-02" nType="0">
          <Node pos="l" depth="2" NCoef="0" IVar="0" Cut="2.8637258911132812e+02" cType="1" res="-8.7821893393993378e-02" rms="1.5309952199459076e-01" purity="2.3983836174011230e-02" nType="0">
            <Node pos="l" depth="3" NCoef="0" IVar="-1" Cut="0.0000000000000000e+00" cType="1" res="-5.2827894687652588e-02" rms="2.1624587476253510e-01" purity="4.8738427460193634e-02" nType="-99"/>
            <Node pos="r" depth="3" NCoef="0" IVar="-1" Cut="0.0000000000000000e+00" cType="1" res="-6.4993187785148621e-02" rms="1.3526572287082672e-01" purity="1.8725994974374771e-02" nType="-99"/>
          </Node>
          <Node pos="r" depth="2" NCoef="0" IVar="1" Cut="3.7196331787109375e+02" cType="1" res="-7.6730780303478241e-02" rms="8.5446916520595551e-02" purity="7.3480797000229359e-03" nType="0">
            <Node pos="l" depth="3" NCoef="0" IVar="-1" Cut="0.0000000000000000e+00" cType="1" res="-7.5190395116806030e-02" rms="8.3333685994148254e-02" purity="6.9848671555519104e-03" nType="-99"/>
            <Node pos="r" depth="3" NCoef="0" IVar="-1" Cut="0.0000000000000000e+00" cType="1" res="-7.5212217867374420e-02" rms="8.7823085486888885e-02" purity="7.7692028135061264e-03" nType="-99"/>
          </Node>
        </Node>
      </Node>
    </BinaryTree>
    <BinaryTree type="DecisionTree" boostWeight="1.0000000000000000e+00" itree="13">
      <Node pos="s" depth="0" NCoef="0" IVar="0" Cut="2.8941757202148438e+02" cType="1" res="7.5318410992622375e-02" rms="3.8630524277687073e-01" purity="4.9987664818763733e-01" nType="0">
        <Node pos="l" depth="1" NCoef="0" IVar="0" Cut="2.0510003662109375e+02" cType="1" res="1.1092270910739899e-01" rms="4.1940981149673462e-01" purity="6.1906522512435913e-01" nType="0">
          <Node pos="l" depth="2" NCoef="0" IVar="0" Cut="1.3282810974121094e+02" cType="1" res="1.6693308949470520e-01" rms="4.1728752851486206e-01" purity="7.3554342985153198e-01" nType="0">
            <Node pos="l" depth="3" NCoef="0" IVar="-1" Cut="0.0000000000000000e+00" cType="1" res="-1.9921187311410904e-02" rms="4.6443009376525879e-01" purity="3.3771201968193054e-01" nType="-99"/>
            <Node pos="r" depth="3" NCoef="0" IVar="-1" Cut="0.0000000000000000e+00" cType="1" res="1.2593179009854794e-02" rms="4.0017569065093994e-01" purity="7.6909369230270386e-01" nType="-99"/>
          </Node>
          <Node pos="r" depth="2" NCoef="0" IVar="1" Cut="8.8601058959960938e+01" cType="1" res="-9.9951997399330139e-02" rms="3.5540223121643066e-01" purity="1.8053415417671204e-01" nType="0">
            <Node pos="l" depth="3" NCoef="0" IVar="-1" Cut="0.0000000000000000e+00" cType="1" res="-4.4611673802137375e-02" rms="3.0484533309936523e-01" purity="1.1685326695442200e-01" nType="-99"/>
            <Node pos="r" depth="3" NCoef="0" IVar="-1" Cut="0.0000000000000000e+00" cType="1" res="-1.2338679283857346e-02" rms="3.6595219373703003e-01" purity="2.0355771481990814e-01" nType="-99"/>
          </Node>
        </Node>
        <Node pos="r" depth="1" NCoef="0" IVar="0" Cut="5.3032403564453125e+02" cType="1" res="-6.9584704935550690e-02" rms="1.2050684541463852e-01" purity="1.4800351113080978e-02" nType="0">
          <Node pos="l" depth="2" NCoef="0" IVar="0" Cut="3.5824795532226562e+02" cType="1" res="-7.0706456899642944e-02" rms="1.2954214215278625e-01" purity="1.7133258283138275e-02" nType="0">
            <Node pos="l" depth="3" NCoef="0" IVar="-1" Cut="0.0000000000000000e+00" cType="1" res="-5.6064669042825699e-02" rms="1.5451262891292572e-01" purity="2.4535126984119415e-02" nType="-99"/>
            <Node pos="r" depth="3" NCoef="0" IVar="-1" Cut="0.0000000000000000e+00" cType="1" res="-7.1564204990863800e-02" rms="1.0240773111581802e-01" purity="1.0602223686873913e-02" nType="-99"/>
          </Node>
          <Node pos="r" depth="2" NCoef="0" IVar="-1" Cut="0.0000000000000000e+00" cType="1" res="-7.3951393365859985e-02" rms="8.1731885671615601e-02" purity="6.7230323329567909e-03" nType="-99"/>
        </Node>
      </Node>
    </BinaryTree>
    <BinaryTree type="DecisionTree" boostWeight="1.0000000000000000e+00" itree="14">
      <Node pos="s" depth="0" NCoef="0" IVar="0" Cut="2.6659243774414062e+02" cType="1" res="7.5538299977779388e-02" rms="3.8364401459693909e-01" purity="4.9979460239410400e-01" nType="0">
        <Node pos="l" depth="1" NCoef="0" IVar="1" Cut="1.0365915679931641e+02" cType="1" res="1.1715739965438843e-01" rms="4.2172110080718994e-01" purity="6.4329898357391357e-01" nType="0">
          <Node pos="l" depth="2" NCoef="0" IVar="1" Cut="5.6685031890869141e+01" cType="1" res="1.6237851977348328e-01" rms="4.1120216250419617e-01" purity="7.2640168666839600e-01" nType="0">
            <Node pos="l" depth="3" NCoef="0" IVar="-1" Cut="0.0000000000000000e+00" cType="1" res="-2.2577805444598198e-02" rms="4.2826047539710999e-01" purity="2.7401888370513916e-01" nType="-99"/>
            <Node pos="r" depth="3" NCoef="0" IVar="-1" Cut="0.0000000000000000e+00" cType="1" res="1.2450645677745342e-02" rms="3.9666643738746643e-01" purity="7.6575899124145508e-01" nType="-99"/>
          </Node>
          <Node pos="r" depth="2" NCoef="0" IVar="1" Cut="1.1753788757324219e+02" cType="1" res="-9.8983280360698700e-02" rms="4.0402275323867798e-01" purity="2.4609830975532532e-01" nType="0">
            <Node pos="l" depth="3" NCoef="0" IVar="-1" Cut="0.0000000000000000e+00" cType="1" res="-5.8070215163752437e-04" rms="4.8550188541412354e-01" purity="4.4963237643241882e-01" nType="-99"/>
            <Node pos="r" depth="3" NCoef="0" IVar="-1" Cut="0.0000000000000000e+00" cType="1" res="-3.6167994141578674e-02" rms="3.3700409531593323e-01" purity="1.2872177362442017e-01" nType="-99"/>
          </Node>
        </Node>
        <Node pos="r" depth="1" NCoef="0" IVar="0" Cut="4.9015557861328125e+02" cType="1" res="-6.3629992306232452e-02" rms="1.3957162201404572e-01" purity="1.9936509430408478e-02" nType="0">
          <Node pos="l" depth="2" NCoef="0" IVar="0" Cut="2.8788446044921875e+02" cType="1" res="-6.5774589776992798e-02" rms="1.5338833630084991e-01" purity="2.4134742096066475e-02" nType="0">
            <Node pos="l" depth="3" NCoef="0" IVar="-1" Cut="0.0000000000000000e+00" cType="1" res="-4.8082027584314346e-02" rms="2.1354795992374420e-01" purity="4.7782234847545624e-02" nType="-99"/>
            <Node pos="r" depth="3" NCoef="0" IVar="-1" Cut="0.0000000000000000e+00" cType="1" res="-5.9147529304027557e-02" rms="1.3655415177345276e-01" purity="1.9079310819506645e-02" nType="-99"/>
          </Node>
          <Node pos="r" depth="2" NCoef="0" IVar="-1" Cut="0.0000000000000000e+00" cType="1" res="-7.2177082300186157e-02" rms="8.2151837646961212e-02" purity="6.7935716360807419e-03" nType="-99"/>
        </Node>
      </Node>
    </BinaryTree>
    <BinaryTree type="DecisionTree" boostWeight="1.0000000000000000e+00" itree="15">
      <Node pos="s" depth="0" NCoef="0" IVar="0" Cut="2.6659243774414062e+02" cType="1" res="7.6246678829193115e-02" rms="3.8067018985748291e-01" purity="5.0038093328475952e-01" nType="0">
        <Node pos="l" depth="1" NCoef="0" IVar="0" Cut="1.9952328491210938e+02" cType="1" res="1.1559927463531494e-01" rms="4.1927084326744080e-01" purity="6.4403486251831055e-01" nType="0">
          <Node pos="l" depth="2" NCoef="0" IVar="0" Cut="1.3564830017089844e+02" cType="1" res="1.6388177871704102e-01" rms="4.1124615073204041e-01" purity="7.4323910474777222e-01" nType="0">
            <Node pos="l" depth="3" NCoef="0" IVar="-1" Cut="0.0000000000000000e+00" cType="1" res="-1.4415828511118889e-02" rms="4.7257375717163086e-01" purity="3.7759053707122803e-01" nType="-99"/>
            <Node pos="r" depth="3" NCoef="0" IVar="-1" Cut="0.0000000000000000e+00" cType="1" res="1.2547440826892853e-02" rms="3.9110773801803589e-01" purity="7.8216677904129028e-01" nType="-99"/>
          </Node>
          <Node pos="r" depth="2" NCoef="0" IVar="1" Cut="8.2985023498535156e+01" cType="1" res="-6.7213520407676697e-02" rms="3.9846622943878174e-01" purity="2.6841628551483154e-01" nType="0">
            <Node pos="l" depth="3" NCoef="0" IVar="-1" Cut="0.0000000000000000e+00" cType="1" res="-4.5977525413036346e-02" rms="3.2085764408111572e-01" purity="1.3241304457187653e-01" nType="-99"/>
            <Node pos="r" depth="3" NCoef="0" IVar="-1" Cut="0.0000000000000000e+00" cType="1" res="-3.6365154664963484e-03" rms="4.0702602267265320e-01" purity="3.0453592538833618e-01" nType="-99"/>
          </Node>
        </Node>
        <Node pos="r" depth="1" NCoef="0" IVar="0" Cut="4.9015527343750000e+02" cType="1" res="-5.5495701730251312e-02" rms="1.3782915472984314e-01" purity="1.9464246928691864e-02" nType="0">
          <Node pos="l" depth="2" NCoef="0" IVar="0" Cut="2.8788415527343750e+02" cType="1" res="-5.7553023099899292e-02" rms="1.5160243213176727e-01" purity="2.3604225367307663e-02" nType="0">
            <Node pos="l" depth="3" NCoef="0" IVar="-1" Cut="0.0000000000000000e+00" cType="1" res="-4.5184195041656494e-02" rms="2.1335533261299133e-01" purity="4.7758735716342926e-02" nType="-99"/>
            <Node pos="r" depth="3" NCoef="0" IVar="-1" Cut="0.0000000000000000e+00" cType="1" res="-5.7359099388122559e-02" rms="1.3433910906314850e-01" purity="1.8449738621711731e-02" nType="-99"/>
          </Node>
          <Node pos="r" depth="2" NCoef="0" IVar="-1" Cut="0.0000000000000000e+00" cType="1" res="-7.0740446448326111e-02" rms="8.0660238862037659e-02" purity="6.5487874671816826e-03" nType="-99"/>
        </Node>
      </Node>
    </BinaryTree>
    <BinaryTree type="DecisionTree" boostWeight="1.0000000000000000e+00" itree="16">
      <Node pos="s" depth="0" NCoef="0" IVar="0" Cut="2.7098696899414062e+02" cType="1" res="7.5388967990875244e-02" rms="3.7827333807945251e-01" purity="4.9987784028053284e-01" nType="0">
        <Node pos="l" depth="1" NCoef="0" IVar="1" Cut="1.0520513153076172e+02" cType="1" res="1.1061497777700424e-01" rms="4.1663083434104919e-01" purity="6.3838618993759155e-01" nType="0">
          <Node pos="l" depth="2" NCoef="0" IVar="1" Cut="5.3409538269042969e+01" cType="1" res="1.5263883769512177e-01" rms="4.0869280695915222e-01" purity="7.2216981649398804e-01" nType="0">
            <Node pos="l" depth="3" NCoef="0" IVar="-1" Cut="0.0000000000000000e+00" cType="1" res="-3.0677903443574905e-02" rms="4.0114292502403259e-01" purity="2.1754057705402374e-01" nType="-99"/>
            <Node pos="r" depth="3" NCoef="0" IVar="-1" Cut="0.0000000000000000e+00" cType="1" res="1.1721015907824039e-02" rms="3.9794802665710449e-01" purity="7.5642228126525879e-01" nType="-99"/>
          </Node>
          <Node pos="r" depth="2" NCoef="0" IVar="1" Cut="1.1923314666748047e+02" cType="1" res="-9.9046424031257629e-02" rms="3.9178863167762756e-01" purity="2.2038149833679199e-01" nType="0">
            <Node pos="l" depth="3" NCoef="0" IVar="-1" Cut="0.0000000000000000e+00" cType="1" res="-2.3851841688156128e-03" rms="4.8108038306236267e-01" purity="4.0977406501770020e-01" nType="-99"/>
            <Node pos="r" depth="3" NCoef="0" IVar="-1" Cut="0.0000000000000000e+00" cType="1" res="-3.6238770931959152e-02" rms="3.2684686779975891e-01" purity="1.1862646788358688e-01" nType="-99"/>
          </Node>
        </Node>
        <Node pos="r" depth="1" NCoef="0" IVar="0" Cut="4.9434063720703125e+02" cType="1" res="-4.7127470374107361e-02" rms="1.3311031460762024e-01" purity="1.8144017085433006e-02" nType="0">
          <Node pos="l" depth="2" NCoef="0" IVar="0" Cut="2.9225888061523438e+02" cType="1" res="-4.8804476857185364e-02" rms="1.4586807787418365e-01" purity="2.1837694570422173e-02" nType="0">
            <Node pos="l" depth="3" NCoef="0" IVar="-1" Cut="0.0000000000000000e+00" cType="1" res="-4.3386675417423248e-02" rms="2.0070381462574005e-01" purity="4.2029406875371933e-02" nType="-99"/>
            <Node pos="r" depth="3" NCoef="0" IVar="-1" Cut="0.0000000000000000e+00" cType="1" res="-5.5725436657667160e-02" rms="1.3109099864959717e-01" purity="1.7545456066727638e-02" nType="-99"/>
          </Node>
          <Node pos="r" depth="2" NCoef="0" IVar="-1" Cut="0.0000000000000000e+00" cType="1" res="-6.8637020885944366e-02" rms="8.1268191337585449e-02" purity="6.6474368795752525e-03" nType="-99"/>
        </Node>
      </Node>
    </BinaryTree>
    <BinaryTree type="DecisionTree" boostWeight="1.0000000000000000e+00" itree="17">
      <Node pos="s" depth="0" NCoef="0" IVar="0" Cut="2.8502304077148438e+02" cType="1" res="7.5080126523971558e-02" rms="3.7591966986656189e-01" purity="4.9938112497329712e-01" nType="0">
        <Node pos="l" depth="1" NCoef="0" IVar="0" Cut="2.0063250732421875e+02" cType="1" res="1.0419081151485443e-01" rms="4.1158780455589294e-01" purity="6.2296205759048462e-01" nType="0">
          <Node pos="l" depth="2" NCoef="0" IVar="0" Cut="1.3633491516113281e+02" cType="1" res="1.5402303636074066e-01" rms="4.0948483347892761e-01" purity="7.4112987518310547e-01" nType="0">
            <Node pos="l" depth="3" NCoef="0" IVar="-1" Cut="0.0000000000000000e+00" cType="1" res="-1.3066590763628483e-02" rms="4.7334021329879761e-01" purity="3.8491967320442200e-01" nType="-99"/>
            <Node pos="r" depth="3" NCoef="0" IVar="-1" Cut="0.0000000000000000e+00" cType="1" res="1.1987986043095589e-02" rms="3.8999387621879578e-01" purity="7.8050094842910767e-01" nType="-99"/>
          </Node>
          <Node pos="r" depth="2" NCoef="0" IVar="1" Cut="8.7321220397949219e+01" cType="1" res="-6.3268445432186127e-02" rms="3.7258499860763550e-01" purity="2.2586354613304138e-01" nType="0">
            <Node pos="l" depth="3" NCoef="0" IVar="-1" Cut="0.0000000000000000e+00" cType="1" res="-3.5486694425344467e-02" rms="3.2588699460029602e-01" purity="1.4473655819892883e-01" nType="-99"/>
            <Node pos="r" depth="3" NCoef="0" IVar="-1" Cut="0.0000000000000000e+00" cType="1" res="-4.5562544837594032e-03" rms="3.8064303994178772e-01" purity="2.5339365005493164e-01" nType="-99"/>
          </Node>
        </Node>
        <Node pos="r" depth="1" NCoef="0" IVar="0" Cut="5.2613885498046875e+02" cType="1" res="-3.8958508521318436e-02" rms="1.2229088693857193e-01" purity="1.5263505280017853e-02" nType="0">
          <Node pos="l" depth="2" NCoef="0" IVar="1" Cut="1.3290522766113281e+02" cType="1" res="-3.9760634303092957e-02" rms="1.3226002454757690e-01" purity="1.7882041633129120e-02" nType="0">
            <Node pos="l" depth="3" NCoef="0" IVar="-1" Cut="0.0000000000000000e+00" cType="1" res="-6.3569232821464539e-02" rms="1.0360784083604813e-01" purity="1.0862800292670727e-02" nType="-99"/>
            <Node pos="r" depth="3" NCoef="0" IVar="-1" Cut="0.0000000000000000e+00" cType="1" res="-4.7856889665126801e-02" rms="1.4363212883472443e-01" purity="2.1168246865272522e-02" nType="-99"/>
          </Node>
          <Node pos="r" depth="2" NCoef="0" IVar="-1" Cut="0.0000000000000000e+00" cType="1" res="-6.7723810672760010e-02" rms="7.7976688742637634e-02" purity="6.1163497157394886e-03" nType="-99"/>
        </Node>
      </Node>
    </BinaryTree>
    <BinaryTree type="DecisionTree" boostWeight="1.0000000000000000e+00" itree="18">
      <Node pos="s" depth="0" NCoef="0" IVar="0" Cut="2.7235195922851562e+02" cType="1" res="7.4415929615497589e-02" rms="3.7388262152671814e-01" purity="4.9986243247985840e-01" nType="0">
        <Node pos="l" depth="1" NCoef="0" IVar="1" Cut="1.0568037414550781e+02" cType="1" res="1.0560783743858337e-01" rms="4.1247248649597168e-01" purity="6.3674199581146240e-01" nType="0">
          <Node pos="l" depth="2" NCoef="0" IVar="1" Cut="4.9622394561767578e+01" cType="1" res="1.4504551887512207e-01" rms="4.0590125322341919e-01" purity="7.2095006704330444e-01" nType="0">
            <Node pos="l" depth="3" NCoef="0" IVar="-1" Cut="0.0000000000000000e+00" cType="1" res="-4.2609732598066330e-02" rms="3.6169114708900452e-01" purity="1.6195347905158997e-01" nType="-99"/>
            <Node pos="r" depth="3" NCoef="0" IVar="-1" Cut="0.0000000000000000e+00" cType="1" res="1.1112202890217304e-02" rms="3.9824953675270081e-01" purity="7.4985444545745850e-01" nType="-99"/>
          </Node>
          <Node pos="r" depth="2" NCoef="0" IVar="0" Cut="1.9102729797363281e+02" cType="1" res="-9.3419529497623444e-02" rms="3.8705539703369141e-01" purity="2.1177470684051514e-01" nType="0">
            <Node pos="l" depth="3" NCoef="0" IVar="-1" Cut="0.0000000000000000e+00" cType="1" res="-2.7961252257227898e-02" rms="4.1107127070426941e-01" purity="2.3921130597591400e-01" nType="-99"/>
            <Node pos="r" depth="3" NCoef="0" IVar="-1" Cut="0.0000000000000000e+00" cType="1" res="-1.1783749796450138e-02" rms="3.7333583831787109e-01" purity="2.0295752584934235e-01" nType="-99"/>
          </Node>
        </Node>
        <Node pos="r" depth="1" NCoef="0" IVar="0" Cut="4.9564065551757812e+02" cType="1" res="-3.5420361906290054e-02" rms="1.3207168877124786e-01" purity="1.7867505550384521e-02" nType="0">
          <Node pos="l" depth="2" NCoef="0" IVar="0" Cut="2.9361761474609375e+02" cType="1" res="-3.6762092262506485e-02" rms="1.4504897594451904e-01" purity="2.1595207974314690e-02" nType="0">
            <Node pos="l" depth="3" NCoef="0" IVar="-1" Cut="0.0000000000000000e+00" cType="1" res="-3.7738170474767685e-02" rms="2.0176173746585846e-01" purity="4.2431380599737167e-02" nType="-99"/>
            <Node pos="r" depth="3" NCoef="0" IVar="-1" Cut="0.0000000000000000e+00" cType="1" res="-5.0858415663242340e-02" rms="1.2966968119144440e-01" purity="1.7154274508357048e-02" nType="-99"/>
          </Node>
          <Node pos="r" depth="2" NCoef="0" IVar="-1" Cut="0.0000000000000000e+00" cType="1" res="-6.5502993762493134e-02" rms="7.9307556152343750e-02" purity="6.3303052447736263e-03" nType="-99"/>
        </Node>
      </Node>
    </BinaryTree>
    <BinaryTree type="DecisionTree" boostWeight="1.0000000000000000e+00" itree="19">
      <Node pos="s" depth="0" NCoef="0" IVar="0" Cut="2.8502304077148438e+02" cType="1" res="7.4271902441978455e-02" rms="3.7211319804191589e-01" purity="5.0039911270141602e-01" nType="0">
        <Node pos="l" depth="1" NCoef="0" IVar="0" Cut="2.0063238525390625e+02" cType="1" res="1.0035373270511627e-01" rms="4.0791448950767517e-01" purity="6.2383341789245605e-01" nType="0">
          <Node pos="l" depth="2" NCoef="0" IVar="0" Cut="1.2829769897460938e+02" cType="1" res="1.4706751704216003e-01" rms="4.0645042061805725e-01" purity="7.4171686172485352e-01" nType="0">
            <Node pos="l" depth="3" NCoef="0" IVar="-1" Cut="0.0000000000000000e+00" cType="1" res="-2.5919640436768532e-02" rms="4.4201526045799255e-01" purity="2.7689349651336670e-01" nType="-99"/>
            <Node pos="r" depth="3" NCoef="0" IVar="-1" Cut="0.0000000000000000e+00" cType="1" res="1.1218377389013767e-02" rms="3.9373302459716797e-01" purity="7.7212935686111450e-01" nType="-99"/>
          </Node>
          <Node pos="r" depth="2" NCoef="0" IVar="1" Cut="7.5978935241699219e+01" cType="1" res="-5.7277642190456390e-02" rms="3.7176102399826050e-01" purity="2.2604635357856750e-01" nType="0">
            <Node pos="l" depth="3" NCoef="0" IVar="-1" Cut="0.0000000000000000e+00" cType="1" res="-6.1871904879808426e-02" rms="2.5113520026206970e-01" purity="6.7054346203804016e-02" nType="-99"/>
            <Node pos="r" depth="3" NCoef="0" IVar="-1" Cut="0.0000000000000000e+00" cType="1" res="-5.4939137771725655e-03" rms="3.8253682851791382e-01" purity="2.5188469886779785e-01" nType="-99"/>
          </Node>
        </Node>
        <Node pos="r" depth="1" NCoef="0" IVar="0" Cut="5.2613879394531250e+02" cType="1" res="-2.8059924021363258e-02" rms="1.2553898990154266e-01" purity="1.6106005758047104e-02" nType="0">
          <Node pos="l" depth="2" NCoef="0" IVar="0" Cut="3.3094970703125000e+02" cType="1" res="-2.8510687872767448e-02" rms="1.3598807156085968e-01" purity="1.8927605822682381e-02" nType="0">
            <Node pos="l" depth="3" NCoef="0" IVar="-1" Cut="0.0000000000000000e+00" cType="1" res="-3.0701452866196632e-02" rms="1.7024075984954834e-01" purity="2.9945308342576027e-02" nType="-99"/>
            <Node pos="r" depth="3" NCoef="0" IVar="-1" Cut="0.0000000000000000e+00" cType="1" res="-5.4311990737915039e-02" rms="1.1451606452465057e-01" purity="1.3308417052030563e-02" nType="-99"/>
          </Node>
          <Node pos="r" depth="2" NCoef="0" IVar="-1" Cut="0.0000000000000000e+00" cType="1" res="-6.3451968133449554e-02" rms="7.8666977584362030e-02" purity="6.2264432199299335e-03" nType="-99"/>
        </Node>
      </Node>
    </BinaryTree>
    <BinaryTree type="DecisionTree" boostWeight="1.0000000000000000e+00" itree="20">
      <Node pos="s" depth="0" NCoef="0" IVar="0" Cut="2.8502304077148438e+02" cType="1" res="7.2898522019386292e-02" rms="3.7020874023437500e-01" purity="4.9969303607940674e-01" nType="0">
        <Node pos="l" depth="1" NCoef="0" IVar="1" Cut="1.1112145233154297e+02" cType="1" res="9.7692973911762238e-02" rms="4.0623718500137329e-01" purity="6.2325042486190796e-01" nType="0">
          <Node pos="l" depth="2" NCoef="0" IVar="1" Cut="6.0238510131835938e+01" cType="1" res="1.3284076750278473e-01" rms="4.0521061420440674e-01" purity="7.0656961202621460e-01" nType="0">
            <Node pos="l" depth="3" NCoef="0" IVar="-1" Cut="0.0000000000000000e+00" cType="1" res="-1.2372117489576340e-02" rms="4.2978742718696594e-01" purity="3.3339160680770874e-01" nType="-99"/>
            <Node pos="r" depth="3" NCoef="0" IVar="-1" Cut="0.0000000000000000e+00" cType="1" res="1.0861585848033428e-02" rms="3.9393076300621033e-01" purity="7.4762135744094849e-01" nType="-99"/>
          </Node>
          <Node pos="r" depth="2" NCoef="0" IVar="0" Cut="2.0047146606445312e+02" cType="1" res="-1.0156837105751038e-01" rms="3.5077413916587830e-01" purity="1.5089353919029236e-01" nType="0">
            <Node pos="l" depth="3" NCoef="0" IVar="-1" Cut="0.0000000000000000e+00" cType="1" res="-3.4522037953138351e-02" rms="3.7847107648849487e-01" purity="1.8452307581901550e-01" nType="-99"/>
            <Node pos="r" depth="3" NCoef="0" IVar="-1" Cut="0.0000000000000000e+00" cType="1" res="-1.7894396558403969e-02" rms="3.3302661776542664e-01" purity="1.3897873461246490e-01" nType="-99"/>
          </Node>
        </Node>
        <Node pos="r" depth="1" NCoef="0" IVar="0" Cut="5.2613879394531250e+02" cType="1" res="-2.4148764088749886e-02" rms="1.2544855475425720e-01" purity="1.6080647706985474e-02" nType="0">
          <Node pos="l" depth="2" NCoef="0" IVar="0" Cut="3.5391253662109375e+02" cType="1" res="-2.4666247889399529e-02" rms="1.3554847240447998e-01" purity="1.8804177641868591e-02" nType="0">
            <Node pos="l" depth="3" NCoef="0" IVar="-1" Cut="0.0000000000000000e+00" cType="1" res="-3.0261173844337463e-02" rms="1.6355963051319122e-01" purity="2.7567764744162560e-02" nType="-99"/>
            <Node pos="r" depth="3" NCoef="0" IVar="-1" Cut="0.0000000000000000e+00" cType="1" res="-5.6068994104862213e-02" rms="1.0475585609674454e-01" purity="1.1103630997240543e-02" nType="-99"/>
          </Node>
          <Node pos="r" depth="2" NCoef="0" IVar="-1" Cut="0.0000000000000000e+00" cType="1" res="-6.0182489454746246e-02" rms="8.0852583050727844e-02" purity="6.5794736146926880e-03" nType="-99"/>
        </Node>
      </Node>
    </BinaryTree>
    <BinaryTree type="DecisionTree" boostWeight="1.0000000000000000e+00" itree="21">
      <Node pos="s" depth="0" NCoef="0" IVar="0" Cut="2.8502304077148438e+02" cType="1" res="7.2551213204860687e-02" rms="3.6867827177047729e-01" purity="5.0071346759796143e-01" nType="0">
        <Node pos="l" depth="1" NCoef="0" IVar="0" Cut="2.0063238525390625e+02" cType="1" res="9.6480742096900940e-02" rms="4.0478283166885376e-01" purity="6.2418854236602783e-01" nType="0">
          <Node pos="l" depth="2" NCoef="0" IVar="0" Cut="1.2829771423339844e+02" cType="1" res="1.4050354063510895e-01" rms="4.0415665507316589e-01" purity="7.4219524860382080e-01" nType="0">
            <Node pos="l" depth="3" NCoef="0" IVar="-1" Cut="0.0000000000000000e+00" cType="1" res="-2.4768993258476257e-02" rms="4.4181174039840698e-01" purity="2.7492022514343262e-01" nType="-99"/>
            <Node pos="r" depth="3" NCoef="0" IVar="-1" Cut="0.0000000000000000e+00" cType="1" res="1.0808879509568214e-02" rms="3.9232918620109558e-01" purity="7.7253639698028564e-01" nType="-99"/>
          </Node>
          <Node pos="r" depth="2" NCoef="0" IVar="1" Cut="8.7321220397949219e+01" cType="1" res="-5.2360918372869492e-02" rms="3.6993986368179321e-01" purity="2.2520627081394196e-01" nType="0">
            <Node pos="l" depth="3" NCoef="0" IVar="-1" Cut="0.0000000000000000e+00" cType="1" res="-3.0411794781684875e-02" rms="3.2691761851310730e-01" purity="1.4910012483596802e-01" nType="-99"/>
            <Node pos="r" depth="3" NCoef="0" IVar="-1" Cut="0.0000000000000000e+00" cType="1" res="-3.6946113687008619e-03" rms="3.7877455353736877e-01" purity="2.5120925903320312e-01" nType="-99"/>
          </Node>
        </Node>
        <Node pos="r" depth="1" NCoef="0" IVar="0" Cut="5.2613879394531250e+02" cType="1" res="-2.1508067846298218e-02" rms="1.2271776050329208e-01" purity="1.5372417867183685e-02" nType="0">
          <Node pos="l" depth="2" NCoef="0" IVar="1" Cut="1.3207817077636719e+02" cType="1" res="-2.2173566743731499e-02" rms="1.3229022920131683e-01" purity="1.7892852425575256e-02" nType="0">
            <Node pos="l" depth="3" NCoef="0" IVar="-1" Cut="0.0000000000000000e+00" cType="1" res="-5.4430112242698669e-02" rms="1.0609415173530579e-01" purity="1.1418337002396584e-02" nType="-99"/>
            <Node pos="r" depth="3" NCoef="0" IVar="-1" Cut="0.0000000000000000e+00" cType="1" res="-3.5753130912780762e-02" rms="1.4277057349681854e-01" purity="2.0903266966342926e-02" nType="-99"/>
          </Node>
          <Node pos="r" depth="2" NCoef="0" IVar="-1" Cut="0.0000000000000000e+00" cType="1" res="-5.7900670915842056e-02" rms="8.0666564404964447e-02" purity="6.5489406697452068e-03" nType="-99"/>
        </Node>
      </Node>
    </BinaryTree>
    <BinaryTree type="DecisionTree" boostWeight="1.0000000000000000e+00" itree="22">
      <Node pos="s" depth="0" NCoef="0" IVar="0" Cut="2.7069055175781250e+02" cType="1" res="7.0840068161487579e-02" rms="3.6724543571472168e-01" purity="4.9964407086372375e-01" nType="0">
        <Node pos="l" depth="1" NCoef="0" IVar="1" Cut="1.0531015777587891e+02" cType="1" res="9.7187280654907227e-02" rms="4.0667670965194702e-01" purity="6.3827425241470337e-01" nType="0">
          <Node pos="l" depth="2" NCoef="0" IVar="1" Cut="4.9238258361816406e+01" cType="1" res="1.3263608515262604e-01" rms="4.0062481164932251e-01" purity="7.2198802232742310e-01" nType="0">
            <Node pos="l" depth="3" NCoef="0" IVar="-1" Cut="0.0000000000000000e+00" cType="1" res="-3.9164744317531586e-02" rms="3.5995525121688843e-01" purity="1.5890353918075562e-01" nType="-99"/>
            <Node pos="r" depth="3" NCoef="0" IVar="-1" Cut="0.0000000000000000e+00" cType="1" res="1.0314900428056717e-02" rms="3.9484533667564392e-01" purity="7.5038033723831177e-01" nType="-99"/>
          </Node>
          <Node pos="r" depth="2" NCoef="0" IVar="0" Cut="1.9035092163085938e+02" cType="1" res="-8.0319948494434357e-02" rms="3.8993531465530396e-01" purity="2.1908392012119293e-01" nType="0">
            <Node pos="l" depth="3" NCoef="0" IVar="-1" Cut="0.0000000000000000e+00" cType="1" res="-2.5470588356256485e-02" rms="4.1401460766792297e-01" purity="2.4798995256423950e-01" nType="-99"/>
            <Node pos="r" depth="3" NCoef="0" IVar="-1" Cut="0.0000000000000000e+00" cType="1" res="-9.3957539647817612e-03" rms="3.7651291489601135e-01" purity="2.0976580679416656e-01" nType="-99"/>
          </Node>
        </Node>
        <Node pos="r" depth="1" NCoef="0" IVar="0" Cut="4.9405825805664062e+02" cType="1" res="-2.0562505349516869e-02" rms="1.3505285978317261e-01" purity="1.8714198842644691e-02" nType="0">
          <Node pos="l" depth="2" NCoef="0" IVar="0" Cut="2.9196371459960938e+02" cType="1" res="-2.1732039749622345e-02" rms="1.4825561642646790e-01" purity="2.2598763927817345e-02" nType="0">
            <Node pos="l" depth="3" NCoef="0" IVar="-1" Cut="0.0000000000000000e+00" cType="1" res="-3.0484190210700035e-02" rms="2.0811913907527924e-01" purity="4.5350492000579834e-02" nType="-99"/>
            <Node pos="r" depth="3" NCoef="0" IVar="-1" Cut="0.0000000000000000e+00" cType="1" res="-3.8394927978515625e-02" rms="1.3179834187030792e-01" purity="1.7738167196512222e-02" nType="-99"/>
          </Node>
          <Node pos="r" depth="2" NCoef="0" IVar="-1" Cut="0.0000000000000000e+00" cType="1" res="-5.5650215595960617e-02" rms="8.1240944564342499e-02" purity="6.6446964628994465e-03" nType="-99"/>
        </Node>
      </Node>
    </BinaryTree>
    <BinaryTree type="DecisionTree" boostWeight="1.0000000000000000e+00" itree="23">
      <Node pos="s" depth="0" NCoef="0" IVar="0" Cut="2.8912115478515625e+02" cType="1" res="6.9755747914314270e-02" rms="3.6561292409896851e-01" purity="5.0010877847671509e-01" nType="0">
        <Node pos="l" depth="1" NCoef="0" IVar="0" Cut="2.0479882812500000e+02" cType="1" res="9.0756647288799286e-02" rms="4.0089198946952820e-01" purity="6.1948019266128540e-01" nType="0">
          <Node pos="l" depth="2" NCoef="0" IVar="0" Cut="1.4055334472656250e+02" cType="1" res="1.3070715963840485e-01" rms="4.0367239713668823e-01" purity="7.3586279153823853e-01" nType="0">
            <Node pos="l" depth="3" NCoef="0" IVar="-1" Cut="0.0000000000000000e+00" cType="1" res="-7.8915795311331749e-03" rms="4.7054469585418701e-01" purity="4.4153758883476257e-01" nType="-99"/>
            <Node pos="r" depth="3" NCoef="0" IVar="-1" Cut="0.0000000000000000e+00" cType="1" res="1.0779434815049171e-02" rms="3.8429987430572510e-01" purity="7.7730178833007812e-01" nType="-99"/>
          </Node>
          <Node pos="r" depth="2" NCoef="0" IVar="1" Cut="8.8123382568359375e+01" cType="1" res="-5.9064388275146484e-02" rms="3.5198500752449036e-01" purity="1.8302625417709351e-01" nType="0">
            <Node pos="l" depth="3" NCoef="0" IVar="-1" Cut="0.0000000000000000e+00" cType="1" res="-3.4858666360378265e-02" rms="3.0036458373069763e-01" purity="1.1547005176544189e-01" nType="-99"/>
            <Node pos="r" depth="3" NCoef="0" IVar="-1" Cut="0.0000000000000000e+00" cType="1" res="-6.4110415987670422e-03" rms="3.6458995938301086e-01" purity="2.0678307116031647e-01" nType="-99"/>
          </Node>
        </Node>
        <Node pos="r" depth="1" NCoef="0" IVar="0" Cut="5.3004211425781250e+02" cType="1" res="-1.5589565970003605e-02" rms="1.2125483900308609e-01" purity="1.4996759593486786e-02" nType="0">
          <Node pos="l" depth="2" NCoef="0" IVar="0" Cut="3.2353872680664062e+02" cType="1" res="-1.5975331887602806e-02" rms="1.3084951043128967e-01" purity="1.7489602789282799e-02" nType="0">
            <Node pos="l" depth="3" NCoef="0" IVar="-1" Cut="0.0000000000000000e+00" cType="1" res="-1.7612706869840622e-02" rms="1.6725757718086243e-01" purity="2.8858223930001259e-02" nType="-99"/>
            <Node pos="r" depth="3" NCoef="0" IVar="-1" Cut="0.0000000000000000e+00" cType="1" res="-4.3830540031194687e-02" rms="1.1499915271997452e-01" purity="1.3429251499474049e-02" nType="-99"/>
          </Node>
          <Node pos="r" depth="2" NCoef="0" IVar="-1" Cut="0.0000000000000000e+00" cType="1" res="-5.3534280508756638e-02" rms="7.9410001635551453e-02" purity="6.3455170020461082e-03" nType="-99"/>
        </Node>
      </Node>
    </BinaryTree>
    <BinaryTree type="DecisionTree" boostWeight="1.0000000000000000e+00" itree="24">
      <Node pos="s" depth="0" NCoef="0" IVar="0" Cut="2.7013903808593750e+02" cType="1" res="6.8805262446403503e-02" rms="3.6435163021087646e-01" purity="5.0032955408096313e-01" nType="0">
        <Node pos="l" depth="1" NCoef="0" IVar="1" Cut="1.0437438964843750e+02" cType="1" res="9.3256637454032898e-02" rms="4.0391704440116882e-01" purity="6.3958281278610229e-01" nType="0">
          <Node pos="l" depth="2" NCoef="0" IVar="0" Cut="1.2548387908935547e+02" cType="1" res="1.2750570476055145e-01" rms="3.9724773168563843e-01" purity="7.2390139102935791e-01" nType="0">
            <Node pos="l" depth="3" NCoef="0" IVar="-1" Cut="0.0000000000000000e+00" cType="1" res="-2.9359744861721992e-02" rms="4.2210966348648071e-01" purity="2.3906759917736053e-01" nType="-99"/>
            <Node pos="r" depth="3" NCoef="0" IVar="-1" Cut="0.0000000000000000e+00" cType="1" res="1.0086509399116039e-02" rms="3.8844472169876099e-01" purity="7.4901145696640015e-01" nType="-99"/>
          </Node>
          <Node pos="r" depth="2" NCoef="0" IVar="0" Cut="1.8984800720214844e+02" cType="1" res="-7.2222471237182617e-02" rms="3.9486032724380493e-01" purity="2.3218564689159393e-01" nType="0">
            <Node pos="l" depth="3" NCoef="0" IVar="-1" Cut="0.0000000000000000e+00" cType="1" res="-2.4117156863212585e-02" rms="4.1924786567687988e-01" purity="2.6016935706138611e-01" nType="-99"/>
            <Node pos="r" depth="3" NCoef="0" IVar="-1" Cut="0.0000000000000000e+00" cType="1" res="-7.3126265779137611e-03" rms="3.8091558218002319e-01" purity="2.2301398217678070e-01" nType="-99"/>
          </Node>
        </Node>
        <Node pos="r" depth="1" NCoef="0" IVar="0" Cut="4.9268511962890625e+02" cType="1" res="-1.5724778175354004e-02" rms="1.3585236668586731e-01" purity="1.8921822309494019e-02" nType="0">
          <Node pos="l" depth="2" NCoef="0" IVar="0" Cut="2.9133398437500000e+02" cType="1" res="-1.6947951167821884e-02" rms="1.4866557717323303e-01" purity="2.2706843912601471e-02" nType="0">
            <Node pos="l" depth="3" NCoef="0" IVar="-1" Cut="0.0000000000000000e+00" cType="1" res="-2.9285948723554611e-02" rms="2.0612883567810059e-01" purity="4.4440437108278275e-02" nType="-99"/>
            <Node pos="r" depth="3" NCoef="0" IVar="-1" Cut="0.0000000000000000e+00" cType="1" res="-3.1827516853809357e-02" rms="1.3301600515842438e-01" purity="1.8075888976454735e-02" nType="-99"/>
          </Node>
          <Node pos="r" depth="2" NCoef="0" IVar="-1" Cut="0.0000000000000000e+00" cType="1" res="-4.7942802309989929e-02" rms="8.4632046520709991e-02" purity="7.2162742726504803e-03" nType="-99"/>
        </Node>
      </Node>
    </BinaryTree>
    <BinaryTree type="DecisionTree" boostWeight="1.0000000000000000e+00" itree="25">
      <Node pos="s" depth="0" NCoef="0" IVar="0" Cut="2.6520672607421875e+02" cType="1" res="6.7855037748813629e-02" rms="3.6311364173889160e-01" purity="5.0062614679336548e-01" nType="0">
        <Node pos="l" depth="1" NCoef="0" IVar="1" Cut="1.0376895141601562e+02" cType="1" res="9.3201071023941040e-02" rms="4.0371936559677124e-01" purity="6.4569723606109619e-01" nType="0">
          <Node pos="l" depth="2" NCoef="0" IVar="1" Cut="6.1012893676757812e+01" cType="1" res="1.2576937675476074e-01" rms="3.9630594849586487e-01" purity="7.2777682542800903e-01" nType="0">
            <Node pos="l" depth="3" NCoef="0" IVar="-1" Cut="0.0000000000000000e+00" cType="1" res="-9.5149390399456024e-03" rms="4.3279540538787842e-01" purity="3.6018693447113037e-01" nType="-99"/>
            <Node pos="r" depth="3" NCoef="0" IVar="-1" Cut="0.0000000000000000e+00" cType="1" res="1.0346494615077972e-02" rms="3.8396519422531128e-01" purity="7.7288353443145752e-01" nType="-99"/>
          </Node>
          <Node pos="r" depth="2" NCoef="0" IVar="0" Cut="1.8714271545410156e+02" cType="1" res="-6.4815752208232880e-02" rms="4.0205681324005127e-01" purity="2.4745912849903107e-01" nType="0">
            <Node pos="l" depth="3" NCoef="0" IVar="-1" Cut="0.0000000000000000e+00" cType="1" res="-2.3822652176022530e-02" rms="4.1911396384239197e-01" purity="2.6205670833587646e-01" nType="-99"/>
            <Node pos="r" depth="3" NCoef="0" IVar="-1" Cut="0.0000000000000000e+00" cType="1" res="-5.6555927731096745e-03" rms="3.9114582538604736e-01" purity="2.4300003051757812e-01" nType="-99"/>
          </Node>
        </Node>
        <Node pos="r" depth="1" NCoef="0" IVar="0" Cut="4.8744979858398438e+02" cType="1" res="-1.6152182593941689e-02" rms="1.3950455188751221e-01" purity="1.9800519570708275e-02" nType="0">
          <Node pos="l" depth="2" NCoef="0" IVar="0" Cut="2.8637271118164062e+02" cType="1" res="-1.7964767292141914e-02" rms="1.5308831632137299e-01" purity="2.3882050067186356e-02" nType="0">
            <Node pos="l" depth="3" NCoef="0" IVar="-1" Cut="0.0000000000000000e+00" cType="1" res="-3.4410357475280762e-02" rms="2.1563100814819336e-01" purity="4.8056811094284058e-02" nType="-99"/>
            <Node pos="r" depth="3" NCoef="0" IVar="-1" Cut="0.0000000000000000e+00" cType="1" res="-2.8702646493911743e-02" rms="1.3532485067844391e-01" purity="1.8729388713836670e-02" nType="-99"/>
          </Node>
          <Node pos="r" depth="2" NCoef="0" IVar="-1" Cut="0.0000000000000000e+00" cType="1" res="-4.5873299241065979e-02" rms="8.4153719246387482e-02" purity="7.1305041201412678e-03" nType="-99"/>
        </Node>
      </Node>
    </BinaryTree>
    <BinaryTree type="DecisionTree" boostWeight="1.0000000000000000e+00" itree="26">
      <Node pos="s" depth="0" NCoef="0" IVar="0" Cut="2.5467945861816406e+02" cType="1" res="6.6375695168972015e-02" rms="3.6220061779022217e-01" purity="5.0019764900207520e-01" nType="0">
        <Node pos="l" depth="1" NCoef="0" IVar="1" Cut="1.0901081085205078e+02" cType="1" res="9.5410719513893127e-02" rms="4.0427583456039429e-01" purity="6.5843838453292847e-01" nType="0">
          <Node pos="l" depth="2" NCoef="0" IVar="0" Cut="1.3796005249023438e+02" cType="1" res="1.2153869122266769e-01" rms="4.0016403794288635e-01" purity="7.2703582048416138e-01" nType="0">
            <Node pos="l" depth="3" NCoef="0" IVar="-1" Cut="0.0000000000000000e+00" cType="1" res="-9.4941630959510803e-03" rms="4.6825489401817322e-01" purity="4.0746206045150757e-01" nType="-99"/>
            <Node pos="r" depth="3" NCoef="0" IVar="-1" Cut="0.0000000000000000e+00" cType="1" res="1.0117260739207268e-02" rms="3.8431257009506226e-01" purity="7.6355308294296265e-01" nType="-99"/>
          </Node>
          <Node pos="r" depth="2" NCoef="0" IVar="0" Cut="1.9744499206542969e+02" cType="1" res="-7.9175718128681183e-02" rms="3.8794183731079102e-01" purity="2.0007212460041046e-01" nType="0">
            <Node pos="l" depth="3" NCoef="0" IVar="-1" Cut="0.0000000000000000e+00" cType="1" res="-2.5637786835432053e-02" rms="3.9436718821525574e-01" purity="2.0952674746513367e-01" nType="-99"/>
            <Node pos="r" depth="3" NCoef="0" IVar="-1" Cut="0.0000000000000000e+00" cType="1" res="-8.5653560236096382e-03" rms="3.7885680794715881e-01" purity="1.9546365737915039e-01" nType="-99"/>
          </Node>
        </Node>
        <Node pos="r" depth="1" NCoef="0" IVar="0" Cut="4.6689663696289062e+02" cType="1" res="-2.1054087206721306e-02" rms="1.5458711981773376e-01" purity="2.3705653846263885e-02" nType="0">
          <Node pos="l" depth="2" NCoef="0" IVar="0" Cut="2.7489065551757812e+02" cType="1" res="-2.4888632819056511e-02" rms="1.7202663421630859e-01" purity="2.9376529157161713e-02" nType="0">
            <Node pos="l" depth="3" NCoef="0" IVar="-1" Cut="0.0000000000000000e+00" cType="1" res="-4.1627932339906693e-02" rms="2.5045236945152283e-01" purity="6.3704296946525574e-02" nType="-99"/>
            <Node pos="r" depth="3" NCoef="0" IVar="-1" Cut="0.0000000000000000e+00" cType="1" res="-2.4665804579854012e-02" rms="1.4714969694614410e-01" purity="2.2226708009839058e-02" nType="-99"/>
          </Node>
          <Node pos="r" depth="2" NCoef="0" IVar="1" Cut="3.9025790405273438e+02" cType="1" res="-9.9358577281236649e-03" rms="8.4943920373916626e-02" purity="7.2630201466381550e-03" nType="0">
            <Node pos="l" depth="3" NCoef="0" IVar="-1" Cut="0.0000000000000000e+00" cType="1" res="-4.5028056949377060e-02" rms="8.5427217185497284e-02" purity="7.3482934385538101e-03" nType="-99"/>
            <Node pos="r" depth="3" NCoef="0" IVar="-1" Cut="0.0000000000000000e+00" cType="1" res="-4.3180443346500397e-02" rms="8.4179528057575226e-02" purity="7.1307648904621601e-03" nType="-99"/>
          </Node>
        </Node>
      </Node>
    </BinaryTree>
    <BinaryTree type="DecisionTree" boostWeight="1.0000000000000000e+00" itree="27">
      <Node pos="s" depth="0" NCoef="0" IVar="0" Cut="2.8941757202148438e+02" cType="1" res="6.5000645816326141e-02" rms="3.6066088080406189e-01" purity="5.0009584426879883e-01" nType="0">
        <Node pos="l" depth="1" NCoef="0" IVar="0" Cut="2.0510018920898438e+02" cType="1" res="8.3181150257587433e-02" rms="3.9605242013931274e-01" purity="6.1937731504440308e-01" nType="0">
          <Node pos="l" depth="2" NCoef="0" IVar="0" Cut="1.4085847473144531e+02" cType="1" res="1.1896339803934097e-01" rms="3.9965894818305969e-01" purity="7.3564702272415161e-01" nType="0">
            <Node pos="l" depth="3" NCoef="0" IVar="-1" Cut="0.0000000000000000e+00" cType="1" res="-6.6705383360385895e-03" rms="4.6788710355758667e-01" purity="4.4754287600517273e-01" nType="-99"/>
            <Node pos="r" depth="3" NCoef="0" IVar="-1" Cut="0.0000000000000000e+00" cType="1" res="1.0049116797745228e-02" rms="3.8143801689147949e-01" purity="7.7723777294158936e-01" nType="-99"/>
          </Node>
          <Node pos="r" depth="2" NCoef="0" IVar="1" Cut="8.8057403564453125e+01" cType="1" res="-5.1602944731712341e-02" rms="3.5079631209373474e-01" purity="1.8141420185565948e-01" nType="0">
            <Node pos="l" depth="3" NCoef="0" IVar="-1" Cut="0.0000000000000000e+00" cType="1" res="-3.3072296530008316e-02" rms="3.0135837197303772e-01" purity="1.1570430546998978e-01" nType="-99"/>
            <Node pos="r" depth="3" NCoef="0" IVar="-1" Cut="0.0000000000000000e+00" cType="1" res="-5.2719335071742535e-03" rms="3.6287066340446472e-01" purity="2.0435623824596405e-01" nType="-99"/>
          </Node>
        </Node>
        <Node pos="r" depth="1" NCoef="0" IVar="0" Cut="5.3032403564453125e+02" cType="1" res="-9.0131508186459541e-03" rms="1.1926774680614471e-01" purity="1.4494524337351322e-02" nType="0">
          <Node pos="l" depth="2" NCoef="0" IVar="1" Cut="1.3201863098144531e+02" cType="1" res="-9.3613639473915100e-03" rms="1.2854818999767303e-01" purity="1.6861580312252045e-02" nType="0">
            <Node pos="l" depth="3" NCoef="0" IVar="-1" Cut="0.0000000000000000e+00" cType="1" res="-4.6193305402994156e-02" rms="9.8711371421813965e-02" purity="9.8692392930388451e-03" nType="-99"/>
            <Node pos="r" depth="3" NCoef="0" IVar="-1" Cut="0.0000000000000000e+00" cType="1" res="-1.8488865345716476e-02" rms="1.3985244929790497e-01" purity="2.0012762397527695e-02" nType="-99"/>
          </Node>
          <Node pos="r" depth="2" NCoef="0" IVar="-1" Cut="0.0000000000000000e+00" cType="1" res="-4.2507722973823547e-02" rms="7.9277895390987396e-02" purity="6.3245855271816254e-03" nType="-99"/>
        </Node>
      </Node>
    </BinaryTree>
    <BinaryTree type="DecisionTree" boostWeight="1.0000000000000000e+00" itree="28">
      <Node pos="s" depth="0" NCoef="0" IVar="0" Cut="2.7163650512695312e+02" cType="1" res="6.3540279865264893e-02" rms="3.5989481210708618e-01" purity="4.9997243285179138e-01" nType="0">
        <Node pos="l" depth="1" NCoef="0" IVar="0" Cut="1.9377027893066406e+02" cType="1" res="8.4152020514011383e-02" rms="3.9932814240455627e-01" purity="6.3730055093765259e-01" nType="0">
          <Node pos="l" depth="2" NCoef="0" IVar="0" Cut="1.4185952758789062e+02" cType="1" res="1.2284074723720551e-01" rms="3.9419102668762207e-01" purity="7.4806332588195801e-01" nType="0">
            <Node pos="l" depth="3" NCoef="0" IVar="-1" Cut="0.0000000000000000e+00" cType="1" res="-5.5039264261722565e-03" rms="4.6811220049858093e-01" purity="4.6222454309463501e-01" nType="-99"/>
            <Node pos="r" depth="3" NCoef="0" IVar="-1" Cut="0.0000000000000000e+00" cType="1" res="1.0473366826772690e-02" rms="3.7130060791969299e-01" purity="7.9750984907150269e-01" nType="-99"/>
          </Node>
          <Node pos="r" depth="2" NCoef="0" IVar="1" Cut="8.3879013061523438e+01" cType="1" res="-2.6283515617251396e-02" rms="3.9323055744171143e-01" purity="3.2113233208656311e-01" nType="0">
            <Node pos="l" depth="3" NCoef="0" IVar="-1" Cut="0.0000000000000000e+00" cType="1" res="-2.9150944203138351e-02" rms="3.5048788785934448e-01" purity="1.8967953324317932e-01" nType="-99"/>
            <Node pos="r" depth="3" NCoef="0" IVar="-1" Cut="0.0000000000000000e+00" cType="1" res="1.1704129865393043e-03" rms="3.9725714921951294e-01" purity="3.5792815685272217e-01" nType="-99"/>
          </Node>
        </Node>
        <Node pos="r" depth="1" NCoef="0" IVar="0" Cut="4.9411129760742188e+02" cType="1" res="-8.7576443329453468e-03" rms="1.3339403271675110e-01" purity="1.8279226496815681e-02" nType="0">
          <Node pos="l" depth="2" NCoef="0" IVar="1" Cut="1.2374255371093750e+02" cType="1" res="-9.3987854197621346e-03" rms="1.4631494879722595e-01" purity="2.2038310766220093e-02" nType="0">
            <Node pos="l" depth="3" NCoef="0" IVar="-1" Cut="0.0000000000000000e+00" cType="1" res="-3.7148267030715942e-02" rms="1.2229678779840469e-01" purity="1.5196780674159527e-02" nType="-99"/>
            <Node pos="r" depth="3" NCoef="0" IVar="-1" Cut="0.0000000000000000e+00" cType="1" res="-1.5025504864752293e-02" rms="1.5590670704841614e-01" purity="2.5135824456810951e-02" nType="-99"/>
          </Node>
          <Node pos="r" depth="2" NCoef="0" IVar="-1" Cut="0.0000000000000000e+00" cType="1" res="-3.8583088666200638e-02" rms="8.1688255071640015e-02" purity="6.7174355499446392e-03" nType="-99"/>
        </Node>
      </Node>
    </BinaryTree>
    <BinaryTree type="DecisionTree" boostWeight="1.0000000000000000e+00" itree="29">
      <Node pos="s" depth="0" NCoef="0" IVar="0" Cut="2.8502304077148438e+02" cType="1" res="6.2451783567667007e-02" rms="3.5895401239395142e-01" purity="5.0009053945541382e-01" nType="0">
        <Node pos="l" depth="1" NCoef="0" IVar="1" Cut="9.8978935241699219e+01" cType="1" res="7.9814180731773376e-02" rms="3.9517632126808167e-01" purity="6.2347090244293213e-01" nType="0">
          <Node pos="l" depth="2" NCoef="0" IVar="1" Cut="5.8503868103027344e+01" cType="1" res="1.1569883674383163e-01" rms="3.8696479797363281e-01" purity="7.2155541181564331e-01" nType="0">
            <Node pos="l" depth="3" NCoef="0" IVar="-1" Cut="0.0000000000000000e+00" cType="1" res="-1.3622482307255268e-02" rms="4.1961631178855896e-01" purity="2.9738473892211914e-01" nType="-99"/>
            <Node pos="r" depth="3" NCoef="0" IVar="-1" Cut="0.0000000000000000e+00" cType="1" res="9.8186023533344269e-03" rms="3.7598022818565369e-01" purity="7.6672929525375366e-01" nType="-99"/>
          </Node>
          <Node pos="r" depth="2" NCoef="0" IVar="0" Cut="1.7701576232910156e+02" cType="1" res="-4.1288059204816818e-02" rms="3.9853170514106750e-01" purity="2.9245883226394653e-01" nType="0">
            <Node pos="l" depth="3" NCoef="0" IVar="-1" Cut="0.0000000000000000e+00" cType="1" res="-2.7206776663661003e-02" rms="4.3260905146598816e-01" purity="3.0319410562515259e-01" nType="-99"/>
            <Node pos="r" depth="3" NCoef="0" IVar="-1" Cut="0.0000000000000000e+00" cType="1" res="-1.7915540374815464e-03" rms="3.8461124897003174e-01" purity="2.9048672318458557e-01" nType="-99"/>
          </Node>
        </Node>
        <Node pos="r" depth="1" NCoef="0" IVar="1" Cut="2.4032911682128906e+02" cType="1" res="-5.6328265927731991e-03" rms="1.2614463269710541e-01" purity="1.6268905252218246e-02" nType="0">
          <Node pos="l" depth="2" NCoef="0" IVar="1" Cut="1.4405429077148438e+02" cType="1" res="-4.3436451815068722e-03" rms="1.3825914263725281e-01" purity="1.9637895748019218e-02" nType="0">
            <Node pos="l" depth="3" NCoef="0" IVar="-1" Cut="0.0000000000000000e+00" cType="1" res="-3.4984163939952850e-02" rms="1.0683120787143707e-01" purity="1.1610353365540504e-02" nType="-99"/>
            <Node pos="r" depth="3" NCoef="0" IVar="-1" Cut="0.0000000000000000e+00" cType="1" res="4.3055019341409206e-03" rms="1.6412046551704407e-01" purity="2.7860954403877258e-02" nType="-99"/>
          </Node>
          <Node pos="r" depth="2" NCoef="0" IVar="0" Cut="5.2614215087890625e+02" cType="1" res="-7.6031587086617947e-03" rms="1.0493104159832001e-01" purity="1.1119876988232136e-02" nType="0">
            <Node pos="l" depth="3" NCoef="0" IVar="-1" Cut="0.0000000000000000e+00" cType="1" res="-3.3646222203969955e-02" rms="1.1393250524997711e-01" purity="1.3136947527527809e-02" nType="-99"/>
            <Node pos="r" depth="3" NCoef="0" IVar="-1" Cut="0.0000000000000000e+00" cType="1" res="-2.3846451193094254e-02" rms="9.0623326599597931e-02" purity="8.2811005413532257e-03" nType="-99"/>
          </Node>
        </Node>
      </Node>
    </BinaryTree>
    <BinaryTree type="DecisionTree" boostWeight="1.0000000000000000e+00" itree="30">
      <Node pos="s" depth="0" NCoef="0" IVar="0" Cut="2.8502304077148438e+02" cType="1" res="6.0839995741844177e-02" rms="3.5784170031547546e-01" purity="5.0010585784912109e-01" nType="0">
        <Node pos="l" depth="1" NCoef="0" IVar="0" Cut="2.1268817138671875e+02" cType="1" res="7.7764123678207397e-02" rms="3.9420357346534729e-01" purity="6.2354958057403564e-01" nType="0">
          <Node pos="l" depth="2" NCoef="0" IVar="1" Cut="1.1032384490966797e+02" cType="1" res="1.0679736733436584e-01" rms="4.0029871463775635e-01" purity="7.2367805242538452e-01" nType="0">
            <Node pos="l" depth="3" NCoef="0" IVar="-1" Cut="0.0000000000000000e+00" cType="1" res="8.8155856356024742e-03" rms="3.9486634731292725e-01" purity="7.6243788003921509e-01" nType="-99"/>
            <Node pos="r" depth="3" NCoef="0" IVar="-1" Cut="0.0000000000000000e+00" cType="1" res="-2.0677605643868446e-02" rms="3.9812830090522766e-01" purity="2.1554078161716461e-01" nType="-99"/>
          </Node>
          <Node pos="r" depth="2" NCoef="0" IVar="1" Cut="9.8904388427734375e+01" cType="1" res="-6.3316769897937775e-02" rms="3.2842811942100525e-01" purity="1.3699646294116974e-01" nType="0">
            <Node pos="l" depth="3" NCoef="0" IVar="-1" Cut="0.0000000000000000e+00" cType="1" res="-3.0859947204589844e-02" rms="3.0643001198768616e-01" purity="1.1844610422849655e-01" nType="-99"/>
            <Node pos="r" depth="3" NCoef="0" IVar="-1" Cut="0.0000000000000000e+00" cType="1" res="-9.5829861238598824e-03" rms="3.3633276820182800e-01" purity="1.4726957678794861e-01" nType="-99"/>
          </Node>
        </Node>
        <Node pos="r" depth="1" NCoef="0" IVar="1" Cut="2.4032911682128906e+02" cType="1" res="-5.6016440503299236e-03" rms="1.2311048060655594e-01" purity="1.5484089031815529e-02" nType="0">
          <Node pos="l" depth="2" NCoef="0" IVar="1" Cut="1.5475148010253906e+02" cType="1" res="-4.9941851757466793e-03" rms="1.3377559185028076e-01" purity="1.8364995718002319e-02" nType="0">
            <Node pos="l" depth="3" NCoef="0" IVar="-1" Cut="0.0000000000000000e+00" cType="1" res="-3.1133398413658142e-02" rms="1.0924389213323593e-01" purity="1.2163548730313778e-02" nType="-99"/>
            <Node pos="r" depth="3" NCoef="0" IVar="-1" Cut="0.0000000000000000e+00" cType="1" res="-7.0173654239624739e-04" rms="1.5925410389900208e-01" purity="2.6172989979386330e-02" nType="-99"/>
          </Node>
          <Node pos="r" depth="2" NCoef="0" IVar="0" Cut="5.2614044189453125e+02" cType="1" res="-6.5291803330183029e-03" rms="1.0474473237991333e-01" purity="1.1085200123488903e-02" nType="0">
            <Node pos="l" depth="3" NCoef="0" IVar="-1" Cut="0.0000000000000000e+00" cType="1" res="-2.9544547200202942e-02" rms="1.1533454060554504e-01" purity="1.3463674113154411e-02" nType="-99"/>
            <Node pos="r" depth="3" NCoef="0" IVar="-1" Cut="0.0000000000000000e+00" cType="1" res="-2.4950601160526276e-02" rms="8.7674610316753387e-02" purity="7.7467011287808418e-03" nType="-99"/>
          </Node>
        </Node>
      </Node>
    </BinaryTree>
    <BinaryTree type="DecisionTree" boostWeight="1.0000000000000000e+00" itree="31">
      <Node pos="s" depth="0" NCoef="0" IVar="0" Cut="2.1552105712890625e+02" cType="1" res="5.9636823832988739e-02" rms="3.5704961419105530e-01" purity="4.9989408254623413e-01" nType="0">
        <Node pos="l" depth="1" NCoef="0" IVar="0" Cut="1.2173015594482422e+02" cType="1" res="1.0206864774227142e-01" rms="4.0078070759773254e-01" purity="7.1841692924499512e-01" nType="0">
          <Node pos="l" depth="2" NCoef="0" IVar="-1" Cut="0.0000000000000000e+00" cType="1" res="-3.5783737897872925e-02" rms="3.9776057004928589e-01" purity="1.9654141366481781e-01" nType="-99"/>
          <Node pos="r" depth="2" NCoef="0" IVar="1" Cut="1.1280767059326172e+02" cType="1" res="1.1462585628032684e-01" rms="3.9568886160850525e-01" purity="7.3902547359466553e-01" nType="0">
            <Node pos="l" depth="3" NCoef="0" IVar="-1" Cut="0.0000000000000000e+00" cType="1" res="9.2819854617118835e-03" rms="3.9071723818778992e-01" purity="7.7993392944335938e-01" nType="-99"/>
            <Node pos="r" depth="3" NCoef="0" IVar="-1" Cut="0.0000000000000000e+00" cType="1" res="-2.4348799139261246e-02" rms="3.7950661778450012e-01" purity="1.8531732261180878e-01" nType="-99"/>
          </Node>
        </Node>
        <Node pos="r" depth="1" NCoef="0" IVar="0" Cut="3.8604989624023438e+02" cType="1" res="-2.6166407391428947e-02" rms="2.2240971028804779e-01" purity="5.8009415864944458e-02" nType="0">
          <Node pos="l" depth="2" NCoef="0" IVar="0" Cut="2.7236398315429688e+02" cType="1" res="-3.5007379949092865e-02" rms="2.6127400994300842e-01" purity="8.0997288227081299e-02" nType="0">
            <Node pos="l" depth="3" NCoef="0" IVar="-1" Cut="0.0000000000000000e+00" cType="1" res="-1.8027065321803093e-02" rms="3.3428966999053955e-01" purity="1.3893109560012817e-01" nType="-99"/>
            <Node pos="r" depth="3" NCoef="0" IVar="-1" Cut="0.0000000000000000e+00" cType="1" res="-1.2083200737833977e-02" rms="1.5871767699718475e-01" purity="2.6013627648353577e-02" nType="-99"/>
          </Node>
          <Node pos="r" depth="2" NCoef="0" IVar="1" Cut="1.9389151000976562e+02" cType="1" res="-7.1728918701410294e-03" rms="9.2480465769767761e-02" purity="8.6234007030725479e-03" nType="0">
            <Node pos="l" depth="3" NCoef="0" IVar="-1" Cut="0.0000000000000000e+00" cType="1" res="-5.7453151792287827e-02" rms="6.5154619514942169e-02" purity="4.2445324361324310e-03" nType="-99"/>
            <Node pos="r" depth="3" NCoef="0" IVar="-1" Cut="0.0000000000000000e+00" cType="1" res="-2.4312166497111320e-02" rms="1.0214146971702576e-01" purity="1.0550813749432564e-02" nType="-99"/>
          </Node>
        </Node>
      </Node>
    </BinaryTree>
    <BinaryTree type="DecisionTree" boostWeight="1.0000000000000000e+00" itree="32">
      <Node pos="s" depth="0" NCoef="0" IVar="0" Cut="2.8502304077148438e+02" cType="1" res="5.9239510446786880e-02" rms="3.5576474666595459e-01" purity="5.0036180019378662e-01" nType="0">
        <Node pos="l" depth="1" NCoef="0" IVar="1" Cut="9.8978935241699219e+01" cType="1" res="7.5238488614559174e-02" rms="3.9190068840980530e-01" purity="6.2375658750534058e-01" nType="0">
          <Node pos="l" depth="2" NCoef="0" IVar="1" Cut="5.0408847808837891e+01" cType="1" res="1.0744664072990417e-01" rms="3.8469585776329041e-01" purity="7.2204720973968506e-01" nType="0">
            <Node pos="l" depth="3" NCoef="0" IVar="-1" Cut="0.0000000000000000e+00" cType="1" res="-3.1808603554964066e-02" rms="3.6921179294586182e-01" purity="1.7080351710319519e-01" nType="-99"/>
            <Node pos="r" depth="3" NCoef="0" IVar="-1" Cut="0.0000000000000000e+00" cType="1" res="9.0090893208980560e-03" rms="3.7939369678497314e-01" purity="7.5454670190811157e-01" nType="-99"/>
          </Node>
          <Node pos="r" depth="2" NCoef="0" IVar="0" Cut="1.7702679443359375e+02" cType="1" res="-3.3652532845735550e-02" rms="3.9640682935714722e-01" purity="2.9145076870918274e-01" nType="0">
            <Node pos="l" depth="3" NCoef="0" IVar="-1" Cut="0.0000000000000000e+00" cType="1" res="-2.5853497907519341e-02" rms="4.3105691671371460e-01" purity="3.0044782161712646e-01" nType="-99"/>
            <Node pos="r" depth="3" NCoef="0" IVar="-1" Cut="0.0000000000000000e+00" cType="1" res="-7.5345655204728246e-04" rms="3.8274109363555908e-01" purity="2.8979963064193726e-01" nType="-99"/>
          </Node>
        </Node>
        <Node pos="r" depth="1" NCoef="0" IVar="1" Cut="2.4082272338867188e+02" cType="1" res="-3.5749105736613274e-03" rms="1.2467073649168015e-01" purity="1.5894819051027298e-02" nType="0">
          <Node pos="l" depth="2" NCoef="0" IVar="1" Cut="1.4455844116210938e+02" cType="1" res="-2.9044325929135084e-03" rms="1.3533847033977509e-01" purity="1.8818391487002373e-02" nType="0">
            <Node pos="l" depth="3" NCoef="0" IVar="-1" Cut="0.0000000000000000e+00" cType="1" res="-2.9633125290274620e-02" rms="1.0423733294010162e-01" purity="1.1041902005672455e-02" nType="-99"/>
            <Node pos="r" depth="3" NCoef="0" IVar="-1" Cut="0.0000000000000000e+00" cType="1" res="4.2662094347178936e-03" rms="1.6106119751930237e-01" purity="2.6816336438059807e-02" nType="-99"/>
          </Node>
          <Node pos="r" depth="2" NCoef="0" IVar="0" Cut="5.2614044189453125e+02" cType="1" res="-4.6051959507167339e-03" rms="1.0620187968015671e-01" purity="1.1402334086596966e-02" nType="0">
            <Node pos="l" depth="3" NCoef="0" IVar="-1" Cut="0.0000000000000000e+00" cType="1" res="-2.4773217737674713e-02" rms="1.1533457040786743e-01" purity="1.3471072539687157e-02" nType="-99"/>
            <Node pos="r" depth="3" NCoef="0" IVar="-1" Cut="0.0000000000000000e+00" cType="1" res="-1.4042999595403671e-02" rms="9.1795563697814941e-02" purity="8.4983659908175468e-03" nType="-99"/>
          </Node>
        </Node>
      </Node>
    </BinaryTree>
    <BinaryTree type="DecisionTree" boostWeight="1.0000000000000000e+00" itree="33">
      <Node pos="s" depth="0" NCoef="0" IVar="0" Cut="2.7098696899414062e+02" cType="1" res="5.7421687990427017e-02" rms="3.5475754737854004e-01" purity="4.9968299269676208e-01" nType="0">
        <Node pos="l" depth="1" NCoef="0" IVar="0" Cut="2.0398089599609375e+02" cType="1" res="7.5373962521553040e-02" rms="3.9439207315444946e-01" purity="6.3808125257492065e-01" nType="0">
          <Node pos="l" depth="2" NCoef="0" IVar="0" Cut="1.4016560363769531e+02" cType="1" res="1.0243503004312515e-01" rms="3.9457228779792786e-01" purity="7.3674726486206055e-01" nType="0">
            <Node pos="l" depth="3" NCoef="0" IVar="-1" Cut="0.0000000000000000e+00" cType="1" res="-6.8614850752055645e-03" rms="4.6494793891906738e-01" purity="4.4011703133583069e-01" nType="-99"/>
            <Node pos="r" depth="3" NCoef="0" IVar="-1" Cut="0.0000000000000000e+00" cType="1" res="9.0036774054169655e-03" rms="3.7778010964393616e-01" purity="7.7803415060043335e-01" nType="-99"/>
          </Node>
          <Node pos="r" depth="2" NCoef="0" IVar="1" Cut="8.2715354919433594e+01" cType="1" res="-4.0304515510797501e-02" rms="3.7205559015274048e-01" purity="2.1631178259849548e-01" nType="0">
            <Node pos="l" depth="3" NCoef="0" IVar="-1" Cut="0.0000000000000000e+00" cType="1" res="-3.7181202322244644e-02" rms="2.8738671541213989e-01" purity="9.9816121160984039e-02" nType="-99"/>
            <Node pos="r" depth="3" NCoef="0" IVar="-1" Cut="0.0000000000000000e+00" cType="1" res="-2.9701287858188152e-03" rms="3.8782691955566406e-01" purity="2.4676290154457092e-01" nType="-99"/>
          </Node>
        </Node>
