<?xml version="1.0"?>
<MethodSetup Method="BDT::BDTG">
  <GeneralInfo>
    <Info name="TMVA Release" value="4.2.1 [262657]"/>
    <Info name="ROOT Release" value="6.10/09 [395785]"/>
    <Info name="Creator" value="cychuang"/>
    <Info name="Date" value="Wed Dec 25 20:11:22 2019"/>
    <Info name="Host" value="Linux cmsbuild49.cern.ch 2.6.32-696.10.2.el6.x86_64 #1 SMP Thu Sep 14 16:35:02 CEST 2017 x86_64 x86_64 x86_64 GNU/Linux"/>
    <Info name="Dir" value="/wk_cms2/cychuang/CMSSW_9_4_2/src/wk_mva"/>
    <Info name="Training events" value="8301402"/>
    <Info name="TrainingTime" value="1.16149721e+04"/>
    <Info name="AnalysisType" value="Classification"/>
  </GeneralInfo>
  <Options>
    <Option name="V" modified="Yes">False</Option>
    <Option name="VerbosityLevel" modified="No">Default</Option>
    <Option name="VarTransform" modified="No">None</Option>
    <Option name="H" modified="Yes">False</Option>
    <Option name="CreateMVAPdfs" modified="No">False</Option>
    <Option name="IgnoreNegWeightsInTraining" modified="No">False</Option>
    <Option name="NTrees" modified="Yes">800</Option>
    <Option name="MaxDepth" modified="Yes">3</Option>
    <Option name="MinNodeSize" modified="Yes">2.5%</Option>
    <Option name="nCuts" modified="Yes">20</Option>
    <Option name="BoostType" modified="Yes">Grad</Option>
    <Option name="AdaBoostR2Loss" modified="No">quadratic</Option>
    <Option name="UseBaggedBoost" modified="Yes">True</Option>
    <Option name="Shrinkage" modified="Yes">1.000000e-01</Option>
    <Option name="AdaBoostBeta" modified="No">5.000000e-01</Option>
    <Option name="UseRandomisedTrees" modified="No">False</Option>
    <Option name="UseNvars" modified="No">5</Option>
    <Option name="UsePoissonNvars" modified="No">True</Option>
    <Option name="BaggedSampleFraction" modified="Yes">5.000000e-01</Option>
    <Option name="UseYesNoLeaf" modified="No">True</Option>
    <Option name="NegWeightTreatment" modified="No">pray</Option>
    <Option name="Css" modified="No">1.000000e+00</Option>
    <Option name="Cts_sb" modified="No">1.000000e+00</Option>
    <Option name="Ctb_ss" modified="No">1.000000e+00</Option>
    <Option name="Cbb" modified="No">1.000000e+00</Option>
    <Option name="NodePurityLimit" modified="No">5.000000e-01</Option>
    <Option name="SeparationType" modified="No">giniindex</Option>
    <Option name="RegressionLossFunctionBDTG" modified="No">huber</Option>
    <Option name="HuberQuantile" modified="No">7.000000e-01</Option>
    <Option name="DoBoostMonitor" modified="No">False</Option>
    <Option name="UseFisherCuts" modified="No">False</Option>
    <Option name="MinLinCorrForFisher" modified="No">8.000000e-01</Option>
    <Option name="UseExclusiveVars" modified="No">False</Option>
    <Option name="DoPreselection" modified="No">False</Option>
    <Option name="SigToBkgFraction" modified="No">1.000000e+00</Option>
    <Option name="PruneMethod" modified="No">nopruning</Option>
    <Option name="PruneStrength" modified="No">0.000000e+00</Option>
    <Option name="PruningValFraction" modified="No">5.000000e-01</Option>
    <Option name="SkipNormalization" modified="No">False</Option>
    <Option name="nEventsMin" modified="No">0</Option>
    <Option name="UseBaggedGrad" modified="No">False</Option>
    <Option name="GradBaggingFraction" modified="No">5.000000e-01</Option>
    <Option name="UseNTrainEvents" modified="No">0</Option>
    <Option name="NNodesMax" modified="No">0</Option>
  </Options>
  <Variables NVar="20">
    <Variable VarIndex="0" Expression="top_mass" Label="top_mass" Title="top_mass" Unit="" Internal="top_mass" Type="D" Min="3.18515205e+01" Max="5.13592920e+03"/>
    <Variable VarIndex="1" Expression="w_mass" Label="w_mass" Title="w_mass" Unit="" Internal="w_mass" Type="D" Min="1.39813118e+01" Max="4.87760791e+03"/>
    <Variable VarIndex="2" Expression="j1j2_sumPt" Label="j1j2_sumPt" Title="j1j2_sumPt" Unit="" Internal="j1j2_sumPt" Type="D" Min="6.00250626e+01" Max="2.69776367e+03"/>
    <Variable VarIndex="3" Expression="j1j2_absdelPt" Label="j1j2_absdelPt" Title="j1j2_absdelPt" Unit="" Internal="j1j2_absdelPt" Type="D" Min="3.81469727e-06" Max="1.55757642e+03"/>
    <Variable VarIndex="4" Expression="j1j2_delR" Label="j1j2_delR" Title="j1j2_delR" Unit="" Internal="j1j2_delR" Type="D" Min="3.47917676e-01" Max="5.68194294e+00"/>
    <Variable VarIndex="5" Expression="whadb_sumPt" Label="whadb_sumPt" Title="whadb_sumPt" Unit="" Internal="whadb_sumPt" Type="D" Min="3.05779667e+01" Max="2.31591675e+03"/>
    <Variable VarIndex="6" Expression="whadb_delPt" Label="whadb_delPt" Title="whadb_delPt" Unit="" Internal="whadb_delPt" Type="D" Min="-1.40435852e+03" Max="1.57610596e+03"/>
    <Variable VarIndex="7" Expression="whadb_delR" Label="whadb_delR" Title="whadb_delR" Unit="" Internal="whadb_delR" Type="D" Min="2.04300601e-03" Max="1.01482573e+01"/>
    <Variable VarIndex="8" Expression="hadblepton_sumPt" Label="hadblepton_sumPt" Title="hadblepton_sumPt" Unit="" Internal="hadblepton_sumPt" Type="D" Min="6.00203705e+01" Max="1.61555945e+03"/>
    <Variable VarIndex="9" Expression="hadblepton_delPt" Label="hadblepton_delPt" Title="hadblepton_delPt" Unit="" Internal="hadblepton_delPt" Type="D" Min="-7.75365601e+02" Max="1.34092505e+03"/>
    <Variable VarIndex="10" Expression="hadblepton_delR" Label="hadblepton_delR" Title="hadblepton_delR" Unit="" Internal="hadblepton_delR" Type="D" Min="5.00000238e-01" Max="5.59625435e+00"/>
    <Variable VarIndex="11" Expression="hadwlepton_sumPt" Label="hadwlepton_sumPt" Title="hadwlepton_sumPt" Unit="" Internal="hadwlepton_sumPt" Type="D" Min="3.04070301e+01" Max="2.22231030e+03"/>
    <Variable VarIndex="12" Expression="hadwlepton_delPt" Label="hadwlepton_delPt" Title="hadwlepton_delPt" Unit="" Internal="hadwlepton_delPt" Type="D" Min="-8.09493469e+02" Max="1.63168323e+03"/>
    <Variable VarIndex="13" Expression="hadwlepton_delR" Label="hadwlepton_delR" Title="hadwlepton_delR" Unit="" Internal="hadwlepton_delR" Type="D" Min="1.47921941e-03" Max="9.75866508e+00"/>
    <Variable VarIndex="14" Expression="hadbmet_delPhi" Label="hadbmet_delPhi" Title="hadbmet_delPhi" Unit="" Internal="hadbmet_delPhi" Type="D" Min="-3.14159060e+00" Max="3.14159250e+00"/>
    <Variable VarIndex="15" Expression="hadbmet_sumPt" Label="hadbmet_sumPt" Title="hadbmet_sumPt" Unit="" Internal="hadbmet_sumPt" Type="D" Min="3.05801754e+01" Max="2.06486572e+03"/>
    <Variable VarIndex="16" Expression="hadbmet_delPt" Label="hadbmet_delPt" Title="hadbmet_delPt" Unit="" Internal="hadbmet_delPt" Type="D" Min="-9.85949219e+02" Max="1.11999048e+03"/>
    <Variable VarIndex="17" Expression="hadwmet_delPhi" Label="hadwmet_delPhi" Title="hadwmet_delPhi" Unit="" Internal="hadwmet_delPhi" Type="D" Min="-3.14159250e+00" Max="3.14159179e+00"/>
    <Variable VarIndex="18" Expression="hadwmet_sumPt" Label="hadwmet_sumPt" Title="hadwmet_sumPt" Unit="" Internal="hadwmet_sumPt" Type="D" Min="6.11416638e-01" Max="2.44966553e+03"/>
    <Variable VarIndex="19" Expression="hadwmet_delPt" Label="hadwmet_delPt" Title="hadwmet_delPt" Unit="" Internal="hadwmet_delPt" Type="D" Min="-9.40587097e+02" Max="1.60644128e+03"/>
  </Variables>
  <Spectators NSpec="0"/>
  <Classes NClass="2">
    <Class Name="Signal" Index="0"/>
    <Class Name="Background" Index="1"/>
  </Classes>
  <Transformations NTransformations="0"/>
  <MVAPdfs/>
  <Weights NTrees="800" AnalysisType="1">
    <BinaryTree type="DecisionTree" boostWeight="1.0000000000000000e+00" itree="0">
      <Node pos="s" depth="0" NCoef="0" IVar="0" Cut="2.7018344116210938e+02" cType="1" res="6.3720706384629011e-04" rms="4.9999958276748657e-01" purity="5.0063723325729370e-01" nType="0">
        <Node pos="l" depth="1" NCoef="0" IVar="0" Cut="2.0358160400390625e+02" cType="1" res="1.3922579586505890e-01" rms="4.8022514581680298e-01" purity="6.3922578096389771e-01" nType="0">
          <Node pos="l" depth="2" NCoef="0" IVar="1" Cut="1.0617183685302734e+02" cType="1" res="2.3754265904426575e-01" rms="4.3996986746788025e-01" purity="7.3754262924194336e-01" nType="0">
            <Node pos="l" depth="3" NCoef="0" IVar="-1" Cut="0.0000000000000000e+00" cType="1" res="1.7079101875424385e-02" rms="4.1741162538528442e-01" purity="7.7525901794433594e-01" nType="-99"/>
            <Node pos="r" depth="3" NCoef="0" IVar="-1" Cut="0.0000000000000000e+00" cType="1" res="-3.0507057905197144e-02" rms="4.4329595565795898e-01" purity="2.6872375607490540e-01" nType="-99"/>
          </Node>
          <Node pos="r" depth="2" NCoef="0" IVar="0" Cut="2.1943919372558594e+02" cType="1" res="-2.7961313724517822e-01" rms="4.1450753808021545e-01" purity="2.2038687765598297e-01" nType="0">
            <Node pos="l" depth="3" NCoef="0" IVar="-1" Cut="0.0000000000000000e+00" cType="1" res="-1.0380426421761513e-02" rms="4.8949488997459412e-01" purity="3.9804530143737793e-01" nType="-99"/>
            <Node pos="r" depth="3" NCoef="0" IVar="-1" Cut="0.0000000000000000e+00" cType="1" res="-7.1132913231849670e-02" rms="3.3167210221290588e-01" purity="1.2584279477596283e-01" nType="-99"/>
          </Node>
        </Node>
        <Node pos="r" depth="1" NCoef="0" IVar="7" Cut="2.4178082942962646e+00" cType="1" res="-4.8115828633308411e-01" rms="1.3596576452255249e-01" purity="1.8841700628399849e-02" nType="0">
          <Node pos="l" depth="2" NCoef="0" IVar="4" Cut="2.6570558547973633e+00" cType="1" res="-4.6590197086334229e-01" rms="1.8148103356361389e-01" purity="3.4098040312528610e-02" nType="0">
            <Node pos="l" depth="3" NCoef="0" IVar="-1" Cut="0.0000000000000000e+00" cType="1" res="-1.0368858277797699e-01" rms="2.3928987979888916e-01" purity="6.0977961868047714e-02" nType="-99"/>
            <Node pos="r" depth="3" NCoef="0" IVar="-1" Cut="0.0000000000000000e+00" cType="1" res="-1.4077313244342804e-01" rms="1.2799777090549469e-01" purity="1.6661019995808601e-02" nType="-99"/>
          </Node>
          <Node pos="r" depth="2" NCoef="0" IVar="10" Cut="1.6817986965179443e+00" cType="1" res="-4.8739612102508545e-01" rms="1.1155720055103302e-01" purity="1.2603865936398506e-02" nType="0">
            <Node pos="l" depth="3" NCoef="0" IVar="-1" Cut="0.0000000000000000e+00" cType="1" res="-1.4895576238632202e-01" rms="8.9339613914489746e-02" purity="8.0463094636797905e-03" nType="-99"/>
            <Node pos="r" depth="3" NCoef="0" IVar="-1" Cut="0.0000000000000000e+00" cType="1" res="-1.3931626081466675e-01" rms="1.3318105041980743e-01" purity="1.8063483759760857e-02" nType="-99"/>
          </Node>
        </Node>
      </Node>
    </BinaryTree>
    <BinaryTree type="DecisionTree" boostWeight="1.0000000000000000e+00" itree="1">
      <Node pos="s" depth="0" NCoef="0" IVar="0" Cut="2.7308764648437500e+02" cType="1" res="1.4728282578289509e-02" rms="4.8001694679260254e-01" purity="4.9981820583343506e-01" nType="0">
        <Node pos="l" depth="1" NCoef="0" IVar="0" Cut="2.0416299438476562e+02" cType="1" res="1.3491435348987579e-01" rms="4.7375246882438660e-01" purity="6.3527393341064453e-01" nType="0">
          <Node pos="l" depth="2" NCoef="0" IVar="1" Cut="1.0470967864990234e+02" cType="1" res="2.2919863462448120e-01" rms="4.3897125124931335e-01" purity="7.3593062162399292e-01" nType="0">
            <Node pos="l" depth="3" NCoef="0" IVar="-1" Cut="0.0000000000000000e+00" cType="1" res="1.6572570428252220e-02" rms="4.1705057024955750e-01" purity="7.7578270435333252e-01" nType="-99"/>
            <Node pos="r" depth="3" NCoef="0" IVar="-1" Cut="0.0000000000000000e+00" cType="1" res="-2.4316046386957169e-02" rms="4.5387250185012817e-01" purity="2.9305797815322876e-01" nType="-99"/>
          </Node>
          <Node pos="r" depth="2" NCoef="0" IVar="0" Cut="2.2385580444335938e+02" cType="1" res="-2.6247903704643250e-01" rms="4.0355268120765686e-01" purity="2.1102198958396912e-01" nType="0">
            <Node pos="l" depth="3" NCoef="0" IVar="-1" Cut="0.0000000000000000e+00" cType="1" res="-1.3415450230240822e-02" rms="4.8012417554855347e-01" purity="3.6486709117889404e-01" nType="-99"/>
            <Node pos="r" depth="3" NCoef="0" IVar="-1" Cut="0.0000000000000000e+00" cType="1" res="-7.1793824434280396e-02" rms="3.1076985597610474e-01" purity="1.0848522186279297e-01" nType="-99"/>
          </Node>
        </Node>
        <Node pos="r" depth="1" NCoef="0" IVar="10" Cut="1.9181665182113647e+00" cType="1" res="-4.1277694702148438e-01" rms="1.3239388167858124e-01" purity="1.7998231574892998e-02" nType="0">
          <Node pos="l" depth="2" NCoef="0" IVar="2" Cut="1.5211479187011719e+02" cType="1" res="-4.1843983530998230e-01" rms="1.0180580615997314e-01" purity="1.0513759218156338e-02" nType="0">
            <Node pos="l" depth="3" NCoef="0" IVar="-1" Cut="0.0000000000000000e+00" cType="1" res="-1.3325737416744232e-01" rms="6.9886744022369385e-02" purity="4.9149459227919579e-03" nType="-99"/>
            <Node pos="r" depth="3" NCoef="0" IVar="-1" Cut="0.0000000000000000e+00" cType="1" res="-1.2506796419620514e-01" rms="1.1619227379560471e-01" purity="1.3739551417529583e-02" nType="-99"/>
          </Node>
          <Node pos="r" depth="2" NCoef="0" IVar="4" Cut="3.1579477787017822e+00" cType="1" res="-4.0560349822044373e-01" rms="1.6282102465629578e-01" purity="2.7479168027639389e-02" nType="0">
            <Node pos="l" depth="3" NCoef="0" IVar="-1" Cut="0.0000000000000000e+00" cType="1" res="-1.0630600154399872e-01" rms="1.8759633600711823e-01" purity="3.6806851625442505e-02" nType="-99"/>
            <Node pos="r" depth="3" NCoef="0" IVar="-1" Cut="0.0000000000000000e+00" cType="1" res="-1.2901888787746429e-01" rms="1.0061261057853699e-01" purity="1.0227559134364128e-02" nType="-99"/>
          </Node>
        </Node>
      </Node>
    </BinaryTree>
    <BinaryTree type="DecisionTree" boostWeight="1.0000000000000000e+00" itree="2">
      <Node pos="s" depth="0" NCoef="0" IVar="0" Cut="2.6528948974609375e+02" cType="1" res="2.6764243841171265e-02" rms="4.6374183893203735e-01" purity="4.9959141016006470e-01" nType="0">
        <Node pos="l" depth="1" NCoef="0" IVar="0" Cut="2.0970896911621094e+02" cType="1" res="1.4154773950576782e-01" rms="4.6583673357963562e-01" purity="6.4393711090087891e-01" nType="0">
          <Node pos="l" depth="2" NCoef="0" IVar="1" Cut="1.0757363128662109e+02" cType="1" res="2.1480278670787811e-01" rms="4.4159498810768127e-01" purity="7.2732573747634888e-01" nType="0">
            <Node pos="l" depth="3" NCoef="0" IVar="-1" Cut="0.0000000000000000e+00" cType="1" res="1.5759870409965515e-02" rms="4.2193073034286499e-01" purity="7.6745742559432983e-01" nType="-99"/>
            <Node pos="r" depth="3" NCoef="0" IVar="-1" Cut="0.0000000000000000e+00" cType="1" res="-3.0666491016745567e-02" rms="4.3366017937660217e-01" purity="2.5146406888961792e-01" nType="-99"/>
          </Node>
          <Node pos="r" depth="2" NCoef="0" IVar="1" Cut="1.4783695983886719e+02" cType="1" res="-2.6631736755371094e-01" rms="3.7848314642906189e-01" purity="1.7965106666088104e-01" nType="0">
            <Node pos="l" depth="3" NCoef="0" IVar="-1" Cut="0.0000000000000000e+00" cType="1" res="-3.3136788755655289e-02" rms="4.1029605269432068e-01" purity="2.2284434735774994e-01" nType="-99"/>
            <Node pos="r" depth="3" NCoef="0" IVar="-1" Cut="0.0000000000000000e+00" cType="1" res="-9.9726423621177673e-02" rms="2.1896873414516449e-01" purity="4.9758832901716232e-02" nType="-99"/>
          </Node>
        </Node>
        <Node pos="r" depth="1" NCoef="0" IVar="7" Cut="2.2124125957489014e+00" cType="1" res="-3.5446023941040039e-01" rms="1.3963676989078522e-01" purity="2.0183440297842026e-02" nType="0">
          <Node pos="l" depth="2" NCoef="0" IVar="4" Cut="2.9075167179107666e+00" cType="1" res="-3.4266507625579834e-01" rms="1.9261017441749573e-01" purity="3.9333242923021317e-02" nType="0">
            <Node pos="l" depth="3" NCoef="0" IVar="-1" Cut="0.0000000000000000e+00" cType="1" res="-7.9593114554882050e-02" rms="2.4638189375400543e-01" purity="6.5535679459571838e-02" nType="-99"/>
            <Node pos="r" depth="3" NCoef="0" IVar="-1" Cut="0.0000000000000000e+00" cType="1" res="-1.1339231580495834e-01" rms="1.1583456397056580e-01" purity="1.3621348887681961e-02" nType="-99"/>
          </Node>
          <Node pos="r" depth="2" NCoef="0" IVar="7" Cut="3.2224850654602051e+00" cType="1" res="-3.5795196890830994e-01" rms="1.1931000649929047e-01" purity="1.4514557085931301e-02" nType="0">
            <Node pos="l" depth="3" NCoef="0" IVar="-1" Cut="0.0000000000000000e+00" cType="1" res="-1.0910349339246750e-01" rms="1.3487796485424042e-01" purity="1.8644370138645172e-02" nType="-99"/>
            <Node pos="r" depth="3" NCoef="0" IVar="-1" Cut="0.0000000000000000e+00" cType="1" res="-1.1837229132652283e-01" rms="8.6953327059745789e-02" purity="7.5981966219842434e-03" nType="-99"/>
          </Node>
        </Node>
      </Node>
    </BinaryTree>
    <BinaryTree type="DecisionTree" boostWeight="1.0000000000000000e+00" itree="3">
      <Node pos="s" depth="0" NCoef="0" IVar="0" Cut="2.7490283203125000e+02" cType="1" res="3.7312872707843781e-02" rms="4.4995385408401489e-01" purity="4.9985727667808533e-01" nType="0">
        <Node pos="l" depth="1" NCoef="0" IVar="0" Cut="2.0545948791503906e+02" cType="1" res="1.3197745382785797e-01" rms="4.6077954769134521e-01" purity="6.3313835859298706e-01" nType="0">
          <Node pos="l" depth="2" NCoef="0" IVar="1" Cut="1.0559554290771484e+02" cType="1" res="2.1491721272468567e-01" rms="4.3654808402061462e-01" purity="7.3426502943038940e-01" nType="0">
            <Node pos="l" depth="3" NCoef="0" IVar="-1" Cut="0.0000000000000000e+00" cType="1" res="1.5541570261120796e-02" rms="4.1811716556549072e-01" purity="7.7399796247482300e-01" nType="-99"/>
            <Node pos="r" depth="3" NCoef="0" IVar="-1" Cut="0.0000000000000000e+00" cType="1" res="-2.3938894271850586e-02" rms="4.4575282931327820e-01" purity="2.7751183509826660e-01" nType="-99"/>
          </Node>
          <Node pos="r" depth="2" NCoef="0" IVar="0" Cut="2.1868678283691406e+02" cType="1" res="-2.2605220973491669e-01" rms="3.8509619235992432e-01" purity="1.9660024344921112e-01" nType="0">
            <Node pos="l" depth="3" NCoef="0" IVar="-1" Cut="0.0000000000000000e+00" cType="1" res="-9.0497471392154694e-03" rms="4.8366567492485046e-01" purity="3.8782590627670288e-01" nType="-99"/>
            <Node pos="r" depth="3" NCoef="0" IVar="-1" Cut="0.0000000000000000e+00" cType="1" res="-5.6560494005680084e-02" rms="3.2139509916305542e-01" purity="1.2018602341413498e-01" nType="-99"/>
          </Node>
        </Node>
        <Node pos="r" depth="1" NCoef="0" IVar="0" Cut="5.0638034057617188e+02" cType="1" res="-3.0517110228538513e-01" rms="1.3066098093986511e-01" purity="1.7664171755313873e-02" nType="0">
          <Node pos="l" depth="2" NCoef="0" IVar="0" Cut="2.9694830322265625e+02" cType="1" res="-3.0287963151931763e-01" rms="1.4210602641105652e-01" purity="2.0974598824977875e-02" nType="0">
            <Node pos="l" depth="3" NCoef="0" IVar="-1" Cut="0.0000000000000000e+00" cType="1" res="-8.4194324910640717e-02" rms="1.9683569669723511e-01" purity="4.1241914033889771e-02" nType="-99"/>
            <Node pos="r" depth="3" NCoef="0" IVar="-1" Cut="0.0000000000000000e+00" cType="1" res="-1.0185996443033218e-01" rms="1.2678571045398712e-01" purity="1.6561333090066910e-02" nType="-99"/>
          </Node>
          <Node pos="r" depth="2" NCoef="0" IVar="-1" Cut="0.0000000000000000e+00" cType="1" res="-1.0879338532686234e-01" rms="8.1622444093227386e-02" purity="6.7046643234789371e-03" nType="-99"/>
        </Node>
      </Node>
    </BinaryTree>
    <BinaryTree type="DecisionTree" boostWeight="1.0000000000000000e+00" itree="4">
      <Node pos="s" depth="0" NCoef="0" IVar="0" Cut="2.5467945861816406e+02" cType="1" res="4.5317158102989197e-02" rms="4.3888458609580994e-01" purity="4.9956372380256653e-01" nType="0">
        <Node pos="l" depth="1" NCoef="0" IVar="1" Cut="1.0829526519775391e+02" cType="1" res="1.4858597517013550e-01" rms="4.5392972230911255e-01" purity="6.5711039304733276e-01" nType="0">
          <Node pos="l" depth="2" NCoef="0" IVar="1" Cut="5.4401561737060547e+01" cType="1" res="2.0483846962451935e-01" rms="4.3549972772598267e-01" purity="7.2707718610763550e-01" nType="0">
            <Node pos="l" depth="3" NCoef="0" IVar="-1" Cut="0.0000000000000000e+00" cType="1" res="-3.9741314947605133e-02" rms="4.2020466923713684e-01" purity="2.3749490082263947e-01" nType="-99"/>
            <Node pos="r" depth="3" NCoef="0" IVar="-1" Cut="0.0000000000000000e+00" cType="1" res="1.5117851085960865e-02" rms="4.1562488675117493e-01" purity="7.6162606477737427e-01" nType="-99"/>
          </Node>
          <Node pos="r" depth="2" NCoef="0" IVar="4" Cut="2.0749685764312744e+00" cType="1" res="-2.1385642886161804e-01" rms="3.9989548921585083e-01" purity="2.0630548894405365e-01" nType="0">
            <Node pos="l" depth="3" NCoef="0" IVar="-1" Cut="0.0000000000000000e+00" cType="1" res="-3.4897294826805592e-03" rms="4.8327758908271790e-01" purity="3.9376038312911987e-01" nType="-99"/>
            <Node pos="r" depth="3" NCoef="0" IVar="-1" Cut="0.0000000000000000e+00" cType="1" res="-5.3476735949516296e-02" rms="3.4102743864059448e-01" purity="1.3718104362487793e-01" nType="-99"/>
          </Node>
        </Node>
        <Node pos="r" depth="1" NCoef="0" IVar="2" Cut="1.6077801513671875e+02" cType="1" res="-2.6696985960006714e-01" rms="1.4908634126186371e-01" purity="2.3139141499996185e-02" nType="0">
          <Node pos="l" depth="2" NCoef="0" IVar="9" Cut="4.2493732452392578e+01" cType="1" res="-2.7668258547782898e-01" rms="1.2884728610515594e-01" purity="1.6784192994236946e-02" nType="0">
            <Node pos="l" depth="3" NCoef="0" IVar="-1" Cut="0.0000000000000000e+00" cType="1" res="-1.0307145863771439e-01" rms="1.0648801177740097e-01" purity="1.0982183739542961e-02" nType="-99"/>
            <Node pos="r" depth="3" NCoef="0" IVar="-1" Cut="0.0000000000000000e+00" cType="1" res="-8.8777601718902588e-02" rms="1.5571486949920654e-01" purity="2.5394299998879433e-02" nType="-99"/>
          </Node>
          <Node pos="r" depth="2" NCoef="0" IVar="10" Cut="2.3835268020629883e+00" cType="1" res="-2.5853410363197327e-01" rms="1.6419260203838348e-01" purity="2.8658585622906685e-02" nType="0">
            <Node pos="l" depth="3" NCoef="0" IVar="-1" Cut="0.0000000000000000e+00" cType="1" res="-9.2208743095397949e-02" rms="1.4122408628463745e-01" purity="2.0820640027523041e-02" nType="-99"/>
            <Node pos="r" depth="3" NCoef="0" IVar="-1" Cut="0.0000000000000000e+00" cType="1" res="-7.3851361870765686e-02" rms="2.0943647623062134e-01" purity="4.7778677195310593e-02" nType="-99"/>
          </Node>
        </Node>
      </Node>
    </BinaryTree>
    <BinaryTree type="DecisionTree" boostWeight="1.0000000000000000e+00" itree="5">
      <Node pos="s" depth="0" NCoef="0" IVar="0" Cut="2.7490283203125000e+02" cType="1" res="5.2611567080020905e-02" rms="4.2871880531311035e-01" purity="4.9969488382339478e-01" nType="0">
        <Node pos="l" depth="1" NCoef="0" IVar="0" Cut="2.0545957946777344e+02" cType="1" res="1.3000370562076569e-01" rms="4.4968703389167786e-01" purity="6.3297092914581299e-01" nType="0">
          <Node pos="l" depth="2" NCoef="0" IVar="0" Cut="1.3105610656738281e+02" cType="1" res="2.0421332120895386e-01" rms="4.3172064423561096e-01" purity="7.3381316661834717e-01" nType="0">
            <Node pos="l" depth="3" NCoef="0" IVar="-1" Cut="0.0000000000000000e+00" cType="1" res="-2.6341104879975319e-02" rms="4.6168965101242065e-01" purity="3.1326517462730408e-01" nType="-99"/>
            <Node pos="r" depth="3" NCoef="0" IVar="-1" Cut="0.0000000000000000e+00" cType="1" res="1.4894231222569942e-02" rms="4.1209179162979126e-01" purity="7.6569181680679321e-01" nType="-99"/>
          </Node>
          <Node pos="r" depth="2" NCoef="0" IVar="10" Cut="2.1728227138519287e+00" cType="1" res="-1.9187869131565094e-01" rms="3.7869563698768616e-01" purity="1.9557020068168640e-01" nType="0">
            <Node pos="l" depth="3" NCoef="0" IVar="-1" Cut="0.0000000000000000e+00" cType="1" res="-5.1809933036565781e-02" rms="3.2062283158302307e-01" purity="1.2683697044849396e-01" nType="-99"/>
            <Node pos="r" depth="3" NCoef="0" IVar="-1" Cut="0.0000000000000000e+00" cType="1" res="-1.5319358557462692e-02" rms="4.2466637492179871e-01" purity="2.7668973803520203e-01" nType="-99"/>
          </Node>
        </Node>
        <Node pos="r" depth="1" NCoef="0" IVar="1" Cut="2.2145365905761719e+02" cType="1" res="-2.2711095213890076e-01" rms="1.3166423141956329e-01" purity="1.7988089472055435e-02" nType="0">
          <Node pos="l" depth="2" NCoef="0" IVar="7" Cut="2.7473199367523193e+00" cType="1" res="-2.2380559146404266e-01" rms="1.4439676702022552e-01" purity="2.1848700940608978e-02" nType="0">
            <Node pos="l" depth="3" NCoef="0" IVar="-1" Cut="0.0000000000000000e+00" cType="1" res="-7.0466607809066772e-02" rms="2.0234601199626923e-01" purity="4.3705232441425323e-02" nType="-99"/>
            <Node pos="r" depth="3" NCoef="0" IVar="-1" Cut="0.0000000000000000e+00" cType="1" res="-9.4015017151832581e-02" rms="1.0139074176549911e-01" purity="1.0477612726390362e-02" nType="-99"/>
          </Node>
          <Node pos="r" depth="2" NCoef="0" IVar="7" Cut="2.5423536300659180e+00" cType="1" res="-2.3149332404136658e-01" rms="1.1243441700935364e-01" purity="1.2869524769484997e-02" nType="0">
            <Node pos="l" depth="3" NCoef="0" IVar="-1" Cut="0.0000000000000000e+00" cType="1" res="-9.2036530375480652e-02" rms="1.2039799988269806e-01" purity="1.4826798811554909e-02" nType="-99"/>
            <Node pos="r" depth="3" NCoef="0" IVar="-1" Cut="0.0000000000000000e+00" cType="1" res="-9.3788281083106995e-02" rms="1.0538863390684128e-01" purity="1.1268923990428448e-02" nType="-99"/>
          </Node>
        </Node>
      </Node>
    </BinaryTree>
    <BinaryTree type="DecisionTree" boostWeight="1.0000000000000000e+00" itree="6">
      <Node pos="s" depth="0" NCoef="0" IVar="0" Cut="2.7926965332031250e+02" cType="1" res="5.8217104524374008e-02" rms="4.2082002758979797e-01" purity="5.0000727176666260e-01" nType="0">
        <Node pos="l" depth="1" NCoef="0" IVar="0" Cut="2.0988877868652344e+02" cType="1" res="1.2597709894180298e-01" rms="4.4497823715209961e-01" purity="6.2849241495132446e-01" nType="0">
          <Node pos="l" depth="2" NCoef="0" IVar="1" Cut="1.0880396270751953e+02" cType="1" res="1.9310940802097321e-01" rms="4.3308016657829285e-01" purity="7.2688710689544678e-01" nType="0">
            <Node pos="l" depth="3" NCoef="0" IVar="-1" Cut="0.0000000000000000e+00" cType="1" res="1.4175101183354855e-02" rms="4.1859284043312073e-01" purity="7.6597136259078979e-01" nType="-99"/>
            <Node pos="r" depth="3" NCoef="0" IVar="-1" Cut="0.0000000000000000e+00" cType="1" res="-3.0443185940384865e-02" rms="4.1564741730690002e-01" purity="2.2733698785305023e-01" nType="-99"/>
          </Node>
          <Node pos="r" depth="2" NCoef="0" IVar="5" Cut="2.1426901245117188e+02" cType="1" res="-1.9323502480983734e-01" rms="3.5264125466346741e-01" purity="1.6062854230403900e-01" nType="0">
            <Node pos="l" depth="3" NCoef="0" IVar="-1" Cut="0.0000000000000000e+00" cType="1" res="-4.7802615910768509e-02" rms="3.1881010532379150e-01" purity="1.2468845397233963e-01" nType="-99"/>
            <Node pos="r" depth="3" NCoef="0" IVar="-1" Cut="0.0000000000000000e+00" cType="1" res="-1.3586146757006645e-02" rms="4.1791811585426331e-01" purity="2.6061797142028809e-01" nType="-99"/>
          </Node>
        </Node>
        <Node pos="r" depth="1" NCoef="0" IVar="10" Cut="1.4454389810562134e+00" cType="1" res="-1.9658872485160828e-01" rms="1.2745368480682373e-01" purity="1.6849502921104431e-02" nType="0">
          <Node pos="l" depth="2" NCoef="0" IVar="8" Cut="1.6477822875976562e+02" cType="1" res="-2.0065234601497650e-01" rms="8.7810240685939789e-02" purity="7.7897529117763042e-03" nType="0">
            <Node pos="l" depth="3" NCoef="0" IVar="-1" Cut="0.0000000000000000e+00" cType="1" res="-8.7945200502872467e-02" rms="1.1496803909540176e-01" purity="1.3486124575138092e-02" nType="-99"/>
            <Node pos="r" depth="3" NCoef="0" IVar="-1" Cut="0.0000000000000000e+00" cType="1" res="-9.3977861106395721e-02" rms="7.0844233036041260e-02" purity="5.0360374152660370e-03" nType="-99"/>
          </Node>
          <Node pos="r" depth="2" NCoef="0" IVar="1" Cut="2.0677951049804688e+02" cType="1" res="-1.9387228786945343e-01" rms="1.4809010922908783e-01" purity="2.2905740886926651e-02" nType="0">
            <Node pos="l" depth="3" NCoef="0" IVar="-1" Cut="0.0000000000000000e+00" cType="1" res="-7.2733201086521149e-02" rms="1.7534179985523224e-01" purity="3.2567068934440613e-02" nType="-99"/>
            <Node pos="r" depth="3" NCoef="0" IVar="-1" Cut="0.0000000000000000e+00" cType="1" res="-8.7159499526023865e-02" rms="1.2027008831501007e-01" purity="1.4812097884714603e-02" nType="-99"/>
          </Node>
        </Node>
      </Node>
    </BinaryTree>
    <BinaryTree type="DecisionTree" boostWeight="1.0000000000000000e+00" itree="7">
      <Node pos="s" depth="0" NCoef="0" IVar="0" Cut="2.7745446777343750e+02" cType="1" res="6.2543101608753204e-02" rms="4.1390207409858704e-01" purity="4.9970802664756775e-01" nType="0">
        <Node pos="l" depth="1" NCoef="0" IVar="0" Cut="2.0859217834472656e+02" cType="1" res="1.2531971931457520e-01" rms="4.4123923778533936e-01" purity="6.3027280569076538e-01" nType="0">
          <Node pos="l" depth="2" NCoef="0" IVar="1" Cut="5.7014568328857422e+01" cType="1" res="1.8916673958301544e-01" rms="4.3093791604042053e-01" purity="7.2891962528228760e-01" nType="0">
            <Node pos="l" depth="3" NCoef="0" IVar="-1" Cut="0.0000000000000000e+00" cType="1" res="-2.4808699265122414e-02" rms="4.6072766184806824e-01" purity="3.1578028202056885e-01" nType="-99"/>
            <Node pos="r" depth="3" NCoef="0" IVar="-1" Cut="0.0000000000000000e+00" cType="1" res="1.3989549130201340e-02" rms="4.1322576999664307e-01" purity="7.6041501760482788e-01" nType="-99"/>
          </Node>
          <Node pos="r" depth="2" NCoef="0" IVar="10" Cut="1.9338473081588745e+00" cType="1" res="-1.7218784987926483e-01" rms="3.5923773050308228e-01" purity="1.7060887813568115e-01" nType="0">
            <Node pos="l" depth="3" NCoef="0" IVar="-1" Cut="0.0000000000000000e+00" cType="1" res="-5.4085381329059601e-02" rms="2.9156285524368286e-01" purity="1.0046811401844025e-01" nType="-99"/>
            <Node pos="r" depth="3" NCoef="0" IVar="-1" Cut="0.0000000000000000e+00" cType="1" res="-1.8351659178733826e-02" rms="4.0208017826080322e-01" purity="2.3203772306442261e-01" nType="-99"/>
          </Node>
        </Node>
        <Node pos="r" depth="1" NCoef="0" IVar="2" Cut="1.5636743164062500e+02" cType="1" res="-1.6947422921657562e-01" rms="1.2852069735527039e-01" purity="1.7151081934571266e-02" nType="0">
          <Node pos="l" depth="2" NCoef="0" IVar="2" Cut="1.1968537902832031e+02" cType="1" res="-1.7286807298660278e-01" rms="1.0453982651233673e-01" purity="1.1240048334002495e-02" nType="0">
            <Node pos="l" depth="3" NCoef="0" IVar="-1" Cut="0.0000000000000000e+00" cType="1" res="-8.9120842516422272e-02" rms="8.6297430098056793e-02" purity="7.6036048121750355e-03" nType="-99"/>
            <Node pos="r" depth="3" NCoef="0" IVar="-1" Cut="0.0000000000000000e+00" cType="1" res="-8.1996604800224304e-02" rms="1.2060885131359100e-01" purity="1.5044913627207279e-02" nType="-99"/>
          </Node>
          <Node pos="r" depth="2" NCoef="0" IVar="0" Cut="5.0699533081054688e+02" cType="1" res="-1.6715575754642487e-01" rms="1.4255656301975250e-01" purity="2.1189130842685699e-02" nType="0">
            <Node pos="l" depth="3" NCoef="0" IVar="-1" Cut="0.0000000000000000e+00" cType="1" res="-7.2744064033031464e-02" rms="1.6218690574169159e-01" purity="2.7576997876167297e-02" nType="-99"/>
            <Node pos="r" depth="3" NCoef="0" IVar="-1" Cut="0.0000000000000000e+00" cType="1" res="-8.7688796222209930e-02" rms="8.9379198849201202e-02" purity="8.0759702250361443e-03" nType="-99"/>
          </Node>
        </Node>
      </Node>
    </BinaryTree>
    <BinaryTree type="DecisionTree" boostWeight="1.0000000000000000e+00" itree="8">
      <Node pos="s" depth="0" NCoef="0" IVar="0" Cut="2.6986706542968750e+02" cType="1" res="6.6152893006801605e-02" rms="4.0782657265663147e-01" purity="4.9980425834655762e-01" nType="0">
        <Node pos="l" depth="1" NCoef="0" IVar="0" Cut="2.0326062011718750e+02" cType="1" res="1.2805922329425812e-01" rms="4.3840238451957703e-01" purity="6.3900917768478394e-01" nType="0">
          <Node pos="l" depth="2" NCoef="0" IVar="0" Cut="1.3189672851562500e+02" cType="1" res="1.9016070663928986e-01" rms="4.2612701654434204e-01" purity="7.3745357990264893e-01" nType="0">
            <Node pos="l" depth="3" NCoef="0" IVar="-1" Cut="0.0000000000000000e+00" cType="1" res="-2.4064553901553154e-02" rms="4.6450042724609375e-01" purity="3.2396921515464783e-01" nType="-99"/>
            <Node pos="r" depth="3" NCoef="0" IVar="-1" Cut="0.0000000000000000e+00" cType="1" res="1.4035241678357124e-02" rms="4.0663254261016846e-01" purity="7.7087062597274780e-01" nType="-99"/>
          </Node>
          <Node pos="r" depth="2" NCoef="0" IVar="0" Cut="2.1594754028320312e+02" cType="1" res="-1.3405247032642365e-01" rms="3.8988256454467773e-01" purity="2.2350513935089111e-01" nType="0">
            <Node pos="l" depth="3" NCoef="0" IVar="-1" Cut="0.0000000000000000e+00" cType="1" res="-1.9756192341446877e-03" rms="4.7877433896064758e-01" purity="4.2864391207695007e-01" nType="-99"/>
            <Node pos="r" depth="3" NCoef="0" IVar="-1" Cut="0.0000000000000000e+00" cType="1" res="-3.7744671106338501e-02" rms="3.3505919575691223e-01" purity="1.3822330534458160e-01" nType="-99"/>
          </Node>
        </Node>
        <Node pos="r" depth="1" NCoef="0" IVar="2" Cut="1.8568179321289062e+02" cType="1" res="-1.4784525334835052e-01" rms="1.3355752825737000e-01" purity="1.8599869683384895e-02" nType="0">
          <Node pos="l" depth="2" NCoef="0" IVar="9" Cut="2.8511056900024414e+01" cType="1" res="-1.5123276412487030e-01" rms="1.1875782161951065e-01" purity="1.4599928632378578e-02" nType="0">
            <Node pos="l" depth="3" NCoef="0" IVar="-1" Cut="0.0000000000000000e+00" cType="1" res="-8.6058899760246277e-02" rms="9.3583956360816956e-02" purity="8.8182063773274422e-03" nType="-99"/>
            <Node pos="r" depth="3" NCoef="0" IVar="-1" Cut="0.0000000000000000e+00" cType="1" res="-7.4110485613346100e-02" rms="1.3906818628311157e-01" purity="2.0303476601839066e-02" nType="-99"/>
          </Node>
          <Node pos="r" depth="2" NCoef="0" IVar="1" Cut="2.0727877807617188e+02" cType="1" res="-1.4357158541679382e-01" rms="1.5005302429199219e-01" purity="2.3646173998713493e-02" nType="0">
            <Node pos="l" depth="3" NCoef="0" IVar="-1" Cut="0.0000000000000000e+00" cType="1" res="-6.3008591532707214e-02" rms="1.7968341708183289e-01" purity="3.4817311912775040e-02" nType="-99"/>
            <Node pos="r" depth="3" NCoef="0" IVar="-1" Cut="0.0000000000000000e+00" cType="1" res="-7.7307462692260742e-02" rms="1.3094310462474823e-01" purity="1.7539398744702339e-02" nType="-99"/>
          </Node>
        </Node>
      </Node>
    </BinaryTree>
    <BinaryTree type="DecisionTree" boostWeight="1.0000000000000000e+00" itree="9">
      <Node pos="s" depth="0" NCoef="0" IVar="4" Cut="2.1509077548980713e+00" cType="1" res="6.8457789719104767e-02" rms="4.0277680754661560e-01" purity="4.9920755624771118e-01" nType="0">
        <Node pos="l" depth="1" NCoef="0" IVar="0" Cut="2.1881169128417969e+02" cType="1" res="1.4799170196056366e-01" rms="4.0755274891853333e-01" purity="6.3334220647811890e-01" nType="0">
          <Node pos="l" depth="2" NCoef="0" IVar="1" Cut="5.9043964385986328e+01" cType="1" res="2.1664762496948242e-01" rms="4.0817460417747498e-01" purity="7.6797312498092651e-01" nType="0">
            <Node pos="l" depth="3" NCoef="0" IVar="-1" Cut="0.0000000000000000e+00" cType="1" res="-1.8848726525902748e-02" rms="4.6591076254844666e-01" purity="3.4664624929428101e-01" nType="-99"/>
            <Node pos="r" depth="3" NCoef="0" IVar="-1" Cut="0.0000000000000000e+00" cType="1" res="1.5823384746909142e-02" rms="3.7606593966484070e-01" purity="8.1728619337081909e-01" nType="-99"/>
          </Node>
          <Node pos="r" depth="2" NCoef="0" IVar="7" Cut="2.2749803066253662e+00" cType="1" res="-1.3591049611568451e-01" rms="2.5280362367630005e-01" purity="7.6623857021331787e-02" nType="0">
            <Node pos="l" depth="3" NCoef="0" IVar="-1" Cut="0.0000000000000000e+00" cType="1" res="-9.8220566287636757e-03" rms="3.9251977205276489e-01" purity="2.1244063973426819e-01" nType="-99"/>
            <Node pos="r" depth="3" NCoef="0" IVar="-1" Cut="0.0000000000000000e+00" cType="1" res="-6.5722040832042694e-02" rms="1.8911455571651459e-01" purity="3.7950314581394196e-02" nType="-99"/>
          </Node>
        </Node>
        <Node pos="r" depth="1" NCoef="0" IVar="16" Cut="1.6879207611083984e+01" cType="1" res="-7.7983759343624115e-02" rms="3.4930092096328735e-01" purity="2.5223249197006226e-01" nType="0">
          <Node pos="l" depth="2" NCoef="0" IVar="9" Cut="-2.6563749313354492e+00" cType="1" res="-1.3910698890686035e-01" rms="3.2939174771308899e-01" purity="1.8826057016849518e-01" nType="0">
            <Node pos="l" depth="3" NCoef="0" IVar="-1" Cut="0.0000000000000000e+00" cType="1" res="-4.2341239750385284e-02" rms="2.9857835173606873e-01" purity="1.3194429874420166e-01" nType="-99"/>
            <Node pos="r" depth="3" NCoef="0" IVar="-1" Cut="0.0000000000000000e+00" cType="1" res="-1.3987336307764053e-02" rms="3.5199248790740967e-01" purity="2.4772290885448456e-01" nType="-99"/>
          </Node>
          <Node pos="r" depth="2" NCoef="0" IVar="10" Cut="1.9298865795135498e+00" cType="1" res="-2.0375039428472519e-02" rms="3.5764002799987793e-01" purity="3.1252613663673401e-01" nType="0">
            <Node pos="l" depth="3" NCoef="0" IVar="-1" Cut="0.0000000000000000e+00" cType="1" res="-2.5703160092234612e-02" rms="2.8849083185195923e-01" purity="1.5285015106201172e-01" nType="-99"/>
            <Node pos="r" depth="3" NCoef="0" IVar="-1" Cut="0.0000000000000000e+00" cType="1" res="4.6401224099099636e-03" rms="3.8359731435775757e-01" purity="4.1777363419532776e-01" nType="-99"/>
          </Node>
        </Node>
      </Node>
    </BinaryTree>
    <BinaryTree type="DecisionTree" boostWeight="1.0000000000000000e+00" itree="10">
      <Node pos="s" depth="0" NCoef="0" IVar="4" Cut="2.1424860954284668e+00" cType="1" res="7.0501975715160370e-02" rms="3.9825356006622314e-01" purity="5.0033086538314819e-01" nType="0">
        <Node pos="l" depth="1" NCoef="0" IVar="0" Cut="2.1368684387207031e+02" cType="1" res="1.4797635376453400e-01" rms="4.0272361040115356e-01" purity="6.3535380363464355e-01" nType="0">
          <Node pos="l" depth="2" NCoef="0" IVar="1" Cut="5.0172340393066406e+01" cType="1" res="2.1600241959095001e-01" rms="4.0331444144248962e-01" purity="7.7556592226028442e-01" nType="0">
            <Node pos="l" depth="3" NCoef="0" IVar="-1" Cut="0.0000000000000000e+00" cType="1" res="-4.8412807285785675e-02" rms="3.8930004835128784e-01" purity="1.8904149532318115e-01" nType="-99"/>
            <Node pos="r" depth="3" NCoef="0" IVar="-1" Cut="0.0000000000000000e+00" cType="1" res="1.5098322182893753e-02" rms="3.8230279088020325e-01" purity="8.1064713001251221e-01" nType="-99"/>
          </Node>
          <Node pos="r" depth="2" NCoef="0" IVar="7" Cut="2.2706508636474609e+00" cType="1" res="-1.1335848271846771e-01" rms="2.7254959940910339e-01" purity="9.6702747046947479e-02" nType="0">
            <Node pos="l" depth="3" NCoef="0" IVar="-1" Cut="0.0000000000000000e+00" cType="1" res="-4.3525788933038712e-03" rms="4.1109266877174377e-01" purity="2.5554800033569336e-01" nType="-99"/>
            <Node pos="r" depth="3" NCoef="0" IVar="-1" Cut="0.0000000000000000e+00" cType="1" res="-5.6900788098573685e-02" rms="2.0459647476673126e-01" purity="4.7375041991472244e-02" nType="-99"/>
          </Node>
        </Node>
        <Node pos="r" depth="1" NCoef="0" IVar="11" Cut="1.2600967407226562e+02" cType="1" res="-7.1123033761978149e-02" rms="3.4789499640464783e-01" purity="2.5350558757781982e-01" nType="0">
          <Node pos="l" depth="2" NCoef="0" IVar="0" Cut="2.1877426147460938e+02" cType="1" res="-1.8585866317152977e-02" rms="4.0994367003440857e-01" purity="3.9095208048820496e-01" nType="0">
            <Node pos="l" depth="3" NCoef="0" IVar="-1" Cut="0.0000000000000000e+00" cType="1" res="3.8288489449769258e-03" rms="4.6875324845314026e-01" purity="5.7052177190780640e-01" nType="-99"/>
            <Node pos="r" depth="3" NCoef="0" IVar="-1" Cut="0.0000000000000000e+00" cType="1" res="-5.5669050663709641e-02" rms="2.1600255370140076e-01" purity="5.2036918699741364e-02" nType="-99"/>
          </Node>
          <Node pos="r" depth="2" NCoef="0" IVar="6" Cut="-3.4700859069824219e+01" cType="1" res="-1.3114190101623535e-01" rms="2.4608151614665985e-01" purity="9.6485674381256104e-02" nType="0">
            <Node pos="l" depth="3" NCoef="0" IVar="-1" Cut="0.0000000000000000e+00" cType="1" res="-6.1436002142727375e-03" rms="3.2596275210380554e-01" purity="2.4886924028396606e-01" nType="-99"/>
            <Node pos="r" depth="3" NCoef="0" IVar="-1" Cut="0.0000000000000000e+00" cType="1" res="-5.6408461183309555e-02" rms="2.1490660309791565e-01" purity="5.7710178196430206e-02" nType="-99"/>
          </Node>
        </Node>
      </Node>
    </BinaryTree>
    <BinaryTree type="DecisionTree" boostWeight="1.0000000000000000e+00" itree="11">
      <Node pos="s" depth="0" NCoef="0" IVar="4" Cut="2.1208622455596924e+00" cType="1" res="7.1960918605327606e-02" rms="3.9345085620880127e-01" purity="4.9980491399765015e-01" nType="0">
        <Node pos="l" depth="1" NCoef="0" IVar="7" Cut="2.2365643978118896e+00" cType="1" res="1.4733725786209106e-01" rms="3.9808344841003418e-01" purity="6.3718980550765991e-01" nType="0">
          <Node pos="l" depth="2" NCoef="0" IVar="1" Cut="6.6153755187988281e+01" cType="1" res="2.1920542418956757e-01" rms="3.8923057913780212e-01" purity="7.6441776752471924e-01" nType="0">
            <Node pos="l" depth="3" NCoef="0" IVar="-1" Cut="0.0000000000000000e+00" cType="1" res="1.1123288422822952e-03" rms="4.6982297301292419e-01" purity="5.3590214252471924e-01" nType="-99"/>
            <Node pos="r" depth="3" NCoef="0" IVar="-1" Cut="0.0000000000000000e+00" cType="1" res="1.5892298892140388e-02" rms="3.5854864120483398e-01" purity="8.0819916725158691e-01" nType="-99"/>
          </Node>
          <Node pos="r" depth="2" NCoef="0" IVar="8" Cut="1.2574751281738281e+02" cType="1" res="2.9782487079501152e-02" rms="3.8419216871261597e-01" purity="4.2908295989036560e-01" nType="0">
            <Node pos="l" depth="3" NCoef="0" IVar="-1" Cut="0.0000000000000000e+00" cType="1" res="1.0838608257472515e-02" rms="4.0899106860160828e-01" purity="6.4149039983749390e-01" nType="-99"/>
            <Node pos="r" depth="3" NCoef="0" IVar="-1" Cut="0.0000000000000000e+00" cType="1" res="-1.7580978572368622e-02" rms="3.1305432319641113e-01" purity="1.9708263874053955e-01" nType="-99"/>
          </Node>
        </Node>
        <Node pos="r" depth="1" NCoef="0" IVar="6" Cut="-2.7603003382682800e-01" cType="1" res="-6.1727520078420639e-02" rms="3.4691560268402100e-01" purity="2.5613737106323242e-01" nType="0">
          <Node pos="l" depth="2" NCoef="0" IVar="0" Cut="2.4525830078125000e+02" cType="1" res="-1.1980061419308186e-02" rms="3.9153146743774414e-01" purity="3.6640951037406921e-01" nType="0">
            <Node pos="l" depth="3" NCoef="0" IVar="-1" Cut="0.0000000000000000e+00" cType="1" res="3.9382590912282467e-03" rms="4.5876920223236084e-01" purity="5.4537028074264526e-01" nType="-99"/>
            <Node pos="r" depth="3" NCoef="0" IVar="-1" Cut="0.0000000000000000e+00" cType="1" res="-6.6461943089962006e-02" rms="1.5955637395381927e-01" purity="2.6264853775501251e-02" nType="-99"/>
          </Node>
          <Node pos="r" depth="2" NCoef="0" IVar="7" Cut="2.0687444210052490e+00" cType="1" res="-1.4456468820571899e-01" rms="2.3346652090549469e-01" purity="7.2517253458499908e-02" nType="0">
            <Node pos="l" depth="3" NCoef="0" IVar="-1" Cut="0.0000000000000000e+00" cType="1" res="-6.6773131489753723e-02" rms="2.3041133582592010e-01" purity="5.4879412055015564e-02" nType="-99"/>
            <Node pos="r" depth="3" NCoef="0" IVar="-1" Cut="0.0000000000000000e+00" cType="1" res="-4.0156144648790359e-02" rms="2.3073394596576691e-01" purity="8.1568844616413116e-02" nType="-99"/>
          </Node>
        </Node>
      </Node>
    </BinaryTree>
    <BinaryTree type="DecisionTree" boostWeight="1.0000000000000000e+00" itree="12">
      <Node pos="s" depth="0" NCoef="0" IVar="4" Cut="1.8961614370346069e+00" cType="1" res="7.2132177650928497e-02" rms="3.9003139734268188e-01" purity="4.9939769506454468e-01" nType="0">
        <Node pos="l" depth="1" NCoef="0" IVar="0" Cut="1.9931710815429688e+02" cType="1" res="1.5514218807220459e-01" rms="3.9170917868614197e-01" purity="6.5341246128082275e-01" nType="0">
          <Node pos="l" depth="2" NCoef="0" IVar="1" Cut="5.4670169830322266e+01" cType="1" res="2.2645552456378937e-01" rms="3.8316562771797180e-01" purity="8.0095285177230835e-01" nType="0">
            <Node pos="l" depth="3" NCoef="0" IVar="-1" Cut="0.0000000000000000e+00" cType="1" res="-2.6177776977419853e-02" rms="4.4182074069976807e-01" purity="2.7877652645111084e-01" nType="-99"/>
            <Node pos="r" depth="3" NCoef="0" IVar="-1" Cut="0.0000000000000000e+00" cType="1" res="1.5860075131058693e-02" rms="3.5043680667877197e-01" purity="8.5092037916183472e-01" nType="-99"/>
          </Node>
          <Node pos="r" depth="2" NCoef="0" IVar="7" Cut="2.2043046951293945e+00" cType="1" res="-6.4509607851505280e-02" rms="3.3153551816940308e-01" purity="1.9897423684597015e-01" nType="0">
            <Node pos="l" depth="3" NCoef="0" IVar="-1" Cut="0.0000000000000000e+00" cType="1" res="8.1547815352678299e-03" rms="4.4391378760337830e-01" purity="4.8033553361892700e-01" nType="-99"/>
            <Node pos="r" depth="3" NCoef="0" IVar="-1" Cut="0.0000000000000000e+00" cType="1" res="-3.7198439240455627e-02" rms="2.5571793317794800e-01" purity="9.3143440783023834e-02" nType="-99"/>
          </Node>
        </Node>
        <Node pos="r" depth="1" NCoef="0" IVar="10" Cut="2.1987590789794922e+00" cType="1" res="-3.7121824920177460e-02" rms="3.5971188545227051e-01" purity="2.9669040441513062e-01" nType="0">
          <Node pos="l" depth="2" NCoef="0" IVar="9" Cut="-3.2569972991943359e+01" cType="1" res="-9.7809098660945892e-02" rms="3.1992962956428528e-01" purity="1.9239293038845062e-01" nType="0">
            <Node pos="l" depth="3" NCoef="0" IVar="-1" Cut="0.0000000000000000e+00" cType="1" res="-5.9119075536727905e-02" rms="2.4913489818572998e-01" purity="7.2621896862983704e-02" nType="-99"/>
            <Node pos="r" depth="3" NCoef="0" IVar="-1" Cut="0.0000000000000000e+00" cType="1" res="-1.4527189545333385e-02" rms="3.2910510897636414e-01" purity="2.1550588309764862e-01" nType="-99"/>
          </Node>
          <Node pos="r" depth="2" NCoef="0" IVar="0" Cut="2.5366200256347656e+02" cType="1" res="1.9513981416821480e-02" rms="3.8468247652053833e-01" purity="3.9402505755424500e-01" nType="0">
            <Node pos="l" depth="3" NCoef="0" IVar="-1" Cut="0.0000000000000000e+00" cType="1" res="6.5915007144212723e-03" rms="4.4282519817352295e-01" purity="5.7600212097167969e-01" nType="-99"/>
            <Node pos="r" depth="3" NCoef="0" IVar="-1" Cut="0.0000000000000000e+00" cType="1" res="-6.0262676328420639e-02" rms="1.6953255236148834e-01" purity="3.0072800815105438e-02" nType="-99"/>
          </Node>
        </Node>
      </Node>
    </BinaryTree>
    <BinaryTree type="DecisionTree" boostWeight="1.0000000000000000e+00" itree="13">
      <Node pos="s" depth="0" NCoef="0" IVar="4" Cut="1.8719248771667480e+00" cType="1" res="7.3114596307277679e-02" rms="3.8660195469856262e-01" purity="5.0015312433242798e-01" nType="0">
        <Node pos="l" depth="1" NCoef="0" IVar="0" Cut="2.2484582519531250e+02" cType="1" res="1.5431223809719086e-01" rms="3.8733536005020142e-01" purity="6.5582501888275146e-01" nType="0">
          <Node pos="l" depth="2" NCoef="0" IVar="1" Cut="6.0212440490722656e+01" cType="1" res="2.0671367645263672e-01" rms="3.9196246862411499e-01" purity="7.7619808912277222e-01" nType="0">
            <Node pos="l" depth="3" NCoef="0" IVar="-1" Cut="0.0000000000000000e+00" cType="1" res="-1.3206668198108673e-02" rms="4.6066185832023621e-01" purity="3.6948531866073608e-01" nType="-99"/>
            <Node pos="r" depth="3" NCoef="0" IVar="-1" Cut="0.0000000000000000e+00" cType="1" res="1.5428074635565281e-02" rms="3.5586324334144592e-01" purity="8.3646643161773682e-01" nType="-99"/>
          </Node>
          <Node pos="r" depth="2" NCoef="0" IVar="2" Cut="1.4108644104003906e+02" cType="1" res="-1.0368124395608902e-01" rms="2.2846333682537079e-01" purity="6.3179828226566315e-02" nType="0">
            <Node pos="l" depth="3" NCoef="0" IVar="-1" Cut="0.0000000000000000e+00" cType="1" res="-6.3644230365753174e-02" rms="1.8361158668994904e-01" purity="3.5520568490028381e-02" nType="-99"/>
            <Node pos="r" depth="3" NCoef="0" IVar="-1" Cut="0.0000000000000000e+00" cType="1" res="-3.0887439846992493e-02" rms="2.4798406660556793e-01" purity="7.8964442014694214e-02" nType="-99"/>
          </Node>
        </Node>
        <Node pos="r" depth="1" NCoef="0" IVar="6" Cut="-6.2924491882324219e+01" cType="1" res="-3.0232535675168037e-02" rms="3.6009231209754944e-01" purity="3.0201637744903564e-01" nType="0">
          <Node pos="l" depth="2" NCoef="0" IVar="0" Cut="2.6916305541992188e+02" cType="1" res="8.7361633777618408e-02" rms="3.7169045209884644e-01" purity="4.6626895666122437e-01" nType="0">
            <Node pos="l" depth="3" NCoef="0" IVar="-1" Cut="0.0000000000000000e+00" cType="1" res="1.2098829261958599e-02" rms="4.1295519471168518e-01" purity="6.7187881469726562e-01" nType="-99"/>
            <Node pos="r" depth="3" NCoef="0" IVar="-1" Cut="0.0000000000000000e+00" cType="1" res="-6.2395654618740082e-02" rms="1.4569701254367828e-01" purity="2.2155661135911942e-02" nType="-99"/>
          </Node>
          <Node pos="r" depth="2" NCoef="0" IVar="4" Cut="2.4138021469116211e+00" cType="1" res="-5.7690650224685669e-02" rms="3.5171273350715637e-01" purity="2.6366356015205383e-01" nType="0">
            <Node pos="l" depth="3" NCoef="0" IVar="-1" Cut="0.0000000000000000e+00" cType="1" res="2.1177846938371658e-03" rms="4.1259658336639404e-01" purity="4.3921071290969849e-01" nType="-99"/>
            <Node pos="r" depth="3" NCoef="0" IVar="-1" Cut="0.0000000000000000e+00" cType="1" res="-2.5712538510560989e-02" rms="2.9318019747734070e-01" purity="1.4676178991794586e-01" nType="-99"/>
          </Node>
        </Node>
      </Node>
    </BinaryTree>
    <BinaryTree type="DecisionTree" boostWeight="1.0000000000000000e+00" itree="14">
      <Node pos="s" depth="0" NCoef="0" IVar="4" Cut="1.8719248771667480e+00" cType="1" res="7.3531925678253174e-02" rms="3.8348543643951416e-01" purity="5.0072693824768066e-01" nType="0">
        <Node pos="l" depth="1" NCoef="0" IVar="0" Cut="2.2446508789062500e+02" cType="1" res="1.5146811306476593e-01" rms="3.8408222794532776e-01" purity="6.5579819679260254e-01" nType="0">
          <Node pos="l" depth="2" NCoef="0" IVar="1" Cut="5.2381511688232422e+01" cType="1" res="2.0124246180057526e-01" rms="3.9032778143882751e-01" purity="7.7665466070175171e-01" nType="0">
            <Node pos="l" depth="3" NCoef="0" IVar="-1" Cut="0.0000000000000000e+00" cType="1" res="-3.4741077572107315e-02" rms="4.0527197718620300e-01" purity="2.1671274304389954e-01" nType="-99"/>
            <Node pos="r" depth="3" NCoef="0" IVar="-1" Cut="0.0000000000000000e+00" cType="1" res="1.4552486129105091e-02" rms="3.6728286743164062e-01" purity="8.2196635007858276e-01" nType="-99"/>
          </Node>
          <Node pos="r" depth="2" NCoef="0" IVar="2" Cut="1.4108644104003906e+02" cType="1" res="-9.2547029256820679e-02" rms="2.2829557955265045e-01" purity="6.3308373093605042e-02" nType="0">
            <Node pos="l" depth="3" NCoef="0" IVar="-1" Cut="0.0000000000000000e+00" cType="1" res="-5.9830378741025925e-02" rms="1.8409571051597595e-01" purity="3.6059036850929260e-02" nType="-99"/>
            <Node pos="r" depth="3" NCoef="0" IVar="-1" Cut="0.0000000000000000e+00" cType="1" res="-2.8940407559275627e-02" rms="2.4847027659416199e-01" purity="7.9022623598575592e-02" nType="-99"/>
          </Node>
        </Node>
        <Node pos="r" depth="1" NCoef="0" IVar="6" Cut="-5.3858876228332520e+00" cType="1" res="-2.5472838431596756e-02" rms="3.5911166667938232e-01" purity="3.0373504757881165e-01" nType="0">
          <Node pos="l" depth="2" NCoef="0" IVar="10" Cut="1.9560809135437012e+00" cType="1" res="2.7102639898657799e-02" rms="3.9174261689186096e-01" purity="4.1324496269226074e-01" nType="0">
            <Node pos="l" depth="3" NCoef="0" IVar="-1" Cut="0.0000000000000000e+00" cType="1" res="-1.3133942149579525e-02" rms="3.5031881928443909e-01" purity="2.3912133276462555e-01" nType="-99"/>
            <Node pos="r" depth="3" NCoef="0" IVar="-1" Cut="0.0000000000000000e+00" cType="1" res="8.0604841932654381e-03" rms="4.0081349015235901e-01" purity="5.1197713613510132e-01" nType="-99"/>
          </Node>
          <Node pos="r" depth="2" NCoef="0" IVar="7" Cut="1.5466804504394531e+00" cType="1" res="-9.2987038195133209e-02" rms="2.9898270964622498e-01" purity="1.6310907900333405e-01" nType="0">
            <Node pos="l" depth="3" NCoef="0" IVar="-1" Cut="0.0000000000000000e+00" cType="1" res="-5.7939942926168442e-02" rms="2.6799657940864563e-01" purity="8.0652214586734772e-02" nType="-99"/>
            <Node pos="r" depth="3" NCoef="0" IVar="-1" Cut="0.0000000000000000e+00" cType="1" res="-1.4959901571273804e-02" rms="3.0051866173744202e-01" purity="1.8118773400783539e-01" nType="-99"/>
          </Node>
        </Node>
      </Node>
    </BinaryTree>
    <BinaryTree type="DecisionTree" boostWeight="1.0000000000000000e+00" itree="15">
      <Node pos="s" depth="0" NCoef="0" IVar="4" Cut="1.8961614370346069e+00" cType="1" res="7.2731524705886841e-02" rms="3.8026070594787598e-01" purity="4.9982789158821106e-01" nType="0">
        <Node pos="l" depth="1" NCoef="0" IVar="0" Cut="2.2950619506835938e+02" cType="1" res="1.4724847674369812e-01" rms="3.8155958056449890e-01" purity="6.5350824594497681e-01" nType="0">
          <Node pos="l" depth="2" NCoef="0" IVar="1" Cut="5.2438724517822266e+01" cType="1" res="1.9246129691600800e-01" rms="3.9017307758331299e-01" purity="7.6936626434326172e-01" nType="0">
            <Node pos="l" depth="3" NCoef="0" IVar="-1" Cut="0.0000000000000000e+00" cType="1" res="-3.3377617597579956e-02" rms="4.0126249194145203e-01" purity="2.1162864565849304e-01" nType="-99"/>
            <Node pos="r" depth="3" NCoef="0" IVar="-1" Cut="0.0000000000000000e+00" cType="1" res="1.4080269262194633e-02" rms="3.7003493309020996e-01" purity="8.1411051750183105e-01" nType="-99"/>
          </Node>
          <Node pos="r" depth="2" NCoef="0" IVar="10" Cut="1.9181649684906006e+00" cType="1" res="-8.6458705365657806e-02" rms="2.1457359194755554e-01" purity="5.4632902145385742e-02" nType="0">
            <Node pos="l" depth="3" NCoef="0" IVar="-1" Cut="0.0000000000000000e+00" cType="1" res="-6.1746597290039062e-02" rms="1.5734907984733582e-01" purity="2.6046901941299438e-02" nType="-99"/>
            <Node pos="r" depth="3" NCoef="0" IVar="-1" Cut="0.0000000000000000e+00" cType="1" res="-1.8222751095890999e-02" rms="2.9708582162857056e-01" purity="1.1310196667909622e-01" nType="-99"/>
          </Node>
        </Node>
        <Node pos="r" depth="1" NCoef="0" IVar="10" Cut="2.4117946624755859e+00" cType="1" res="-2.5085890665650368e-02" rms="3.5558685660362244e-01" purity="2.9809370636940002e-01" nType="0">
          <Node pos="l" depth="2" NCoef="0" IVar="9" Cut="-2.2334760665893555e+01" cType="1" res="-7.3623582720756531e-02" rms="3.2704022526741028e-01" purity="2.1173134446144104e-01" nType="0">
            <Node pos="l" depth="3" NCoef="0" IVar="-1" Cut="0.0000000000000000e+00" cType="1" res="-4.2979232966899872e-02" rms="2.6989498734474182e-01" purity="9.9501408636569977e-02" nType="-99"/>
            <Node pos="r" depth="3" NCoef="0" IVar="-1" Cut="0.0000000000000000e+00" cType="1" res="-8.8325431570410728e-03" rms="3.3764034509658813e-01" purity="2.4176262319087982e-01" nType="-99"/>
          </Node>
          <Node pos="r" depth="2" NCoef="0" IVar="0" Cut="2.4573078918457031e+02" cType="1" res="3.6861911416053772e-02" rms="3.8008975982666016e-01" purity="4.0831646323204041e-01" nType="0">
            <Node pos="l" depth="3" NCoef="0" IVar="-1" Cut="0.0000000000000000e+00" cType="1" res="7.9509280622005463e-03" rms="4.3705940246582031e-01" purity="6.0475128889083862e-01" nType="-99"/>
            <Node pos="r" depth="3" NCoef="0" IVar="-1" Cut="0.0000000000000000e+00" cType="1" res="-5.2832126617431641e-02" rms="1.8080371618270874e-01" purity="3.4849010407924652e-02" nType="-99"/>
          </Node>
        </Node>
      </Node>
    </BinaryTree>
    <BinaryTree type="DecisionTree" boostWeight="1.0000000000000000e+00" itree="16">
      <Node pos="s" depth="0" NCoef="0" IVar="0" Cut="2.6550677490234375e+02" cType="1" res="7.3225885629653931e-02" rms="3.7741783261299133e-01" purity="5.0024241209030151e-01" nType="0">
        <Node pos="l" depth="1" NCoef="0" IVar="1" Cut="1.1433641052246094e+02" cType="1" res="1.1868737637996674e-01" rms="4.1292122006416321e-01" purity="6.4432746171951294e-01" nType="0">
          <Node pos="l" depth="2" NCoef="0" IVar="0" Cut="1.3478179931640625e+02" cType="1" res="1.5599106252193451e-01" rms="4.0726876258850098e-01" purity="7.1189773082733154e-01" nType="0">
            <Node pos="l" depth="3" NCoef="0" IVar="-1" Cut="0.0000000000000000e+00" cType="1" res="-1.6762495040893555e-02" rms="4.6329331398010254e-01" purity="3.6472636461257935e-01" nType="-99"/>
            <Node pos="r" depth="3" NCoef="0" IVar="-1" Cut="0.0000000000000000e+00" cType="1" res="1.2379676103591919e-02" rms="3.9024171233177185e-01" purity="7.4315214157104492e-01" nType="-99"/>
          </Node>
          <Node pos="r" depth="2" NCoef="0" IVar="5" Cut="1.6578056335449219e+02" cType="1" res="-1.5515288710594177e-01" rms="3.4544590115547180e-01" purity="1.4830528199672699e-01" nType="0">
            <Node pos="l" depth="3" NCoef="0" IVar="-1" Cut="0.0000000000000000e+00" cType="1" res="-5.0627287477254868e-02" rms="2.9516786336898804e-01" purity="9.7965165972709656e-02" nType="-99"/>
            <Node pos="r" depth="3" NCoef="0" IVar="-1" Cut="0.0000000000000000e+00" cType="1" res="-1.0614172555506229e-02" rms="4.1664722561836243e-01" purity="2.5099572539329529e-01" nType="-99"/>
          </Node>
        </Node>
        <Node pos="r" depth="1" NCoef="0" IVar="10" Cut="2.1545181274414062e+00" cType="1" res="-7.8284077346324921e-02" rms="1.3815273344516754e-01" purity="2.0048629492521286e-02" nType="0">
          <Node pos="l" depth="2" NCoef="0" IVar="4" Cut="1.9008200168609619e+00" cType="1" res="-8.3564504981040955e-02" rms="1.1166629195213318e-01" purity="1.2740895152091980e-02" nType="0">
            <Node pos="l" depth="3" NCoef="0" IVar="-1" Cut="0.0000000000000000e+00" cType="1" res="-6.7389197647571564e-02" rms="1.1409101635217667e-01" purity="1.3627550564706326e-02" nType="-99"/>
            <Node pos="r" depth="3" NCoef="0" IVar="-1" Cut="0.0000000000000000e+00" cType="1" res="-7.2406046092510223e-02" rms="1.1014743894338608e-01" purity="1.2264333665370941e-02" nType="-99"/>
          </Node>
          <Node pos="r" depth="2" NCoef="0" IVar="15" Cut="1.2839550781250000e+02" cType="1" res="-6.9467246532440186e-02" rms="1.7323426902294159e-01" purity="3.2250493764877319e-02" nType="0">
            <Node pos="l" depth="3" NCoef="0" IVar="-1" Cut="0.0000000000000000e+00" cType="1" res="-6.5310768783092499e-02" rms="1.3043305277824402e-01" purity="1.7688412219285965e-02" nType="-99"/>
            <Node pos="r" depth="3" NCoef="0" IVar="-1" Cut="0.0000000000000000e+00" cType="1" res="-4.2441301047801971e-02" rms="1.9289512932300568e-01" purity="4.0426433086395264e-02" nType="-99"/>
          </Node>
        </Node>
      </Node>
    </BinaryTree>
    <BinaryTree type="DecisionTree" boostWeight="1.0000000000000000e+00" itree="17">
      <Node pos="s" depth="0" NCoef="0" IVar="4" Cut="1.8975307941436768e+00" cType="1" res="7.3864251375198364e-02" rms="3.7419795989990234e-01" purity="5.0059670209884644e-01" nType="0">
        <Node pos="l" depth="1" NCoef="0" IVar="0" Cut="2.2347206115722656e+02" cType="1" res="1.4267157018184662e-01" rms="3.7665182352066040e-01" purity="6.5438479185104370e-01" nType="0">
          <Node pos="l" depth="2" NCoef="0" IVar="1" Cut="6.0212440490722656e+01" cType="1" res="1.8603675067424774e-01" rms="3.8619518280029297e-01" purity="7.7645254135131836e-01" nType="0">
            <Node pos="l" depth="3" NCoef="0" IVar="-1" Cut="0.0000000000000000e+00" cType="1" res="-1.1821618303656578e-02" rms="4.5324531197547913e-01" purity="3.6595714092254639e-01" nType="-99"/>
            <Node pos="r" depth="3" NCoef="0" IVar="-1" Cut="0.0000000000000000e+00" cType="1" res="1.4128931798040867e-02" rms="3.5595288872718811e-01" purity="8.3608275651931763e-01" nType="-99"/>
          </Node>
          <Node pos="r" depth="2" NCoef="0" IVar="7" Cut="2.4623961448669434e+00" cType="1" res="-6.6000081598758698e-02" rms="2.3289896547794342e-01" purity="6.6999375820159912e-02" nType="0">
            <Node pos="l" depth="3" NCoef="0" IVar="-1" Cut="0.0000000000000000e+00" cType="1" res="-5.4388651624321938e-03" rms="3.6318159103393555e-01" purity="1.7813724279403687e-01" nType="-99"/>
            <Node pos="r" depth="3" NCoef="0" IVar="-1" Cut="0.0000000000000000e+00" cType="1" res="-5.6464225053787231e-02" rms="1.5955279767513275e-01" purity="2.7090393006801605e-02" nType="-99"/>
          </Node>
        </Node>
        <Node pos="r" depth="1" NCoef="0" IVar="6" Cut="-5.3858876228332520e+00" cType="1" res="-1.6817245632410049e-02" rms="3.5090345144271851e-01" purity="2.9791864752769470e-01" nType="0">
          <Node pos="l" depth="2" NCoef="0" IVar="10" Cut="1.9560811519622803e+00" cType="1" res="2.8766304254531860e-02" rms="3.8552072644233704e-01" purity="4.0941563248634338e-01" nType="0">
            <Node pos="l" depth="3" NCoef="0" IVar="-1" Cut="0.0000000000000000e+00" cType="1" res="-1.1649678461253643e-02" rms="3.4637606143951416e-01" purity="2.3487475514411926e-01" nType="-99"/>
            <Node pos="r" depth="3" NCoef="0" IVar="-1" Cut="0.0000000000000000e+00" cType="1" res="7.8458143398165703e-03" rms="3.9539694786071777e-01" purity="5.0821399688720703e-01" nType="-99"/>
          </Node>
          <Node pos="r" depth="2" NCoef="0" IVar="7" Cut="1.5722377300262451e+00" cType="1" res="-7.6210409402847290e-02" rms="2.8927874565124512e-01" purity="1.5264348685741425e-01" nType="0">
            <Node pos="l" depth="3" NCoef="0" IVar="-1" Cut="0.0000000000000000e+00" cType="1" res="-5.0797645002603531e-02" rms="2.6297989487648010e-01" purity="7.9797513782978058e-02" nType="-99"/>
            <Node pos="r" depth="3" NCoef="0" IVar="-1" Cut="0.0000000000000000e+00" cType="1" res="-1.3175630941987038e-02" rms="2.9161038994789124e-01" purity="1.6951680183410645e-01" nType="-99"/>
          </Node>
        </Node>
      </Node>
    </BinaryTree>
    <BinaryTree type="DecisionTree" boostWeight="1.0000000000000000e+00" itree="18">
      <Node pos="s" depth="0" NCoef="0" IVar="4" Cut="2.1208622455596924e+00" cType="1" res="7.2934016585350037e-02" rms="3.7197178602218628e-01" purity="5.0002568960189819e-01" nType="0">
        <Node pos="l" depth="1" NCoef="0" IVar="0" Cut="2.2317849731445312e+02" cType="1" res="1.3048560917377472e-01" rms="3.7942436337471008e-01" purity="6.3683509826660156e-01" nType="0">
          <Node pos="l" depth="2" NCoef="0" IVar="1" Cut="6.0544300079345703e+01" cType="1" res="1.7401354014873505e-01" rms="3.9209076762199402e-01" purity="7.6500469446182251e-01" nType="0">
            <Node pos="l" depth="3" NCoef="0" IVar="-1" Cut="0.0000000000000000e+00" cType="1" res="-1.0334315709769726e-02" rms="4.5511510968208313e-01" purity="3.7618574500083923e-01" nType="-99"/>
            <Node pos="r" depth="3" NCoef="0" IVar="-1" Cut="0.0000000000000000e+00" cType="1" res="1.3293937779963017e-02" rms="3.6811721324920654e-01" purity="8.1729608774185181e-01" nType="-99"/>
          </Node>
          <Node pos="r" depth="2" NCoef="0" IVar="2" Cut="1.3688787841796875e+02" cType="1" res="-6.3133515417575836e-02" rms="2.3361904919147491e-01" purity="6.6716425120830536e-02" nType="0">
            <Node pos="l" depth="3" NCoef="0" IVar="-1" Cut="0.0000000000000000e+00" cType="1" res="-4.8583384603261948e-02" rms="1.9824518263339996e-01" purity="4.3494619429111481e-02" nType="-99"/>
            <Node pos="r" depth="3" NCoef="0" IVar="-1" Cut="0.0000000000000000e+00" cType="1" res="-2.0951610058546066e-02" rms="2.4907575547695160e-01" purity="7.9200424253940582e-02" nType="-99"/>
          </Node>
        </Node>
        <Node pos="r" depth="1" NCoef="0" IVar="10" Cut="2.4414372444152832e+00" cType="1" res="-2.9045976698398590e-02" rms="3.3491972088813782e-01" purity="2.5760284066200256e-01" nType="0">
          <Node pos="l" depth="2" NCoef="0" IVar="9" Cut="-2.4414428710937500e+01" cType="1" res="-6.7991621792316437e-02" rms="3.0703997611999512e-01" purity="1.8021884560585022e-01" nType="0">
            <Node pos="l" depth="3" NCoef="0" IVar="-1" Cut="0.0000000000000000e+00" cType="1" res="-4.5665837824344635e-02" rms="2.4068601429462433e-01" purity="7.3115311563014984e-02" nType="-99"/>
            <Node pos="r" depth="3" NCoef="0" IVar="-1" Cut="0.0000000000000000e+00" cType="1" res="-1.0127543471753597e-02" rms="3.1979286670684814e-01" purity="2.0723739266395569e-01" nType="-99"/>
          </Node>
          <Node pos="r" depth="2" NCoef="0" IVar="0" Cut="2.6813098144531250e+02" cType="1" res="2.4100633338093758e-02" rms="3.6290577054023743e-01" purity="3.6320379376411438e-01" nType="0">
            <Node pos="l" depth="3" NCoef="0" IVar="-1" Cut="0.0000000000000000e+00" cType="1" res="5.8678598143160343e-03" rms="4.2597475647926331e-01" purity="5.3580605983734131e-01" nType="-99"/>
            <Node pos="r" depth="3" NCoef="0" IVar="-1" Cut="0.0000000000000000e+00" cType="1" res="-5.4215800017118454e-02" rms="1.5169076621532440e-01" purity="2.3914279416203499e-02" nType="-99"/>
          </Node>
        </Node>
      </Node>
    </BinaryTree>
    <BinaryTree type="DecisionTree" boostWeight="1.0000000000000000e+00" itree="19">
      <Node pos="s" depth="0" NCoef="0" IVar="4" Cut="1.8719248771667480e+00" cType="1" res="7.2176538407802582e-02" rms="3.6991846561431885e-01" purity="4.9986621737480164e-01" nType="0">
        <Node pos="l" depth="1" NCoef="0" IVar="0" Cut="1.9049279785156250e+02" cType="1" res="1.3778631389141083e-01" rms="3.7199595570564270e-01" purity="6.5543740987777710e-01" nType="0">
          <Node pos="l" depth="2" NCoef="0" IVar="1" Cut="5.3228004455566406e+01" cType="1" res="1.9537834823131561e-01" rms="3.6793515086174011e-01" purity="8.0496102571487427e-01" nType="0">
            <Node pos="l" depth="3" NCoef="0" IVar="-1" Cut="0.0000000000000000e+00" cType="1" res="-2.2999795153737068e-02" rms="4.2727723717689514e-01" purity="2.5237044692039490e-01" nType="-99"/>
            <Node pos="r" depth="3" NCoef="0" IVar="-1" Cut="0.0000000000000000e+00" cType="1" res="1.4025052078068256e-02" rms="3.4415403008460999e-01" purity="8.5465872287750244e-01" nType="-99"/>
          </Node>
          <Node pos="r" depth="2" NCoef="0" IVar="7" Cut="1.9205287694931030e+00" cType="1" res="6.3376291655004025e-03" rms="3.4697234630584717e-01" purity="3.1416302919387817e-01" nType="0">
            <Node pos="l" depth="3" NCoef="0" IVar="-1" Cut="0.0000000000000000e+00" cType="1" res="1.4194592833518982e-02" rms="3.8648471236228943e-01" purity="7.0159631967544556e-01" nType="-99"/>
            <Node pos="r" depth="3" NCoef="0" IVar="-1" Cut="0.0000000000000000e+00" cType="1" res="-1.3951406814157963e-02" rms="3.0476498603820801e-01" purity="1.7821125686168671e-01" nType="-99"/>
          </Node>
        </Node>
        <Node pos="r" depth="1" NCoef="0" IVar="10" Cut="2.1987516880035400e+00" cType="1" res="-1.1149276979267597e-02" rms="3.4996002912521362e-01" purity="3.0228742957115173e-01" nType="0">
          <Node pos="l" depth="2" NCoef="0" IVar="4" Cut="2.4126179218292236e+00" cType="1" res="-6.0919553041458130e-02" rms="3.1649875640869141e-01" purity="1.9724734127521515e-01" nType="0">
            <Node pos="l" depth="3" NCoef="0" IVar="-1" Cut="0.0000000000000000e+00" cType="1" res="-2.5018749292939901e-03" rms="3.8294178247451782e-01" purity="3.2957005500793457e-01" nType="-99"/>
            <Node pos="r" depth="3" NCoef="0" IVar="-1" Cut="0.0000000000000000e+00" cType="1" res="-2.3082694038748741e-02" rms="2.7058601379394531e-01" purity="1.2476111948490143e-01" nType="-99"/>
          </Node>
          <Node pos="r" depth="2" NCoef="0" IVar="6" Cut="-1.7455345153808594e+01" cType="1" res="3.5170909017324448e-02" rms="3.7252616882324219e-01" purity="4.0004611015319824e-01" nType="0">
            <Node pos="l" depth="3" NCoef="0" IVar="-1" Cut="0.0000000000000000e+00" cType="1" res="9.5865437760949135e-03" rms="3.8775530457496643e-01" purity="5.4424059391021729e-01" nType="-99"/>
            <Node pos="r" depth="3" NCoef="0" IVar="-1" Cut="0.0000000000000000e+00" cType="1" res="-7.3116859421133995e-03" rms="3.3877912163734436e-01" purity="2.4663962423801422e-01" nType="-99"/>
          </Node>
        </Node>
      </Node>
    </BinaryTree>
    <BinaryTree type="DecisionTree" boostWeight="1.0000000000000000e+00" itree="20">
      <Node pos="s" depth="0" NCoef="0" IVar="4" Cut="2.1202967166900635e+00" cType="1" res="7.1163840591907501e-02" rms="3.6807045340538025e-01" purity="4.9964782595634460e-01" nType="0">
        <Node pos="l" depth="1" NCoef="0" IVar="0" Cut="2.1881169128417969e+02" cType="1" res="1.2499966472387314e-01" rms="3.7589430809020996e-01" purity="6.3661736249923706e-01" nType="0">
          <Node pos="l" depth="2" NCoef="0" IVar="0" Cut="1.2978295898437500e+02" cType="1" res="1.6779288649559021e-01" rms="3.8864141702651978e-01" purity="7.7017003297805786e-01" nType="0">
            <Node pos="l" depth="3" NCoef="0" IVar="-1" Cut="0.0000000000000000e+00" cType="1" res="-2.2147214040160179e-02" rms="4.5137444138526917e-01" purity="3.1524032354354858e-01" nType="-99"/>
            <Node pos="r" depth="3" NCoef="0" IVar="-1" Cut="0.0000000000000000e+00" cType="1" res="1.2478576973080635e-02" rms="3.7158086895942688e-01" purity="8.0272746086120605e-01" nType="-99"/>
          </Node>
          <Node pos="r" depth="2" NCoef="0" IVar="1" Cut="7.8752456665039062e+01" cType="1" res="-5.4148338735103607e-02" rms="2.4644982814788818e-01" purity="7.7517122030258179e-02" nType="0">
            <Node pos="l" depth="3" NCoef="0" IVar="-1" Cut="0.0000000000000000e+00" cType="1" res="-6.2365639954805374e-02" rms="1.5780456364154816e-01" purity="2.4599207565188408e-02" nType="-99"/>
            <Node pos="r" depth="3" NCoef="0" IVar="-1" Cut="0.0000000000000000e+00" cType="1" res="-1.4210113324224949e-02" rms="2.7261152863502502e-01" purity="9.9116042256355286e-02" nType="-99"/>
          </Node>
        </Node>
        <Node pos="r" depth="1" NCoef="0" IVar="6" Cut="-2.2128005981445312e+01" cType="1" res="-2.4329744279384613e-02" rms="3.3300331234931946e-01" purity="2.5669237971305847e-01" nType="0">
          <Node pos="l" depth="2" NCoef="0" IVar="0" Cut="2.3814089965820312e+02" cType="1" res="3.6169104278087616e-02" rms="3.7870919704437256e-01" purity="4.0324348211288452e-01" nType="0">
            <Node pos="l" depth="3" NCoef="0" IVar="-1" Cut="0.0000000000000000e+00" cType="1" res="7.5775114819407463e-03" rms="4.4248774647712708e-01" purity="6.1190742254257202e-01" nType="-99"/>
            <Node pos="r" depth="3" NCoef="0" IVar="-1" Cut="0.0000000000000000e+00" cType="1" res="-4.9200922250747681e-02" rms="1.7855283617973328e-01" purity="3.4032136201858521e-02" nType="-99"/>
          </Node>
          <Node pos="r" depth="2" NCoef="0" IVar="7" Cut="1.9631987810134888e+00" cType="1" res="-7.7083341777324677e-02" rms="2.7667999267578125e-01" purity="1.2890321016311646e-01" nType="0">
            <Node pos="l" depth="3" NCoef="0" IVar="-1" Cut="0.0000000000000000e+00" cType="1" res="-4.0598787367343903e-02" rms="2.6514562964439392e-01" purity="9.0565860271453857e-02" nType="-99"/>
            <Node pos="r" depth="3" NCoef="0" IVar="-1" Cut="0.0000000000000000e+00" cType="1" res="-1.4765996485948563e-02" rms="2.7865204215049744e-01" purity="1.4494621753692627e-01" nType="-99"/>
          </Node>
        </Node>
      </Node>
    </BinaryTree>
    <BinaryTree type="DecisionTree" boostWeight="1.0000000000000000e+00" itree="21">
      <Node pos="s" depth="0" NCoef="0" IVar="4" Cut="1.8675844669342041e+00" cType="1" res="7.1204088628292084e-02" rms="3.6577141284942627e-01" purity="5.0053590536117554e-01" nType="0">
        <Node pos="l" depth="1" NCoef="0" IVar="0" Cut="2.2921263122558594e+02" cType="1" res="1.3244423270225525e-01" rms="3.6780989170074463e-01" purity="6.5621143579483032e-01" nType="0">
          <Node pos="l" depth="2" NCoef="0" IVar="1" Cut="6.2496192932128906e+01" cType="1" res="1.6718515753746033e-01" rms="3.8076213002204895e-01" purity="7.7164345979690552e-01" nType="0">
            <Node pos="l" depth="3" NCoef="0" IVar="-1" Cut="0.0000000000000000e+00" cType="1" res="-7.0546329952776432e-03" rms="4.5165482163429260e-01" purity="4.1144159436225891e-01" nType="-99"/>
            <Node pos="r" depth="3" NCoef="0" IVar="-1" Cut="0.0000000000000000e+00" cType="1" res="1.3311249203979969e-02" rms="3.5022914409637451e-01" purity="8.3640527725219727e-01" nType="-99"/>
          </Node>
          <Node pos="r" depth="2" NCoef="0" IVar="10" Cut="1.9181649684906006e+00" cType="1" res="-4.8328671604394913e-02" rms="2.1418237686157227e-01" purity="5.5566217750310898e-02" nType="0">
            <Node pos="l" depth="3" NCoef="0" IVar="-1" Cut="0.0000000000000000e+00" cType="1" res="-5.0723358988761902e-02" rms="1.5663476288318634e-01" purity="2.6489589363336563e-02" nType="-99"/>
            <Node pos="r" depth="3" NCoef="0" IVar="-1" Cut="0.0000000000000000e+00" cType="1" res="-7.7897873707115650e-03" rms="2.9790726304054260e-01" purity="1.1547044664621353e-01" nType="-99"/>
          </Node>
        </Node>
        <Node pos="r" depth="1" NCoef="0" IVar="6" Cut="-5.3858876228332520e+00" cType="1" res="-6.1712176539003849e-03" rms="3.4810042381286621e-01" purity="3.0384388566017151e-01" nType="0">
          <Node pos="l" depth="2" NCoef="0" IVar="0" Cut="2.2544981384277344e+02" cType="1" res="3.3661194145679474e-02" rms="3.8115432858467102e-01" purity="4.1251006722450256e-01" nType="0">
            <Node pos="l" depth="3" NCoef="0" IVar="-1" Cut="0.0000000000000000e+00" cType="1" res="7.1611544117331505e-03" rms="4.4326803088188171e-01" purity="6.2617987394332886e-01" nType="-99"/>
            <Node pos="r" depth="3" NCoef="0" IVar="-1" Cut="0.0000000000000000e+00" cType="1" res="-4.1270852088928223e-02" rms="2.0037192106246948e-01" purity="4.5222528278827667e-02" nType="-99"/>
          </Node>
          <Node pos="r" depth="2" NCoef="0" IVar="4" Cut="2.2265000343322754e+00" cType="1" res="-5.7009909301996231e-02" rms="2.9291480779647827e-01" purity="1.6515165567398071e-01" nType="0">
            <Node pos="l" depth="3" NCoef="0" IVar="-1" Cut="0.0000000000000000e+00" cType="1" res="-3.7265208084136248e-04" rms="4.0254482626914978e-01" purity="3.7984451651573181e-01" nType="-99"/>
            <Node pos="r" depth="3" NCoef="0" IVar="-1" Cut="0.0000000000000000e+00" cType="1" res="-3.6367136985063553e-02" rms="2.2001576423645020e-01" purity="6.5425246953964233e-02" nType="-99"/>
          </Node>
        </Node>
      </Node>
    </BinaryTree>
    <BinaryTree type="DecisionTree" boostWeight="1.0000000000000000e+00" itree="22">
      <Node pos="s" depth="0" NCoef="0" IVar="4" Cut="1.8918209075927734e+00" cType="1" res="7.0803843438625336e-02" rms="3.6401852965354919e-01" purity="5.0068879127502441e-01" nType="0">
        <Node pos="l" depth="1" NCoef="0" IVar="0" Cut="2.2982257080078125e+02" cType="1" res="1.2863372266292572e-01" rms="3.6711966991424561e-01" purity="6.5468734502792358e-01" nType="0">
          <Node pos="l" depth="2" NCoef="0" IVar="1" Cut="6.2053077697753906e+01" cType="1" res="1.6145311295986176e-01" rms="3.8100931048393250e-01" purity="7.6963734626770020e-01" nType="0">
            <Node pos="l" depth="3" NCoef="0" IVar="-1" Cut="0.0000000000000000e+00" cType="1" res="-7.5241588056087494e-03" rms="4.5125252008438110e-01" purity="4.0003502368927002e-01" nType="-99"/>
            <Node pos="r" depth="3" NCoef="0" IVar="-1" Cut="0.0000000000000000e+00" cType="1" res="1.2922211550176144e-02" rms="3.5262110829353333e-01" purity="8.3285707235336304e-01" nType="-99"/>
          </Node>
          <Node pos="r" depth="2" NCoef="0" IVar="10" Cut="1.6818072795867920e+00" cType="1" res="-4.2403139173984528e-02" rms="2.1390746533870697e-01" purity="5.5630058050155640e-02" nType="0">
            <Node pos="l" depth="3" NCoef="0" IVar="-1" Cut="0.0000000000000000e+00" cType="1" res="-5.2257016301155090e-02" rms="1.4512455463409424e-01" purity="2.2507429122924805e-02" nType="-99"/>
            <Node pos="r" depth="3" NCoef="0" IVar="-1" Cut="0.0000000000000000e+00" cType="1" res="-8.8652949780225754e-03" rms="2.8583404421806335e-01" purity="1.0478059947490692e-01" nType="-99"/>
          </Node>
        </Node>
        <Node pos="r" depth="1" NCoef="0" IVar="10" Cut="2.1987566947937012e+00" cType="1" res="-4.8907124437391758e-03" rms="3.4559309482574463e-01" purity="2.9911726713180542e-01" nType="0">
          <Node pos="l" depth="2" NCoef="0" IVar="11" Cut="1.1554499053955078e+02" cType="1" res="-5.1025494933128357e-02" rms="3.1350976228713989e-01" purity="1.9381441175937653e-01" nType="0">
            <Node pos="l" depth="3" NCoef="0" IVar="-1" Cut="0.0000000000000000e+00" cType="1" res="-2.1253747399896383e-03" rms="3.9500808715820312e-01" purity="3.4379339218139648e-01" nType="-99"/>
            <Node pos="r" depth="3" NCoef="0" IVar="-1" Cut="0.0000000000000000e+00" cType="1" res="-2.5973415002226830e-02" rms="2.4307201802730560e-01" purity="9.5293022692203522e-02" nType="-99"/>
          </Node>
          <Node pos="r" depth="2" NCoef="0" IVar="6" Cut="1.5220250129699707e+01" cType="1" res="3.7979215383529663e-02" rms="3.6778897047042847e-01" purity="3.9696803689002991e-01" nType="0">
            <Node pos="l" depth="3" NCoef="0" IVar="-1" Cut="0.0000000000000000e+00" cType="1" res="7.2341943159699440e-03" rms="3.8892325758934021e-01" purity="4.9030461907386780e-01" nType="-99"/>
            <Node pos="r" depth="3" NCoef="0" IVar="-1" Cut="0.0000000000000000e+00" cType="1" res="-2.1002121269702911e-02" rms="2.6992821693420410e-01" purity="1.2097345292568207e-01" nType="-99"/>
          </Node>
        </Node>
      </Node>
    </BinaryTree>
    <BinaryTree type="DecisionTree" boostWeight="1.0000000000000000e+00" itree="23">
      <Node pos="s" depth="0" NCoef="0" IVar="4" Cut="2.4009323120117188e+00" cType="1" res="6.9366976618766785e-02" rms="3.6226505041122437e-01" purity="5.0001448392868042e-01" nType="0">
        <Node pos="l" depth="1" NCoef="0" IVar="0" Cut="1.9902355957031250e+02" cType="1" res="1.0970307886600494e-01" rms="3.7348100543022156e-01" purity="6.1220318078994751e-01" nType="0">
          <Node pos="l" depth="2" NCoef="0" IVar="0" Cut="1.2934339904785156e+02" cType="1" res="1.6423657536506653e-01" rms="3.8085052371025085e-01" purity="7.7845245599746704e-01" nType="0">
            <Node pos="l" depth="3" NCoef="0" IVar="-1" Cut="0.0000000000000000e+00" cType="1" res="-2.2549992427229881e-02" rms="4.4646650552749634e-01" purity="3.0316665768623352e-01" nType="-99"/>
            <Node pos="r" depth="3" NCoef="0" IVar="-1" Cut="0.0000000000000000e+00" cType="1" res="1.2397869490087032e-02" rms="3.6265274882316589e-01" purity="8.1421679258346558e-01" nType="-99"/>
          </Node>
          <Node pos="r" depth="2" NCoef="0" IVar="7" Cut="1.7361495494842529e+00" cType="1" res="-2.9899040237069130e-02" rms="3.1329777836799622e-01" purity="1.8661601841449738e-01" nType="0">
            <Node pos="l" depth="3" NCoef="0" IVar="-1" Cut="0.0000000000000000e+00" cType="1" res="1.0673210956156254e-02" rms="4.0649619698524475e-01" purity="4.8511531949043274e-01" nType="-99"/>
            <Node pos="r" depth="3" NCoef="0" IVar="-1" Cut="0.0000000000000000e+00" cType="1" res="-1.6723146662116051e-02" rms="2.8484669327735901e-01" purity="1.2981478869915009e-01" nType="-99"/>
          </Node>
        </Node>
        <Node pos="r" depth="1" NCoef="0" IVar="6" Cut="-2.2128005981445312e+01" cType="1" res="-3.3774703741073608e-02" rms="3.0876591801643372e-01" purity="2.1314163506031036e-01" nType="0">
          <Node pos="l" depth="2" NCoef="0" IVar="4" Cut="3.1821260452270508e+00" cType="1" res="1.6883227974176407e-02" rms="3.6861017346382141e-01" purity="3.6120253801345825e-01" nType="0">
            <Node pos="l" depth="3" NCoef="0" IVar="-1" Cut="0.0000000000000000e+00" cType="1" res="5.5661387741565704e-03" rms="3.9939984679222107e-01" purity="4.5953136682510376e-01" nType="-99"/>
            <Node pos="r" depth="3" NCoef="0" IVar="-1" Cut="0.0000000000000000e+00" cType="1" res="-3.2682862132787704e-02" rms="2.3343321681022644e-01" purity="8.5456877946853638e-02" nType="-99"/>
          </Node>
          <Node pos="r" depth="2" NCoef="0" IVar="0" Cut="3.1598077392578125e+02" cType="1" res="-8.1994891166687012e-02" rms="2.2799585759639740e-01" purity="7.2205685079097748e-02" nType="0">
            <Node pos="l" depth="3" NCoef="0" IVar="-1" Cut="0.0000000000000000e+00" cType="1" res="-2.8647108003497124e-02" rms="2.9724964499473572e-01" purity="1.2885057926177979e-01" nType="-99"/>
            <Node pos="r" depth="3" NCoef="0" IVar="-1" Cut="0.0000000000000000e+00" cType="1" res="-6.5735280513763428e-02" rms="1.0513241589069366e-01" purity="1.1204043403267860e-02" nType="-99"/>
          </Node>
        </Node>
      </Node>
    </BinaryTree>
    <BinaryTree type="DecisionTree" boostWeight="1.0000000000000000e+00" itree="24">
      <Node pos="s" depth="0" NCoef="0" IVar="4" Cut="1.6369910240173340e+00" cType="1" res="6.8735882639884949e-02" rms="3.6022824048995972e-01" purity="4.9982130527496338e-01" nType="0">
        <Node pos="l" depth="1" NCoef="0" IVar="1" Cut="5.9020523071289062e+01" cType="1" res="1.3411949574947357e-01" rms="3.5475605726242065e-01" purity="6.6695570945739746e-01" nType="0">
          <Node pos="l" depth="2" NCoef="0" IVar="1" Cut="4.6152091979980469e+01" cType="1" res="-9.6157930791378021e-02" rms="4.0448528528213501e-01" purity="2.7863329648971558e-01" nType="0">
            <Node pos="l" depth="3" NCoef="0" IVar="-1" Cut="0.0000000000000000e+00" cType="1" res="-5.1960758864879608e-02" rms="3.0854815244674683e-01" purity="1.0528199374675751e-01" nType="-99"/>
            <Node pos="r" depth="3" NCoef="0" IVar="-1" Cut="0.0000000000000000e+00" cType="1" res="-3.2326555810868740e-04" rms="4.4172337651252747e-01" purity="4.0956783294677734e-01" nType="-99"/>
          </Node>
          <Node pos="r" depth="2" NCoef="0" IVar="0" Cut="2.5555601501464844e+02" cType="1" res="1.7108175158500671e-01" rms="3.3153235912322998e-01" purity="7.2928601503372192e-01" nType="0">
            <Node pos="l" depth="3" NCoef="0" IVar="-1" Cut="0.0000000000000000e+00" cType="1" res="1.3139283284544945e-02" rms="3.3847385644912720e-01" purity="8.2712662220001221e-01" nType="-99"/>
            <Node pos="r" depth="3" NCoef="0" IVar="-1" Cut="0.0000000000000000e+00" cType="1" res="-3.3645387738943100e-02" rms="1.6869059205055237e-01" purity="3.2600011676549911e-02" nType="-99"/>
          </Node>
        </Node>
        <Node pos="r" depth="1" NCoef="0" IVar="10" Cut="2.1987516880035400e+00" cType="1" res="1.0932061821222305e-02" rms="3.5510933399200439e-01" purity="3.5206252336502075e-01" nType="0">
          <Node pos="l" depth="2" NCoef="0" IVar="9" Cut="-3.2569972991943359e+01" cType="1" res="-3.6219533532857895e-02" rms="3.2967001199722290e-01" purity="2.4240799248218536e-01" nType="0">
            <Node pos="l" depth="3" NCoef="0" IVar="-1" Cut="0.0000000000000000e+00" cType="1" res="-3.3172436058521271e-02" rms="2.7566671371459961e-01" purity="1.1093372106552124e-01" nType="-99"/>
            <Node pos="r" depth="3" NCoef="0" IVar="-1" Cut="0.0000000000000000e+00" cType="1" res="-3.7441868335008621e-03" rms="3.3714231848716736e-01" purity="2.6720678806304932e-01" nType="-99"/>
          </Node>
          <Node pos="r" depth="2" NCoef="0" IVar="4" Cut="2.6000761985778809e+00" cType="1" res="5.4013792425394058e-02" rms="3.7166100740432739e-01" purity="4.5225232839584351e-01" nType="0">
            <Node pos="l" depth="3" NCoef="0" IVar="-1" Cut="0.0000000000000000e+00" cType="1" res="8.6406338959932327e-03" rms="3.9530184864997864e-01" purity="5.8706033229827881e-01" nType="-99"/>
            <Node pos="r" depth="3" NCoef="0" IVar="-1" Cut="0.0000000000000000e+00" cType="1" res="-1.9908330868929625e-03" rms="3.2443901896476746e-01" purity="2.6288247108459473e-01" nType="-99"/>
          </Node>
        </Node>
      </Node>
    </BinaryTree>
    <BinaryTree type="DecisionTree" boostWeight="1.0000000000000000e+00" itree="25">
      <Node pos="s" depth="0" NCoef="0" IVar="0" Cut="2.6033285522460938e+02" cType="1" res="6.7479528486728668e-02" rms="3.5858923196792603e-01" purity="4.9988526105880737e-01" nType="0">
        <Node pos="l" depth="1" NCoef="0" IVar="1" Cut="1.1237728118896484e+02" cType="1" res="1.0261039435863495e-01" rms="3.9682418107986450e-01" purity="6.5023934841156006e-01" nType="0">
          <Node pos="l" depth="2" NCoef="0" IVar="0" Cut="1.3316348266601562e+02" cType="1" res="1.3229303061962128e-01" rms="3.9338421821594238e-01" purity="7.1779590845108032e-01" nType="0">
            <Node pos="l" depth="3" NCoef="0" IVar="-1" Cut="0.0000000000000000e+00" cType="1" res="-1.6827415674924850e-02" rms="4.5226258039474487e-01" purity="3.4161844849586487e-01" nType="-99"/>
            <Node pos="r" depth="3" NCoef="0" IVar="-1" Cut="0.0000000000000000e+00" cType="1" res="1.0884281247854233e-02" rms="3.7954270839691162e-01" purity="7.4857300519943237e-01" nType="-99"/>
          </Node>
          <Node pos="r" depth="2" NCoef="0" IVar="0" Cut="2.0899714660644531e+02" cType="1" res="-1.1065755784511566e-01" rms="3.5381737351417542e-01" purity="1.6484890878200531e-01" nType="0">
            <Node pos="l" depth="3" NCoef="0" IVar="-1" Cut="0.0000000000000000e+00" cType="1" res="-3.2090682536363602e-02" rms="3.6332601308822632e-01" purity="1.8213255703449249e-01" nType="-99"/>
            <Node pos="r" depth="3" NCoef="0" IVar="-1" Cut="0.0000000000000000e+00" cType="1" res="-1.5608955174684525e-02" rms="3.3886274695396423e-01" purity="1.5274490416049957e-01" nType="-99"/>
          </Node>
        </Node>
        <Node pos="r" depth="1" NCoef="0" IVar="4" Cut="1.9039567708969116e+00" cType="1" res="-4.4319156557321548e-02" rms="1.4227893948554993e-01" purity="2.1406115964055061e-02" nType="0">
          <Node pos="l" depth="2" NCoef="0" IVar="7" Cut="3.0059113502502441e+00" cType="1" res="-3.4606579691171646e-02" rms="1.5692345798015594e-01" purity="2.7245443314313889e-02" nType="0">
            <Node pos="l" depth="3" NCoef="0" IVar="-1" Cut="0.0000000000000000e+00" cType="1" res="-2.3896576836705208e-02" rms="2.0104832947254181e-01" purity="4.5457605272531509e-02" nType="-99"/>
            <Node pos="r" depth="3" NCoef="0" IVar="-1" Cut="0.0000000000000000e+00" cType="1" res="-6.8627513945102692e-02" rms="8.2118809223175049e-02" purity="6.7473985254764557e-03" nType="-99"/>
          </Node>
          <Node pos="r" depth="2" NCoef="0" IVar="10" Cut="2.4117946624755859e+00" cType="1" res="-4.8279281705617905e-02" rms="1.3565619289875031e-01" purity="1.9025236368179321e-02" nType="0">
            <Node pos="l" depth="3" NCoef="0" IVar="-1" Cut="0.0000000000000000e+00" cType="1" res="-6.0732748359441757e-02" rms="1.2002342939376831e-01" purity="1.4740572310984135e-02" nType="-99"/>
            <Node pos="r" depth="3" NCoef="0" IVar="-1" Cut="0.0000000000000000e+00" cType="1" res="-4.3745864182710648e-02" rms="1.6067615151405334e-01" purity="2.7043741196393967e-02" nType="-99"/>
          </Node>
        </Node>
      </Node>
    </BinaryTree>
    <BinaryTree type="DecisionTree" boostWeight="1.0000000000000000e+00" itree="26">
      <Node pos="s" depth="0" NCoef="0" IVar="4" Cut="1.6179237365722656e+00" cType="1" res="6.7306704819202423e-02" rms="3.5679739713668823e-01" purity="5.0024980306625366e-01" nType="0">
        <Node pos="l" depth="1" NCoef="0" IVar="1" Cut="5.4851825714111328e+01" cType="1" res="1.3028676807880402e-01" rms="3.5044187307357788e-01" purity="6.6819876432418823e-01" nType="0">
          <Node pos="l" depth="2" NCoef="0" IVar="-1" Cut="0.0000000000000000e+00" cType="1" res="-1.9570501521229744e-02" rms="3.8333347439765930e-01" purity="2.1508133411407471e-01" nType="-99"/>
          <Node pos="r" depth="2" NCoef="0" IVar="7" Cut="2.1412692070007324e+00" cType="1" res="1.6045808792114258e-01" rms="3.3389115333557129e-01" purity="7.2335857152938843e-01" nType="0">
            <Node pos="l" depth="3" NCoef="0" IVar="-1" Cut="0.0000000000000000e+00" cType="1" res="1.3831229880452156e-02" rms="3.1697723269462585e-01" purity="8.5907018184661865e-01" nType="-99"/>
            <Node pos="r" depth="3" NCoef="0" IVar="-1" Cut="0.0000000000000000e+00" cType="1" res="6.6123995929956436e-03" rms="3.4008488059043884e-01" purity="4.7366818785667419e-01" nType="-99"/>
          </Node>
        </Node>
        <Node pos="r" depth="1" NCoef="0" IVar="4" Cut="2.5855526924133301e+00" cType="1" res="1.3167561963200569e-02" rms="3.5330939292907715e-01" purity="3.5587689280509949e-01" nType="0">
          <Node pos="l" depth="2" NCoef="0" IVar="1" Cut="1.3303245544433594e+02" cType="1" res="4.9766682088375092e-02" rms="3.8994842767715454e-01" purity="4.8416420817375183e-01" nType="0">
            <Node pos="l" depth="3" NCoef="0" IVar="-1" Cut="0.0000000000000000e+00" cType="1" res="6.6117472015321255e-03" rms="4.1573739051818848e-01" purity="5.9297257661819458e-01" nType="-99"/>
            <Node pos="r" depth="3" NCoef="0" IVar="-1" Cut="0.0000000000000000e+00" cType="1" res="-3.7179466336965561e-02" rms="2.3286312818527222e-01" purity="5.4977633059024811e-02" nType="-99"/>
          </Node>
          <Node pos="r" depth="2" NCoef="0" IVar="9" Cut="3.0840360641479492e+01" cType="1" res="-3.4949205815792084e-02" rms="2.9146033525466919e-01" purity="1.8721784651279449e-01" nType="0">
            <Node pos="l" depth="3" NCoef="0" IVar="-1" Cut="0.0000000000000000e+00" cType="1" res="-1.6890749335289001e-02" rms="2.8213235735893250e-01" purity="1.4965252578258514e-01" nType="-99"/>
            <Node pos="r" depth="3" NCoef="0" IVar="-1" Cut="0.0000000000000000e+00" cType="1" res="4.2406986467540264e-03" rms="2.9981297254562378e-01" purity="2.5874209403991699e-01" nType="-99"/>
          </Node>
        </Node>
      </Node>
    </BinaryTree>
    <BinaryTree type="DecisionTree" boostWeight="1.0000000000000000e+00" itree="27">
      <Node pos="s" depth="0" NCoef="0" IVar="4" Cut="1.6386157274246216e+00" cType="1" res="6.5673097968101501e-02" rms="3.5542514920234680e-01" purity="4.9986484646797180e-01" nType="0">
        <Node pos="l" depth="1" NCoef="0" IVar="1" Cut="5.9020523071289062e+01" cType="1" res="1.2566787004470825e-01" rms="3.5011976957321167e-01" purity="6.6735476255416870e-01" nType="0">
          <Node pos="l" depth="2" NCoef="0" IVar="1" Cut="4.6152091979980469e+01" cType="1" res="-8.2285612821578979e-02" rms="4.0023341774940491e-01" purity="2.7896022796630859e-01" nType="0">
            <Node pos="l" depth="3" NCoef="0" IVar="-1" Cut="0.0000000000000000e+00" cType="1" res="-4.7218214720487595e-02" rms="3.0605691671371460e-01" purity="1.0473454743623734e-01" nType="-99"/>
            <Node pos="r" depth="3" NCoef="0" IVar="-1" Cut="0.0000000000000000e+00" cType="1" res="-7.0059410063549876e-05" rms="4.4102239608764648e-01" purity="4.0957659482955933e-01" nType="-99"/>
          </Node>
          <Node pos="r" depth="2" NCoef="0" IVar="7" Cut="2.1864702701568604e+00" cType="1" res="1.5900148451328278e-01" rms="3.2941368222236633e-01" purity="7.2961193323135376e-01" nType="0">
            <Node pos="l" depth="3" NCoef="0" IVar="-1" Cut="0.0000000000000000e+00" cType="1" res="1.3576791621744633e-02" rms="3.1453502178192139e-01" purity="8.6019897460937500e-01" nType="-99"/>
            <Node pos="r" depth="3" NCoef="0" IVar="-1" Cut="0.0000000000000000e+00" cType="1" res="6.8038017489016056e-03" rms="3.3528214693069458e-01" purity="4.7255456447601318e-01" nType="-99"/>
          </Node>
        </Node>
        <Node pos="r" depth="1" NCoef="0" IVar="10" Cut="2.4117932319641113e+00" cType="1" res="1.2403441593050957e-02" rms="3.5159221291542053e-01" purity="3.5114973783493042e-01" nType="0">
          <Node pos="l" depth="2" NCoef="0" IVar="9" Cut="-3.5894096374511719e+01" cType="1" res="-2.4881023913621902e-02" rms="3.3396944403648376e-01" purity="2.6202759146690369e-01" nType="0">
            <Node pos="l" depth="3" NCoef="0" IVar="-1" Cut="0.0000000000000000e+00" cType="1" res="-3.0706696212291718e-02" rms="2.7602791786193848e-01" purity="1.1281036585569382e-01" nType="-99"/>
            <Node pos="r" depth="3" NCoef="0" IVar="-1" Cut="0.0000000000000000e+00" cType="1" res="-2.0162730943411589e-03" rms="3.4101426601409912e-01" purity="2.8655776381492615e-01" nType="-99"/>
          </Node>
          <Node pos="r" depth="2" NCoef="0" IVar="0" Cut="2.4153335571289062e+02" cType="1" res="5.9206757694482803e-02" rms="3.6721575260162354e-01" purity="4.6302506327629089e-01" nType="0">
            <Node pos="l" depth="3" NCoef="0" IVar="-1" Cut="0.0000000000000000e+00" cType="1" res="7.9319486394524574e-03" rms="4.1480907797813416e-01" purity="6.4984589815139771e-01" nType="-99"/>
            <Node pos="r" depth="3" NCoef="0" IVar="-1" Cut="0.0000000000000000e+00" cType="1" res="-3.3071354031562805e-02" rms="1.9148507714271545e-01" purity="3.9776448160409927e-02" nType="-99"/>
          </Node>
        </Node>
      </Node>
    </BinaryTree>
    <BinaryTree type="DecisionTree" boostWeight="1.0000000000000000e+00" itree="28">
      <Node pos="s" depth="0" NCoef="0" IVar="4" Cut="1.6401588916778564e+00" cType="1" res="6.4649149775505066e-02" rms="3.5391277074813843e-01" purity="4.9985733628273010e-01" nType="0">
        <Node pos="l" depth="1" NCoef="0" IVar="1" Cut="6.0629703521728516e+01" cType="1" res="1.2280559539794922e-01" rms="3.4835809469223022e-01" purity="6.6716945171356201e-01" nType="0">
          <Node pos="l" depth="2" NCoef="0" IVar="1" Cut="4.5643413543701172e+01" cType="1" res="-6.3223339617252350e-02" rms="4.0224716067314148e-01" purity="3.0793857574462891e-01" nType="0">
            <Node pos="l" depth="3" NCoef="0" IVar="-1" Cut="0.0000000000000000e+00" cType="1" res="-4.6244617551565170e-02" rms="2.9957693815231323e-01" purity="9.9840164184570312e-02" nType="-99"/>
            <Node pos="r" depth="3" NCoef="0" IVar="-1" Cut="0.0000000000000000e+00" cType="1" res="5.1666476065292954e-04" rms="4.3837368488311768e-01" purity="4.3165916204452515e-01" nType="-99"/>
          </Node>
          <Node pos="r" depth="2" NCoef="0" IVar="7" Cut="2.1406486034393311e+00" cType="1" res="1.5637877583503723e-01" rms="3.2661998271942139e-01" purity="7.3200088739395142e-01" nType="0">
            <Node pos="l" depth="3" NCoef="0" IVar="-1" Cut="0.0000000000000000e+00" cType="1" res="1.3486692681908607e-02" rms="3.1014916300773621e-01" purity="8.6614370346069336e-01" nType="-99"/>
            <Node pos="r" depth="3" NCoef="0" IVar="-1" Cut="0.0000000000000000e+00" cType="1" res="6.9942208938300610e-03" rms="3.3516049385070801e-01" purity="4.8458871245384216e-01" nType="-99"/>
          </Node>
        </Node>
        <Node pos="r" depth="1" NCoef="0" IVar="10" Cut="2.1987566947937012e+00" cType="1" res="1.2743967585265636e-02" rms="3.5074639320373535e-01" purity="3.5052970051765442e-01" nType="0">
          <Node pos="l" depth="2" NCoef="0" IVar="4" Cut="2.5963947772979736e+00" cType="1" res="-2.9870683327317238e-02" rms="3.2687339186668396e-01" purity="2.4077390134334564e-01" nType="0">
            <Node pos="l" depth="3" NCoef="0" IVar="-1" Cut="0.0000000000000000e+00" cType="1" res="-7.6334533514454961e-04" rms="3.7619188427925110e-01" purity="3.5135525465011597e-01" nType="-99"/>
            <Node pos="r" depth="3" NCoef="0" IVar="-1" Cut="0.0000000000000000e+00" cType="1" res="-1.9792022183537483e-02" rms="2.5168126821517944e-01" purity="1.0700354725122452e-01" nType="-99"/>
          </Node>
          <Node pos="r" depth="2" NCoef="0" IVar="6" Cut="-1.7455345153808594e+01" cType="1" res="5.1736600697040558e-02" rms="3.6693710088729858e-01" purity="4.5095691084861755e-01" nType="0">
            <Node pos="l" depth="3" NCoef="0" IVar="-1" Cut="0.0000000000000000e+00" cType="1" res="9.4363084062933922e-03" rms="3.7413102388381958e-01" purity="5.6746488809585571e-01" nType="-99"/>
            <Node pos="r" depth="3" NCoef="0" IVar="-1" Cut="0.0000000000000000e+00" cType="1" res="3.9750058203935623e-04" rms="3.5328662395477295e-01" purity="3.4680733084678650e-01" nType="-99"/>
          </Node>
        </Node>
      </Node>
    </BinaryTree>
    <BinaryTree type="DecisionTree" boostWeight="1.0000000000000000e+00" itree="29">
      <Node pos="s" depth="0" NCoef="0" IVar="4" Cut="2.3734936714172363e+00" cType="1" res="6.3511982560157776e-02" rms="3.5302475094795227e-01" purity="5.0015240907669067e-01" nType="0">
        <Node pos="l" depth="1" NCoef="0" IVar="0" Cut="2.2921263122558594e+02" cType="1" res="9.7469218075275421e-02" rms="3.6484697461128235e-01" purity="6.1462742090225220e-01" nType="0">
          <Node pos="l" depth="2" NCoef="0" IVar="0" Cut="1.2823471069335938e+02" cType="1" res="1.2855669856071472e-01" rms="3.8471907377243042e-01" purity="7.4367362260818481e-01" nType="0">
            <Node pos="l" depth="3" NCoef="0" IVar="-1" Cut="0.0000000000000000e+00" cType="1" res="-2.1665627136826515e-02" rms="4.4035837054252625e-01" purity="2.8991624712944031e-01" nType="-99"/>
            <Node pos="r" depth="3" NCoef="0" IVar="-1" Cut="0.0000000000000000e+00" cType="1" res="1.0350753553211689e-02" rms="3.7363606691360474e-01" purity="7.7187788486480713e-01" nType="-99"/>
          </Node>
          <Node pos="r" depth="2" NCoef="0" IVar="2" Cut="1.4495535278320312e+02" cType="1" res="-3.7472471594810486e-02" rms="2.1459782123565674e-01" purity="5.4475620388984680e-02" nType="0">
            <Node pos="l" depth="3" NCoef="0" IVar="-1" Cut="0.0000000000000000e+00" cType="1" res="-4.0147464722394943e-02" rms="1.8887418508529663e-01" purity="3.9761245250701904e-02" nType="-99"/>
