<?xml version="1.0"?>
<MethodSetup Method="MLP::MLP">
  <GeneralInfo>
    <Info name="TMVA Release" value="4.2.1 [262657]"/>
    <Info name="ROOT Release" value="6.10/09 [395785]"/>
    <Info name="Creator" value="cychuang"/>
    <Info name="Date" value="Sat Dec 28 15:14:50 2019"/>
    <Info name="Host" value="Linux cmsbuild49.cern.ch 2.6.32-696.10.2.el6.x86_64 #1 SMP Thu Sep 14 16:35:02 CEST 2017 x86_64 x86_64 x86_64 GNU/Linux"/>
    <Info name="Dir" value="/wk_cms2/cychuang/CMSSW_9_4_2/src/wk_mva"/>
    <Info name="Training events" value="8301402"/>
    <Info name="TrainingTime" value="2.41274879e+05"/>
    <Info name="AnalysisType" value="Classification"/>
  </GeneralInfo>
  <Options>
    <Option name="NCycles" modified="Yes">550</Option>
    <Option name="HiddenLayers" modified="Yes">N,N+5,3</Option>
    <Option name="NeuronType" modified="Yes">sigmoid</Option>
    <Option name="RandomSeed" modified="No">1</Option>
    <Option name="EstimatorType" modified="No">CE</Option>
    <Option name="NeuronInputType" modified="No">sum</Option>
    <Option name="V" modified="Yes">False</Option>
    <Option name="VerbosityLevel" modified="No">Default</Option>
    <Option name="VarTransform" modified="Yes">N</Option>
    <Option name="H" modified="Yes">True</Option>
    <Option name="CreateMVAPdfs" modified="No">False</Option>
    <Option name="IgnoreNegWeightsInTraining" modified="No">False</Option>
    <Option name="TrainingMethod" modified="No">BP</Option>
    <Option name="LearningRate" modified="No">2.000000e-02</Option>
    <Option name="DecayRate" modified="No">1.000000e-02</Option>
    <Option name="TestRate" modified="Yes">5</Option>
    <Option name="EpochMonitoring" modified="No">False</Option>
    <Option name="Sampling" modified="No">1.000000e+00</Option>
    <Option name="SamplingEpoch" modified="No">1.000000e+00</Option>
    <Option name="SamplingImportance" modified="No">1.000000e+00</Option>
    <Option name="SamplingTraining" modified="No">True</Option>
    <Option name="SamplingTesting" modified="No">False</Option>
    <Option name="ResetStep" modified="No">50</Option>
    <Option name="Tau" modified="No">3.000000e+00</Option>
    <Option name="BPMode" modified="No">sequential</Option>
    <Option name="BatchSize" modified="No">-1</Option>
    <Option name="ConvergenceImprove" modified="No">1.000000e-30</Option>
    <Option name="ConvergenceTests" modified="No">-1</Option>
    <Option name="UseRegulator" modified="Yes">False</Option>
    <Option name="UpdateLimit" modified="No">10000</Option>
    <Option name="CalculateErrors" modified="No">False</Option>
    <Option name="WeightRange" modified="No">1.000000e+00</Option>
  </Options>
  <Variables NVar="20">
    <Variable VarIndex="0" Expression="top_mass" Label="top_mass" Title="top_mass" Unit="" Internal="top_mass" Type="D" Min="3.18515205e+01" Max="5.13592920e+03"/>
    <Variable VarIndex="1" Expression="w_mass" Label="w_mass" Title="w_mass" Unit="" Internal="w_mass" Type="D" Min="1.39813118e+01" Max="4.87760791e+03"/>
    <Variable VarIndex="2" Expression="j1j2_sumPt" Label="j1j2_sumPt" Title="j1j2_sumPt" Unit="" Internal="j1j2_sumPt" Type="D" Min="6.00250626e+01" Max="2.69776367e+03"/>
    <Variable VarIndex="3" Expression="j1j2_absdelPt" Label="j1j2_absdelPt" Title="j1j2_absdelPt" Unit="" Internal="j1j2_absdelPt" Type="D" Min="3.81469727e-06" Max="1.55757642e+03"/>
    <Variable VarIndex="4" Expression="j1j2_delR" Label="j1j2_delR" Title="j1j2_delR" Unit="" Internal="j1j2_delR" Type="D" Min="3.47917676e-01" Max="5.68194294e+00"/>
    <Variable VarIndex="5" Expression="whadb_sumPt" Label="whadb_sumPt" Title="whadb_sumPt" Unit="" Internal="whadb_sumPt" Type="D" Min="3.05779667e+01" Max="2.31591675e+03"/>
    <Variable VarIndex="6" Expression="whadb_delPt" Label="whadb_delPt" Title="whadb_delPt" Unit="" Internal="whadb_delPt" Type="D" Min="-1.40435852e+03" Max="1.57610596e+03"/>
    <Variable VarIndex="7" Expression="whadb_delR" Label="whadb_delR" Title="whadb_delR" Unit="" Internal="whadb_delR" Type="D" Min="2.04300601e-03" Max="1.01482573e+01"/>
    <Variable VarIndex="8" Expression="hadblepton_sumPt" Label="hadblepton_sumPt" Title="hadblepton_sumPt" Unit="" Internal="hadblepton_sumPt" Type="D" Min="6.00203705e+01" Max="1.61555945e+03"/>
    <Variable VarIndex="9" Expression="hadblepton_delPt" Label="hadblepton_delPt" Title="hadblepton_delPt" Unit="" Internal="hadblepton_delPt" Type="D" Min="-7.75365601e+02" Max="1.34092505e+03"/>
    <Variable VarIndex="10" Expression="hadblepton_delR" Label="hadblepton_delR" Title="hadblepton_delR" Unit="" Internal="hadblepton_delR" Type="D" Min="5.00000238e-01" Max="5.59625435e+00"/>
    <Variable VarIndex="11" Expression="hadwlepton_sumPt" Label="hadwlepton_sumPt" Title="hadwlepton_sumPt" Unit="" Internal="hadwlepton_sumPt" Type="D" Min="3.04070301e+01" Max="2.22231030e+03"/>
    <Variable VarIndex="12" Expression="hadwlepton_delPt" Label="hadwlepton_delPt" Title="hadwlepton_delPt" Unit="" Internal="hadwlepton_delPt" Type="D" Min="-8.09493469e+02" Max="1.63168323e+03"/>
    <Variable VarIndex="13" Expression="hadwlepton_delR" Label="hadwlepton_delR" Title="hadwlepton_delR" Unit="" Internal="hadwlepton_delR" Type="D" Min="1.47921941e-03" Max="9.75866508e+00"/>
    <Variable VarIndex="14" Expression="hadbmet_delPhi" Label="hadbmet_delPhi" Title="hadbmet_delPhi" Unit="" Internal="hadbmet_delPhi" Type="D" Min="-3.14159060e+00" Max="3.14159250e+00"/>
    <Variable VarIndex="15" Expression="hadbmet_sumPt" Label="hadbmet_sumPt" Title="hadbmet_sumPt" Unit="" Internal="hadbmet_sumPt" Type="D" Min="3.05801754e+01" Max="2.06486572e+03"/>
    <Variable VarIndex="16" Expression="hadbmet_delPt" Label="hadbmet_delPt" Title="hadbmet_delPt" Unit="" Internal="hadbmet_delPt" Type="D" Min="-9.85949219e+02" Max="1.11999048e+03"/>
    <Variable VarIndex="17" Expression="hadwmet_delPhi" Label="hadwmet_delPhi" Title="hadwmet_delPhi" Unit="" Internal="hadwmet_delPhi" Type="D" Min="-3.14159250e+00" Max="3.14159179e+00"/>
    <Variable VarIndex="18" Expression="hadwmet_sumPt" Label="hadwmet_sumPt" Title="hadwmet_sumPt" Unit="" Internal="hadwmet_sumPt" Type="D" Min="6.11416638e-01" Max="2.44966553e+03"/>
    <Variable VarIndex="19" Expression="hadwmet_delPt" Label="hadwmet_delPt" Title="hadwmet_delPt" Unit="" Internal="hadwmet_delPt" Type="D" Min="-9.40587097e+02" Max="1.60644128e+03"/>
  </Variables>
  <Spectators NSpec="0"/>
  <Classes NClass="2">
    <Class Name="Signal" Index="0"/>
    <Class Name="Background" Index="1"/>
  </Classes>
  <Transformations NTransformations="1">
    <Transform Name="Normalize">
      <Selection>
        <Input NInputs="20">
          <Input Type="Variable" Label="top_mass" Expression="top_mass"/>
          <Input Type="Variable" Label="w_mass" Expression="w_mass"/>
          <Input Type="Variable" Label="j1j2_sumPt" Expression="j1j2_sumPt"/>
          <Input Type="Variable" Label="j1j2_absdelPt" Expression="j1j2_absdelPt"/>
          <Input Type="Variable" Label="j1j2_delR" Expression="j1j2_delR"/>
          <Input Type="Variable" Label="whadb_sumPt" Expression="whadb_sumPt"/>
          <Input Type="Variable" Label="whadb_delPt" Expression="whadb_delPt"/>
          <Input Type="Variable" Label="whadb_delR" Expression="whadb_delR"/>
          <Input Type="Variable" Label="hadblepton_sumPt" Expression="hadblepton_sumPt"/>
          <Input Type="Variable" Label="hadblepton_delPt" Expression="hadblepton_delPt"/>
          <Input Type="Variable" Label="hadblepton_delR" Expression="hadblepton_delR"/>
          <Input Type="Variable" Label="hadwlepton_sumPt" Expression="hadwlepton_sumPt"/>
          <Input Type="Variable" Label="hadwlepton_delPt" Expression="hadwlepton_delPt"/>
          <Input Type="Variable" Label="hadwlepton_delR" Expression="hadwlepton_delR"/>
          <Input Type="Variable" Label="hadbmet_delPhi" Expression="hadbmet_delPhi"/>
          <Input Type="Variable" Label="hadbmet_sumPt" Expression="hadbmet_sumPt"/>
          <Input Type="Variable" Label="hadbmet_delPt" Expression="hadbmet_delPt"/>
          <Input Type="Variable" Label="hadwmet_delPhi" Expression="hadwmet_delPhi"/>
          <Input Type="Variable" Label="hadwmet_sumPt" Expression="hadwmet_sumPt"/>
          <Input Type="Variable" Label="hadwmet_delPt" Expression="hadwmet_delPt"/>
        </Input>
        <Output NOutputs="20">
          <Output Type="Variable" Label="top_mass" Expression="top_mass"/>
          <Output Type="Variable" Label="w_mass" Expression="w_mass"/>
          <Output Type="Variable" Label="j1j2_sumPt" Expression="j1j2_sumPt"/>
          <Output Type="Variable" Label="j1j2_absdelPt" Expression="j1j2_absdelPt"/>
          <Output Type="Variable" Label="j1j2_delR" Expression="j1j2_delR"/>
          <Output Type="Variable" Label="whadb_sumPt" Expression="whadb_sumPt"/>
          <Output Type="Variable" Label="whadb_delPt" Expression="whadb_delPt"/>
          <Output Type="Variable" Label="whadb_delR" Expression="whadb_delR"/>
          <Output Type="Variable" Label="hadblepton_sumPt" Expression="hadblepton_sumPt"/>
          <Output Type="Variable" Label="hadblepton_delPt" Expression="hadblepton_delPt"/>
          <Output Type="Variable" Label="hadblepton_delR" Expression="hadblepton_delR"/>
          <Output Type="Variable" Label="hadwlepton_sumPt" Expression="hadwlepton_sumPt"/>
          <Output Type="Variable" Label="hadwlepton_delPt" Expression="hadwlepton_delPt"/>
          <Output Type="Variable" Label="hadwlepton_delR" Expression="hadwlepton_delR"/>
          <Output Type="Variable" Label="hadbmet_delPhi" Expression="hadbmet_delPhi"/>
          <Output Type="Variable" Label="hadbmet_sumPt" Expression="hadbmet_sumPt"/>
          <Output Type="Variable" Label="hadbmet_delPt" Expression="hadbmet_delPt"/>
          <Output Type="Variable" Label="hadwmet_delPhi" Expression="hadwmet_delPhi"/>
          <Output Type="Variable" Label="hadwmet_sumPt" Expression="hadwmet_sumPt"/>
          <Output Type="Variable" Label="hadwmet_delPt" Expression="hadwmet_delPt"/>
        </Output>
      </Selection>
      <Class ClassIndex="0">
        <Ranges>
          <Range Index="0" Min="6.1618576049804688e+01" Max="2.2369262695312500e+03"/>
          <Range Index="1" Min="1.8192983627319336e+01" Max="1.5158634033203125e+03"/>
          <Range Index="2" Min="6.0069396972656250e+01" Max="1.4251539306640625e+03"/>
          <Range Index="3" Min="7.6293945312500000e-06" Max="8.6046844482421875e+02"/>
          <Range Index="4" Min="3.8035356998443604e-01" Max="5.1600871086120605e+00"/>
          <Range Index="5" Min="3.2521144866943359e+01" Max="1.1841677246093750e+03"/>
          <Range Index="6" Min="-9.3576782226562500e+02" Max="8.6229528808593750e+02"/>
          <Range Index="7" Min="3.6677294410765171e-03" Max="7.4629659652709961e+00"/>
          <Range Index="8" Min="6.0020370483398438e+01" Max="1.2718316650390625e+03"/>
          <Range Index="9" Min="-7.5558782958984375e+02" Max="9.3283618164062500e+02"/>
          <Range Index="10" Min="5.0003027915954590e-01" Max="5.5045742988586426e+00"/>
          <Range Index="11" Min="3.1475227355957031e+01" Max="1.2418249511718750e+03"/>
          <Range Index="12" Min="-7.9147210693359375e+02" Max="8.4005249023437500e+02"/>
          <Range Index="13" Min="4.2724497616291046e-03" Max="8.9157600402832031e+00"/>
          <Range Index="14" Min="-3.1415851116180420e+00" Max="3.1415917873382568e+00"/>
          <Range Index="15" Min="3.1041492462158203e+01" Max="1.3743403320312500e+03"/>
          <Range Index="16" Min="-7.5770623779296875e+02" Max="9.1565997314453125e+02"/>
          <Range Index="17" Min="-3.1415905952453613e+00" Max="3.1415917873382568e+00"/>
          <Range Index="18" Min="6.1141663789749146e-01" Max="1.3278613281250000e+03"/>
          <Range Index="19" Min="-6.7825134277343750e+02" Max="7.3459149169921875e+02"/>
        </Ranges>
      </Class>
      <Class ClassIndex="1">
        <Ranges>
          <Range Index="0" Min="3.1851520538330078e+01" Max="5.1359291992187500e+03"/>
          <Range Index="1" Min="1.3981311798095703e+01" Max="4.8776079101562500e+03"/>
          <Range Index="2" Min="6.0025062561035156e+01" Max="2.6977636718750000e+03"/>
          <Range Index="3" Min="3.8146972656250000e-06" Max="1.5575764160156250e+03"/>
          <Range Index="4" Min="3.4791767597198486e-01" Max="5.6819429397583008e+00"/>
          <Range Index="5" Min="3.0577966690063477e+01" Max="2.3159167480468750e+03"/>
          <Range Index="6" Min="-1.4043585205078125e+03" Max="1.5761059570312500e+03"/>
          <Range Index="7" Min="2.0430060103535652e-03" Max="1.0148257255554199e+01"/>
          <Range Index="8" Min="6.0020370483398438e+01" Max="1.6155594482421875e+03"/>
          <Range Index="9" Min="-7.7536560058593750e+02" Max="1.3409250488281250e+03"/>
          <Range Index="10" Min="5.0000023841857910e-01" Max="5.5962543487548828e+00"/>
          <Range Index="11" Min="3.0407030105590820e+01" Max="2.2223103027343750e+03"/>
          <Range Index="12" Min="-8.0949346923828125e+02" Max="1.6316832275390625e+03"/>
          <Range Index="13" Min="1.4792194124311209e-03" Max="9.7586650848388672e+00"/>
          <Range Index="14" Min="-3.1415905952453613e+00" Max="3.1415925025939941e+00"/>
          <Range Index="15" Min="3.0580175399780273e+01" Max="2.0648657226562500e+03"/>
          <Range Index="16" Min="-9.8594921875000000e+02" Max="1.1199904785156250e+03"/>
          <Range Index="17" Min="-3.1415925025939941e+00" Max="3.1415917873382568e+00"/>
          <Range Index="18" Min="1.3394634723663330e+00" Max="2.4496655273437500e+03"/>
          <Range Index="19" Min="-9.4058709716796875e+02" Max="1.6064412841796875e+03"/>
        </Ranges>
      </Class>
      <Class ClassIndex="2">
        <Ranges>
          <Range Index="0" Min="3.1851520538330078e+01" Max="5.1359291992187500e+03"/>
          <Range Index="1" Min="1.3981311798095703e+01" Max="4.8776079101562500e+03"/>
          <Range Index="2" Min="6.0025062561035156e+01" Max="2.6977636718750000e+03"/>
          <Range Index="3" Min="3.8146972656250000e-06" Max="1.5575764160156250e+03"/>
          <Range Index="4" Min="3.4791767597198486e-01" Max="5.6819429397583008e+00"/>
          <Range Index="5" Min="3.0577966690063477e+01" Max="2.3159167480468750e+03"/>
          <Range Index="6" Min="-1.4043585205078125e+03" Max="1.5761059570312500e+03"/>
          <Range Index="7" Min="2.0430060103535652e-03" Max="1.0148257255554199e+01"/>
          <Range Index="8" Min="6.0020370483398438e+01" Max="1.6155594482421875e+03"/>
          <Range Index="9" Min="-7.7536560058593750e+02" Max="1.3409250488281250e+03"/>
          <Range Index="10" Min="5.0000023841857910e-01" Max="5.5962543487548828e+00"/>
          <Range Index="11" Min="3.0407030105590820e+01" Max="2.2223103027343750e+03"/>
          <Range Index="12" Min="-8.0949346923828125e+02" Max="1.6316832275390625e+03"/>
          <Range Index="13" Min="1.4792194124311209e-03" Max="9.7586650848388672e+00"/>
          <Range Index="14" Min="-3.1415905952453613e+00" Max="3.1415925025939941e+00"/>
          <Range Index="15" Min="3.0580175399780273e+01" Max="2.0648657226562500e+03"/>
          <Range Index="16" Min="-9.8594921875000000e+02" Max="1.1199904785156250e+03"/>
          <Range Index="17" Min="-3.1415925025939941e+00" Max="3.1415917873382568e+00"/>
          <Range Index="18" Min="6.1141663789749146e-01" Max="2.4496655273437500e+03"/>
          <Range Index="19" Min="-9.4058709716796875e+02" Max="1.6064412841796875e+03"/>
        </Ranges>
      </Class>
    </Transform>
  </Transformations>
  <MVAPdfs/>
  <Weights>
    <Layout NLayers="5">
      <Layer Index="0" NNeurons="21">
        <Neuron NSynapses="20">
          1.0018350092782319e+01 9.2783641202020576e+01 1.4981781582905480e+00 6.0821685280060329e+00 -2.5725641150590466e+01 1.7995395568936978e+01 5.0911790204743133e+00 2.2420205698201677e+01 -4.9594267277618876e+01 1.8546609619329220e+00 -1.1726542194362024e+01 -9.8410214342208913e-01 5.4284155068125045e+01 -2.8282462176258938e-01 -2.6918706285887051e+01 -1.2113331150505979e+00 3.3074375682525599e+01 4.1070451770366452e+00 1.5456758012674186e+01 -8.9718585779815129e+01 
        </Neuron>
        <Neuron NSynapses="20">
          -9.6614988935035644e+00 -4.3398452719066782e+01 -2.4162194381696157e+01 3.4944852920880352e+00 1.6412158375196068e+01 -1.6095309095861680e+01 7.2597829959511317e+00 4.0998169088494665e+00 7.1379281447156750e-01 3.0884521619720879e+00 1.1187483837667312e+01 1.8018408067411338e+00 -2.8541177487849989e+01 -4.5491850296225093e-02 -1.3877129648922269e+01 5.5697217898326983e+00 2.2319748716138701e+00 2.8284109823517736e+00 -1.4831698571331515e+01 6.1108823078189353e+01 
        </Neuron>
        <Neuron NSynapses="20">
          4.6250510821931838e+00 1.2815359156829818e+01 -1.1727722746596639e+01 -3.2967039743018947e+00 9.3534756409663666e-01 -3.7489164354822535e+01 -3.6013818359874348e+00 -1.2241584864297211e+01 2.0436407158360634e+01 -3.8024149069005269e+00 -4.3723285896134174e-02 4.8553033070090158e-02 -6.5918435394351027e+00 1.4717175563832383e+00 1.3129161227105863e+01 2.0012219090497414e+01 -2.4384167949882652e+01 -1.2569911815395532e+01 6.2417793871331897e+00 2.0944374452347674e+01 
        </Neuron>
        <Neuron NSynapses="20">
          9.1087554704048319e+00 -1.5678428749858059e-02 3.0127028866944908e+01 2.7396889272160732e-02 -3.2308907915150904e+00 2.1753416435845878e+01 -4.2476398995587514e+00 -2.4063248129841694e+00 1.7895258909381933e+01 1.2896526711363767e+00 -1.4219946598490887e+00 -2.8685588615667670e+00 -5.8894667074863605e-01 1.2714750829054564e+00 -5.0321949741448968e-01 -1.1565308925190884e+01 -4.2662390687737526e+00 -1.2024342805994225e+01 -9.1839267002553338e-01 -1.2181499276823683e+01 
        </Neuron>
        <Neuron NSynapses="20">
          2.9575910311341764e+00 1.3917260904044613e+00 5.0395797656643024e+00 -1.2906222010159507e+00 6.2770629714547130e+00 -4.4151656044775791e+00 4.0252109570354766e-01 3.6591005982194980e+00 -3.0716194707916329e+00 -1.1022578949996007e+01 -7.4825862573319812e-01 1.5263912533238633e+00 -5.7961749952867270e-01 -1.3429873394794878e+00 2.9974611779721744e-01 3.6671710367699593e+00 -3.2386423314496349e-01 -7.0964226043563796e+00 -8.8172741988159729e+00 3.4589279258980468e+00 
        </Neuron>
        <Neuron NSynapses="20">
          -5.1504492052930484e+00 1.7910766086679579e+00 -3.6291795388892463e+00 -1.7932438821173843e-02 3.6560949779263505e+00 -1.2943985487105714e+01 -3.0713318322570209e+00 3.3549185907707635e+00 -8.9839559725420148e+00 -2.5434325992530160e-01 -2.2858178716394022e+00 6.2038358099625979e-01 4.3761474793296369e+00 5.7621245652213726e-01 5.8691979769832168e+00 9.1967495641568497e+00 -3.1373894506688940e+00 -8.5775226429497557e+00 3.0359280556730012e-01 3.6056250113732826e+00 
        </Neuron>
        <Neuron NSynapses="20">
          -1.3994306720039968e+00 3.2856909556328104e+00 -3.4651133155534373e+00 1.1521895997637932e+00 7.9966726521125453e-01 -1.1014214111285826e+01 4.1214156463654894e-01 3.9386802930332587e+00 -1.1017394513177228e+01 1.1629047338919507e-01 -7.4497418191547415e-01 -2.6280850530197442e+00 2.5455225416719665e+00 -1.3973630186175867e+00 -7.9608516165969281e+00 4.0416529914462735e+00 5.2851218445418757e+00 -9.3254459160559087e+00 -2.0158781932308822e+00 3.9324925000571720e+00 
        </Neuron>
        <Neuron NSynapses="20">
          3.9714559132621940e+00 -1.2803321423524001e+00 6.3706270742359872e-01 -6.2771997236673203e+00 -1.5271452910545311e+00 -4.2197244770183251e-01 4.9558875240099964e-01 5.5514277692681280e-01 -2.7134427298257935e-01 -6.7600005534444263e-01 -5.5573321336528174e+00 4.7059979419936426e-01 7.0079624387019102e-01 -2.9637288201748418e-01 -8.6345242771849395e-01 2.3595712478327724e+00 2.0983281810251255e+00 1.0780494249131400e+00 5.6227522459608892e+00 -1.1750202207585571e-01 
        </Neuron>
        <Neuron NSynapses="20">
          1.5930426335694587e+00 1.9523791352816795e+00 5.1051899602168560e-01 -2.5617258172246320e+00 4.0580734199785775e+00 -1.7003300814309470e+00 -1.1098385567126661e+00 -6.6796906688308457e+00 -6.4553017222561015e-01 -2.4303774169270201e-01 -1.4706003925774684e+00 3.8648918863367276e+00 1.7130329595909859e+00 1.6323597418098601e+00 1.7942750081017572e+01 -1.7134838964466161e+00 3.2145151847668609e+00 -1.9278214511942032e-01 1.8365308299828962e+00 -9.6674463499606933e-01 
        </Neuron>
        <Neuron NSynapses="20">
          -5.4575386781854158e+00 -1.9800630767275089e+00 1.9713217173596351e+00 -1.6418069758460807e-01 2.5746400912716578e+00 1.4948714988047584e+00 -2.4287592424106124e+00 6.2884881001609649e+00 3.7971550684482422e+00 2.5696065108736632e-01 2.1958575045427189e+00 4.5581464204410005e-01 1.2682095706592875e+00 1.0804529409438617e+00 7.3386503963230885e+00 2.1869061144307169e+00 -1.2917675818753873e+01 4.6090532803818691e+00 2.2208572599402676e+00 -1.5680121420575646e-01 
        </Neuron>
        <Neuron NSynapses="20">
          3.9110478340595611e-01 -3.7380034593979572e-01 1.9107055325240535e-01 -2.5844607155420152e-01 -2.0185021580375070e-01 -1.3496240279899238e-01 -9.9021668951564372e+00 -5.3476673551156584e-01 3.5536409718476036e-01 6.6582418332600840e-02 -2.3580070943215886e-01 2.3884032172910463e+00 1.1768276565754369e-01 -1.0803037285662338e+00 4.8685751386655882e+00 1.0437600344303835e+00 5.5904019099292390e-01 4.9458311389057591e-01 2.1806784506513244e-01 -3.2335311280004875e-01 
        </Neuron>
        <Neuron NSynapses="20">
          -1.7006797752790073e+00 -4.0915466400320417e+00 -2.8509446445497049e+00 -1.1434260948904036e+00 3.0867362251059070e+00 -7.9346352286830548e+00 2.9533643052907186e+00 -2.4747434606714207e+00 -7.8795502423386194e+00 -4.2993206894760022e-01 -6.4061467131932226e-01 8.1887265626960548e-01 1.3620916550166218e+00 -1.0147009973470327e+00 4.6846878353682603e-01 -2.1889111680103381e+00 5.4598271024965097e+00 -3.5315149724200641e+00 -4.0354679240176310e+00 3.0569841147926913e+00 
        </Neuron>
        <Neuron NSynapses="20">
          -5.2124890312560765e+00 -9.9141084246772326e-01 -5.0230306667853242e+00 -8.0317000720834397e-01 3.8770049750731794e-01 -9.8791986044251043e+00 -2.1886434442150571e+00 6.5663916542418708e+00 -5.0383094768384158e+00 -1.0405651423338069e+00 2.2080799938157463e+00 -2.6038883857265533e+00 1.5348605528140269e+00 1.9209389353674946e+00 -2.6431931398811441e+00 4.3656508965391678e+00 -7.0672582592029416e+00 -5.8551411505828987e+00 -2.3004684253802523e+00 2.4731602570751066e+00 
        </Neuron>
        <Neuron NSynapses="20">
          2.1579747488738117e+00 4.1876831005877269e-01 -3.0209310455138144e-01 1.3381940352014494e+00 -8.6837475966655142e-01 2.5871095111416331e-01 -1.7821001236341407e+00 2.6048694755681462e-01 -4.0298629241992828e-01 -6.6592418802275832e-01 9.7845007743776968e-01 -1.0407973002310524e+00 -9.2227909501193206e-01 4.5017202105903881e-01 1.6406398914894316e+00 -1.9495654877677016e+00 -9.2907958431203275e-01 -7.6632177372244037e-01 4.7951171396130104e-01 8.1931615237432684e-02 
        </Neuron>
        <Neuron NSynapses="20">
          1.8836985054496882e-03 1.5743482506498970e-03 -9.4524167280794040e-03 -7.0311911911852376e-02 1.4166786975722323e-02 1.0720953285601048e-02 2.2362473706350984e-03 -6.4026897795484462e-03 7.0495486369202181e-03 1.2485277848478550e-03 8.8224696465991043e-02 -8.5473318720980986e-03 6.1024361863075000e-03 2.3421199475220603e-01 4.3942262587665874e-03 1.1887205984803461e-03 8.6153183975976964e-03 -5.5405931698357860e-03 6.5861023093143614e-03 -4.9142546574241254e-03 
        </Neuron>
        <Neuron NSynapses="20">
          -3.6522580600400043e+00 -2.1971593906144440e+00 1.5088447803867613e+00 -2.4491478129654143e-01 2.8056289710166920e+00 1.0656903852976951e+00 -2.1763286518884173e+00 -2.0149349327797847e+00 1.6919196937443797e+00 8.7084609327847554e-04 6.7210672648837622e-01 -1.1413231589733173e+00 -1.2446524946017099e+00 1.7759338900968129e+00 1.3376064593008548e+01 2.9061000561213340e-01 5.0531299196352588e+00 1.2039205131546282e+00 2.3736003428826313e+00 1.5870142575458026e+00 
        </Neuron>
        <Neuron NSynapses="20">
          -3.0373460209622278e+00 -1.4679466177411113e+00 4.2421071761389517e-01 -2.2552315848077038e+00 3.1026448738726629e+00 1.0161583043794260e+00 -9.0217337003276155e-01 7.6324670168872666e-01 2.3852462001959709e-01 6.2734048993407310e-01 -6.7628039568751352e-01 1.9127519827295145e+00 -4.5466634779506881e-01 -1.7890691352659722e+00 6.3490498688037507e+00 3.7836137301930544e+00 -1.1672165132521560e+01 1.3483410120432104e+00 2.0888642185746527e+00 9.8451250554234371e-01 
        </Neuron>
        <Neuron NSynapses="20">
          -1.1083234860001803e-02 -1.6227158319148813e-02 -2.6452853101899296e-02 -3.8833460993912308e+00 -1.4424277378502893e-02 4.4629083962478951e-02 -3.5013273998538413e-03 -6.2945723620144431e-02 2.2883210918105055e-02 1.2127121741215705e-02 4.1526006135799385e+00 2.4932149998195575e-02 3.7833560118683787e-02 -2.1499195077696509e-01 8.8596712799575220e-03 6.2081423437298507e-02 1.4706693419206499e-02 -2.7163263852775031e-02 8.5294982272621292e-03 -8.5245994301781072e-04 
        </Neuron>
        <Neuron NSynapses="20">
          -1.1398921391218684e+00 -2.6924106505998049e+00 -4.1118398540316816e+00 -1.7417851329152696e+00 2.8020539383861940e+00 -9.4382021315249993e+00 -1.0311014063370596e+00 2.9633606776746744e+00 -7.4437471686474863e+00 -9.2606714179604810e-01 5.7828979432502348e-01 -2.2918433068179267e+00 -4.2042417992040632e-01 1.8004664410415681e+00 9.3753023992212270e-01 2.6677182516472442e+00 6.2049372096439726e+00 -2.5194113561040563e+00 -4.6873582619551002e-01 4.1662615128054439e+00 
        </Neuron>
        <Neuron NSynapses="20">
          -2.9033132970055751e+00 -4.5270497222939037e+00 -2.8514646425171226e+00 3.4382874694868969e-02 2.4917044064731693e+00 -6.6171915403722723e+00 1.2834085616525994e+00 3.1845766770243720e+00 -3.0872346831511610e+00 -1.4848176511243405e+00 3.0306707905497881e+00 7.7673523972497738e-01 -1.4710653707704440e+00 -1.8660309570143702e-01 -6.4768087463072481e+00 2.9550371648785547e+00 -6.9390893707054158e+00 -2.3587415083636789e+00 3.1850611124533834e-01 3.8045619293501067e+00 
        </Neuron>
        <Neuron NSynapses="20">
          5.5451214041134813e+00 5.0973346413426171e+01 -1.5094086189909932e+01 -6.6115562408956672e+00 6.2107421061162187e+00 -5.0784361453889581e+01 -7.5309985857757322e+00 1.2406562683635382e+01 -3.3933805336026829e+01 -1.0011936747950960e+01 -9.3192351372021687e+00 -5.8247481737902973e-01 2.0118168147018210e+01 -1.9951621624546889e+00 9.5617515887481073e+00 2.3931486846648042e+01 1.2366516103723333e+01 -3.4708561005369035e+01 3.1810453140280703e+00 -3.6660303898374504e+00 
        </Neuron>
      </Layer>
      <Layer Index="1" NNeurons="21">
        <Neuron NSynapses="25">
          5.7427534160523730e-01 -2.6982926793945383e-01 5.1389712335404267e+00 8.8032929099999310e-02 -5.0547034782646838e-01 7.8619093126668682e-01 1.0513491512692921e-01 3.0363448630762846e-01 -1.4576705833723038e+00 1.0081052011471112e+00 -5.5752775586097481e-01 -5.8971183691990642e-02 -1.2827632049388196e+00 -2.2283283641219378e+00 2.1426977400916947e-01 2.3755945008746542e+00 1.4072340495584423e-01 -8.1225212930792512e-01 -1.6152867916571882e+00 1.7218045854411350e+00 -7.1041589464908605e-01 -3.0831912691778185e+00 -1.6353257935913992e+00 -5.3151275146153614e+00 -1.3853407141627663e+00 
        </Neuron>
        <Neuron NSynapses="25">
          -2.8981701647156539e+00 -2.3162622264890644e+00 -1.9127781382296356e+00 -7.0420842939096113e+00 -4.7993062175654284e+00 4.1685081436089293e+00 1.1593067024202938e-01 -4.1889410635632078e+00 6.3097864094894947e+00 2.6351442186802907e+00 -5.2707098327883306e-01 -4.6184081891414180e-01 -2.6493639745375313e+00 6.3975198841918379e+00 -6.3060402216691192e-01 2.8503584543964422e-01 1.3046875685734394e+00 8.9286337138602456e-01 2.1247394617612998e+00 6.2271276315496626e-01 4.9176774012273416e-01 1.5938889238619676e+00 -6.6916287859094599e+00 8.3816128773992615e-01 2.5717734061489494e+00 
        </Neuron>
        <Neuron NSynapses="25">
          -3.1207728711541534e+00 2.7119754024937377e+00 2.6988912274496324e-01 4.9412489950293477e+00 2.3524193616724101e+00 -5.8999001414822434e+00 -1.3971157066528632e+00 -2.1680131909942726e+00 1.6504099558121419e+00 4.1554282098862387e+00 9.1456066206354925e-01 -5.2286745323998955e+00 -5.4163472831167889e-02 7.5377286453498549e-01 -4.9857641620263076e+00 3.0581981308380697e+00 8.9210407094870725e-01 -1.3401746137340182e+00 1.1407645254248917e+00 3.6499416516085641e+00 6.1962164629269668e-03 -1.9344772044028038e+00 -4.1204919728003986e-01 -8.9007580147553043e+00 -3.6482669379757922e+00 
        </Neuron>
        <Neuron NSynapses="25">
          -7.1064404919723971e+00 4.3471202709072754e-01 -1.6848056434165795e+00 -6.9959755532639123e-01 5.8242732759368121e-01 -8.6967188802698836e-01 -3.8814493704428077e-02 -8.4482278979712194e-02 -4.1312734398064088e-01 -6.1535644397619438e-01 1.5600637217356435e-02 2.4323468537669260e-01 6.2744826865361591e-01 -1.8635576930674294e-01 -1.7766402463381802e-02 2.2057929599811321e+00 -3.2101037090505413e-01 -3.2396413949148350e-01 1.4652188236562771e+00 -8.3162161628717216e-02 8.5714498590947696e-01 -5.0985610998567923e+00 7.3565861736986615e-01 1.7331224776236327e+00 1.9991496962891144e+00 
        </Neuron>
        <Neuron NSynapses="25">
          -2.1209847320694272e-01 1.4831577319817155e+00 3.3074534836595476e-01 -4.8662420181861343e-01 -3.5582567370023277e-01 2.9799868340757228e-02 1.0023527522113396e+00 1.4950305940371245e+00 1.2973276412256585e+00 -4.6114740648631685e+00 -1.1540785890243361e+00 1.1925909408168844e+00 2.2575793028679629e+00 -4.9008603700464026e-01 6.2910213857016661e-01 -3.4351571502701050e+00 2.1901600250291304e+00 -2.9585034614368605e-01 2.4516801315815511e+00 -2.2409744802261917e+00 3.4663103307244452e+00 8.6938755402864698e-01 2.0885494369271673e+00 1.1024951025991618e+00 -3.0422117330529201e+00 
        </Neuron>
        <Neuron NSynapses="25">
          -1.1577134853195776e+00 4.1455204705560034e+00 -2.2816591597523068e+00 1.9079711537930415e+00 -3.7991784486441305e-01 -6.8008694430818393e+00 -8.4314853885747887e-01 -1.7545894023525195e+00 6.5925623743470185e-01 -7.5213034282944924e-01 -7.6066027410068369e+00 -3.5065099446488350e+00 9.3622859889231713e-01 5.7355591390512544e+00 -7.0819470067544021e-01 7.7476541745445249e-01 -9.1291596130713049e-01 5.0056142553352279e-01 9.4563714309317126e-01 9.5993372113115349e-01 -3.0505946980671435e+00 -5.0172875355430369e-01 -7.6761677560561070e-01 -3.9077301278873661e-01 -6.9603250590698929e-01 
        </Neuron>
        <Neuron NSynapses="25">
          6.0234555411665258e-01 1.7951297817202613e-01 -5.0960753370968295e+00 5.2404384183683772e-01 6.4177152773129897e-01 5.5955709203005626e-02 -2.0337157822345681e-01 2.2510375446652114e-01 1.1135438699699837e-01 3.7113300926399634e-01 -2.4614518095295976e-01 8.3336397308909516e-02 -1.8410864468512182e-03 7.2203515956210329e-01 -1.5974685602176694e-01 2.0731281057703583e+00 2.6604025244538834e+00 -1.8382871763584943e+00 2.7946504993525517e-01 3.3421637196191494e+00 -5.6720522261733386e+00 -9.6745165158701268e-02 -1.9619011659690150e-01 1.0560441345897989e-01 -3.0130793565308296e+00 
        </Neuron>
        <Neuron NSynapses="25">
          -1.2962375241882631e+00 1.3440457755077853e+00 -6.0100108082226846e+00 -7.5594254627281532e-01 -2.4129186437600807e+00 6.6089955092698038e-01 8.8660096347998230e-01 1.4758322557332018e+00 2.3482347335066761e-01 3.8025209524620557e-01 5.8698994147280814e-01 8.6532960676822557e-01 -1.2140062389306012e+00 1.5949809292875441e-02 8.4016521604321159e-01 -1.0137604089897045e+00 -6.4715591981075953e+00 8.9308962668533254e-01 2.5963402643777095e-01 -4.0697840101938345e+00 -6.3018461390298546e+00 -1.8108301720345257e+00 2.5202348023329119e-01 8.6117998553371392e-02 -5.4910943674230177e+00 
        </Neuron>
        <Neuron NSynapses="25">
          -9.0076617598736053e-01 -4.4466796934534019e+00 -4.4159510461016307e+00 -1.6417383595330084e+00 1.8585708794740738e+00 -3.6509341076084039e+00 -4.3231849596148226e+00 2.4572282953222208e-01 -1.3322411112815891e+00 3.9570732208487747e+00 8.7895409373016140e-02 -1.8197179727262776e+00 -1.1119386772408443e-01 -2.5799829469193356e+00 -6.7495251323781194e+00 -4.8793888969034391e+00 5.3559660502247519e-01 -6.2316158712848746e-01 1.2912459102899663e+00 -2.0404433947764478e+00 -2.7562747496903475e+00 1.1135868371397739e+00 -5.2395317036005273e-01 1.1829883451685617e+00 -1.2600760986595174e+00 
        </Neuron>
        <Neuron NSynapses="25">
          -3.7374659335387279e+00 -6.1465287531840740e-01 6.3314876947590981e-01 1.8635463464915074e+00 1.3090105380876984e+00 -1.3632083634966792e+01 -7.8705279006479882e+00 -4.2559791799496400e+00 -3.0418204233783106e+00 1.5168715082610837e+00 -1.2331804084125080e+00 -8.9393768452950262e+00 1.6585139512689511e+00 1.1161695690074924e+00 -5.1718059492343755e+00 1.7891844422838762e-01 7.3447025630112506e-01 -9.8939949840328789e-01 -3.2857346420038693e+00 7.5904030017639434e-01 -8.0263520918034281e+00 -1.8118093963315594e+00 4.3523467167659016e+00 2.7454192089509393e+00 -5.1113708068758734e-01 
        </Neuron>
        <Neuron NSynapses="25">
          -7.0185064277782496e+00 4.6922799677949917e-01 -1.8201523592653830e+00 -6.6047873766744170e-01 5.1621788746257835e-01 -8.6745091227252136e-01 -2.1536465813834556e-02 1.0939167056594735e-02 -3.5017602025423405e-01 -6.8232458353143899e-01 -6.6339906891101114e-02 2.4461577547195443e-01 5.4089569822458539e-01 -3.8141156209972754e-01 4.4371618818726977e-02 2.2239591273597852e+00 -6.2419638484421158e-01 -2.9191866856115939e-01 1.3476501758429886e+00 -1.2762624884969778e-01 4.8095365231899395e-01 -5.6806158977037766e+00 6.5557852898159497e-01 1.6040693823204801e+00 2.0003231585324723e+00 
        </Neuron>
        <Neuron NSynapses="25">
          -3.0198654032588185e-01 -7.2350742529674961e-01 -9.1330085805061545e-01 3.5497557405171265e-01 -2.5898751695226913e-01 4.8647522655101527e-01 8.0775812060867036e-01 6.3159184210661945e-01 -1.8261813061160506e+00 -3.3212531263700984e-01 -9.5112703235248264e-01 4.9235131473866933e-01 -8.1054011403463178e-01 1.5485202994435294e+00 4.1625127768679882e-01 2.1874863076646442e+00 1.3948259753359749e+00 1.7159607304499919e-01 6.0082604076736790e-01 -3.5893179156568653e+00 1.0484390515820032e+00 -2.9303883754628424e-01 6.0643277413614124e-02 1.7961747533643551e+00 6.4374221799335218e-01 
        </Neuron>
        <Neuron NSynapses="25">
          4.0789938651360265e+00 1.5543069161801233e+00 4.0076511476837745e-01 -3.4207418558125275e+00 -1.1738336407980372e+00 1.7852406112541337e+00 -1.7448106526247806e+00 -6.3217461479956292e+00 3.1068734753279545e+00 3.8672401960294192e+00 -3.2945429460041415e+00 -5.7496195309328657e+00 -5.2802671185222616e+00 7.1286863892707553e-01 -4.1840334050100463e+00 -1.1171560360855888e+00 7.1728530193118778e-01 -1.8047028651726236e+00 -5.4262823391634845e+00 -8.1974604576087073e-01 1.9659815394717588e+00 -3.0942053331024746e+00 -7.8771343732754957e+00 -1.0791211682901372e+00 1.3464718400341152e-01 
        </Neuron>
        <Neuron NSynapses="25">
          2.0353358620131634e-01 9.9704111148088592e-01 1.6608239448027911e+00 -1.9387990858127608e+00 -7.4923963253909032e-01 -5.2094236977916641e-01 9.1682545257040793e-01 1.5163876487339742e+00 1.2292360009803853e+00 9.7579561851183916e-01 -1.3955446292226795e-01 6.9579587722981118e-01 -1.0483912395921662e-01 -1.1908598631710843e+00 1.3092520940113972e+00 -1.8438912756473227e-01 1.9612489507944114e-01 3.3110302499663913e-01 -9.4144604164691803e-01 1.8867589845375068e+00 -1.0943963766348604e-01 -1.2457521836459713e+00 -8.7555167827808411e-01 -9.2745400091121688e-01 -9.9883553294718352e-01 
        </Neuron>
        <Neuron NSynapses="25">
          -7.0068033873170699e-01 3.5564931689103657e-01 5.6726496606337138e+00 2.9757572655704109e-02 -1.9392344046955115e-01 4.4260770437431152e-01 -4.2556421291107210e-01 2.9291864475835389e-01 1.5348470249852877e-01 6.7644692877219681e-01 2.2856204959507243e-01 5.5694442321627657e-01 6.3503257104524824e-01 9.4149084994695165e-01 -3.3168295354871546e-01 -6.5910321232719143e-02 -6.0839961524935593e-01 -5.7360374030650674e-01 1.1430545530013412e+00 -7.2923478251617500e+00 2.6922948691172408e+00 3.6310511053341910e-01 4.9267098072040078e-01 7.9074988674495317e-01 3.2683274356284149e+00 
        </Neuron>
        <Neuron NSynapses="25">
          1.8043061611566065e+00 -5.3764656599644045e-01 3.7064457240826316e-03 -1.7723776565455369e+00 -5.8609708384160797e+00 3.3725866029238452e+00 1.1013373542647074e+00 -5.9858986551834226e-01 9.7750202820008247e-01 -1.2301527387943232e+00 6.9088647296870642e-01 1.7202032397036298e+00 -2.5669381570112841e-03 -2.0375191359363747e+00 1.4636026956216337e+00 -2.4955892107836131e+00 -2.0538984960188666e+00 -2.7955825630627937e+00 -1.8415112278895818e+00 -2.5072311908848594e-01 9.7919696935564449e-01 -6.6473846554442009e+00 -2.9660047744723711e-01 -7.9458944047984126e-01 -8.3062910532937373e-01 
        </Neuron>
        <Neuron NSynapses="25">
          6.7411243212010208e-01 6.9931120244473588e-01 -2.2852646279063071e+00 -1.5820372082019373e-02 1.2897602026847588e+00 1.7703732993553592e-01 5.9447181691945050e-01 2.1209368672822879e-01 -4.8098599393030883e-01 4.7272480450821754e-02 -3.7949081690656659e+00 -8.1676514738169628e-02 -1.3403399999554400e+00 6.6183262344609070e-02 8.6682473629086640e-02 -2.1741321909989324e+00 2.7531932596480169e+00 3.5086018116783926e+00 -6.3962661413745880e-01 -1.8658293785249929e+00 1.6139256467049727e+00 2.5745354476767228e+00 -1.3656426727641140e+00 1.2640300858132925e+00 5.7081894257497379e-01 
        </Neuron>
        <Neuron NSynapses="25">
          -1.9635687041570413e+00 2.0024182411213918e+00 7.7037392110257297e-01 3.9660896608146738e+00 -1.8516432847951827e+00 -6.1612378941314612e+00 -7.7449444503477816e+00 -1.5766853125518615e-01 -7.0380443249442226e-01 -8.5035203781000990e-01 -1.8856232509016508e+00 -3.5095225170523290e+00 1.3481295898038823e-01 2.1846696525479978e+00 1.9789182351605974e+00 -2.6291595897325826e-01 -8.4900899220904613e-01 -1.1021847765665141e-01 1.4734392561427594e+00 -4.9503196604042443e-01 -3.1650458494728873e+00 -1.4845024874755401e+00 -8.9205211611578383e-01 -1.1765927855627658e+00 -2.1310385590189531e+00 
        </Neuron>
        <Neuron NSynapses="25">
          -2.3788287274224942e+00 -9.2192422147632180e-01 1.5225240721362339e+00 -6.7831495106479167e-01 -4.0475788024030313e-01 -2.8577763152015390e+00 -7.1399035444760361e+00 -7.5945532563183027e-01 1.3471015723850572e+00 1.8787862423770911e+00 1.1296376095365050e+00 -2.0112081360275966e+00 -5.2394067154094666e+00 4.2213510017451910e+00 -2.6002528717317883e+00 -2.5959103592477883e-01 -2.0268567471376158e+00 4.4494228679925174e-01 -2.4311212835333884e+00 -1.1113966325555960e+00 -5.7449410387678979e-01 1.4487151590506870e+00 -1.7743705825989033e+00 -2.7823528490094640e+00 -1.7732561930845352e+00 
        </Neuron>
        <Neuron NSynapses="25">
          2.1567238861211573e+00 -7.7103332353720431e+00 -1.0564088030854757e+00 1.7842951098701363e+00 -3.4001647351918711e+00 1.7035381356436790e+00 2.9088510224707562e+00 5.1740106426787325e+00 -9.3415659902352992e+00 3.4766910800153830e+00 -1.5873254100711651e-01 3.2042130037283805e+00 2.1838534243051804e+00 -2.5073052657613313e+00 4.8212124222812891e+00 6.3969230597061000e-01 -1.0381138001222743e+00 1.7299444853027393e+00 -2.9361538840296837e+00 6.3048753914675598e-02 -1.3186959936003970e+00 2.8699031878002592e+00 -4.5289692841661511e-01 -1.0499867962600409e+00 1.6559099159673787e+00 
        </Neuron>
        <Neuron NSynapses="25">
          -1.0526038828889526e+00 -5.3642608102365930e-01 -1.7911147435525496e+00 -3.2779311762776788e+00 4.1580167211895430e-01 -3.5053736107573972e+00 -3.5903251612658043e+00 1.9390015497559985e+00 -2.9418727149567641e+00 -8.5638322015145185e+00 -8.5848103851353816e-02 -2.1808025716734729e+00 1.0412946954199880e-02 -5.1356317447204631e+00 -3.7019016124380704e+00 -1.6782391109473254e+00 -6.5751288728735979e-01 -2.8736319128960814e+00 -3.6642170681906494e+00 -1.3339662488632622e+00 4.4317250791702573e-01 -1.2271559248440391e+00 4.6258676318797060e-01 -1.1885525255126397e+00 -3.4094290834386998e+00 
        </Neuron>
      </Layer>
      <Layer Index="2" NNeurons="26">
        <Neuron NSynapses="3">
          -2.8147456412067262e+00 3.3377359220174632e+00 3.4231955501128658e-01 
        </Neuron>
        <Neuron NSynapses="3">
          -1.7197729244833382e+00 5.6572797481214581e+00 1.1688182342915794e+00 
        </Neuron>
        <Neuron NSynapses="3">
          8.1731584343336972e-01 -6.0421477216804953e-01 -8.0719168385253948e-01 
        </Neuron>
        <Neuron NSynapses="3">
          -3.1325767932669910e+00 3.6145001882799765e+00 1.2415935629989345e+00 
        </Neuron>
        <Neuron NSynapses="3">
          -1.3961363838002372e+00 6.6511098985068662e+00 3.2302334831854420e+00 
        </Neuron>
        <Neuron NSynapses="3">
          -1.0096650743188811e+00 2.8452102808604658e+00 1.5781863914692531e+00 
        </Neuron>
        <Neuron NSynapses="3">
          -5.6856715902172228e+00 3.6118059409992456e+00 4.3479104336616103e+00 
        </Neuron>
        <Neuron NSynapses="3">
          1.4853123902020338e+00 -1.6238234915056846e+00 7.4906349935250505e-01 
        </Neuron>
        <Neuron NSynapses="3">
          -6.1901738567341880e-01 1.5514559280419009e+00 1.2201416549208366e+00 
        </Neuron>
        <Neuron NSynapses="3">
          -1.7095222635727434e+00 2.0774218270547800e+00 2.9969827989421089e+00 
        </Neuron>
        <Neuron NSynapses="3">
          3.2635248891118249e+00 -1.9422590201638450e+00 -4.5313403944311883e+00 
        </Neuron>
        <Neuron NSynapses="3">
          -3.1177318604340378e+00 5.2383707691691752e+00 2.0447623723730587e-01 
        </Neuron>
        <Neuron NSynapses="3">
          -1.1271669500917156e+00 7.3405571015042526e-01 3.3234901814236424e+00 
        </Neuron>
        <Neuron NSynapses="3">
          -2.4127404240663289e-01 5.6168469630659712e-01 2.3085957340106567e+00 
        </Neuron>
        <Neuron NSynapses="3">
          2.7721992773040882e+00 -1.7436583860480315e+00 -2.1879473818321058e+00 
        </Neuron>
        <Neuron NSynapses="3">
          -1.5238595758990607e+00 6.0245380321646091e-01 1.6474024922981254e+00 
        </Neuron>
        <Neuron NSynapses="3">
          -9.3570166225884288e-01 4.5217552846026915e-01 1.1960074284020805e+00 
        </Neuron>
        <Neuron NSynapses="3">
          -2.8242802609640498e+00 1.7961348857868316e+00 2.4130243689285589e+00 
        </Neuron>
        <Neuron NSynapses="3">
          4.2414731047145104e-02 -1.6029148906336570e+00 -2.4726429636802587e+00 
        </Neuron>
        <Neuron NSynapses="3">
          2.6960438592717715e+00 -1.5379247606660336e+00 -3.6241218599727856e+00 
        </Neuron>
        <Neuron NSynapses="3">
          8.3935739081615779e-01 -3.1443663021122786e-01 -9.9523197536122254e-01 
        </Neuron>
        <Neuron NSynapses="3">
          2.4748677764827347e+00 -9.4729228399118226e-01 -1.7159079160459056e+00 
        </Neuron>
        <Neuron NSynapses="3">
          -3.0126964965405780e+00 2.6312613004714751e+00 1.8202330404652025e+00 
        </Neuron>
        <Neuron NSynapses="3">
          1.1921030814303890e+00 -4.2607971902901715e-01 -1.0113778569446370e+00 
        </Neuron>
        <Neuron NSynapses="3">
          7.2759563482629763e-01 -8.0138587893430102e-01 -8.6126283249192870e-01 
        </Neuron>
        <Neuron NSynapses="3">
          1.1454854874550977e-01 2.0380309386813589e+00 -4.8798691237895069e+00 
        </Neuron>
      </Layer>
      <Layer Index="3" NNeurons="4">
        <Neuron NSynapses="1">
          3.5934375863286911e+00 
        </Neuron>
        <Neuron NSynapses="1">
          -7.2593743160186675e+00 
        </Neuron>
        <Neuron NSynapses="1">
          -6.2056369455250087e+00 
        </Neuron>
        <Neuron NSynapses="1">
          4.9554271030275636e+00 
        </Neuron>
      </Layer>
      <Layer Index="4" NNeurons="1">
        <Neuron NSynapses="0"/>
      </Layer>
    </Layout>
  </Weights>
</MethodSetup>
