<?xml version="1.0"?>
<MethodSetup Method="MLP::MLP">
  <GeneralInfo>
    <Info name="TMVA Release" value="4.2.1 [262657]"/>
    <Info name="ROOT Release" value="6.10/09 [395785]"/>
    <Info name="Creator" value="cychuang"/>
    <Info name="Date" value="Tue Jan  7 15:46:28 2020"/>
    <Info name="Host" value="Linux cmsbuild49.cern.ch 2.6.32-696.10.2.el6.x86_64 #1 SMP Thu Sep 14 16:35:02 CEST 2017 x86_64 x86_64 x86_64 GNU/Linux"/>
    <Info name="Dir" value="/wk_cms2/cychuang/CMSSW_9_4_2/src/wk_mva"/>
    <Info name="Training events" value="2617521"/>
    <Info name="TrainingTime" value="7.14607562e+04"/>
    <Info name="AnalysisType" value="Classification"/>
  </GeneralInfo>
  <Options>
    <Option name="NCycles" modified="Yes">550</Option>
    <Option name="HiddenLayers" modified="Yes">N,N+5,3</Option>
    <Option name="NeuronType" modified="Yes">sigmoid</Option>
    <Option name="RandomSeed" modified="No">1</Option>
    <Option name="EstimatorType" modified="No">CE</Option>
    <Option name="NeuronInputType" modified="No">sum</Option>
    <Option name="V" modified="Yes">False</Option>
    <Option name="VerbosityLevel" modified="No">Default</Option>
    <Option name="VarTransform" modified="Yes">N</Option>
    <Option name="H" modified="Yes">True</Option>
    <Option name="CreateMVAPdfs" modified="No">False</Option>
    <Option name="IgnoreNegWeightsInTraining" modified="No">False</Option>
    <Option name="TrainingMethod" modified="No">BP</Option>
    <Option name="LearningRate" modified="No">2.000000e-02</Option>
    <Option name="DecayRate" modified="No">1.000000e-02</Option>
    <Option name="TestRate" modified="Yes">5</Option>
    <Option name="EpochMonitoring" modified="No">False</Option>
    <Option name="Sampling" modified="No">1.000000e+00</Option>
    <Option name="SamplingEpoch" modified="No">1.000000e+00</Option>
    <Option name="SamplingImportance" modified="No">1.000000e+00</Option>
    <Option name="SamplingTraining" modified="No">True</Option>
    <Option name="SamplingTesting" modified="No">False</Option>
    <Option name="ResetStep" modified="No">50</Option>
    <Option name="Tau" modified="No">3.000000e+00</Option>
    <Option name="BPMode" modified="No">sequential</Option>
    <Option name="BatchSize" modified="No">-1</Option>
    <Option name="ConvergenceImprove" modified="No">1.000000e-30</Option>
    <Option name="ConvergenceTests" modified="No">-1</Option>
    <Option name="UseRegulator" modified="Yes">False</Option>
    <Option name="UpdateLimit" modified="No">10000</Option>
    <Option name="CalculateErrors" modified="No">False</Option>
    <Option name="WeightRange" modified="No">1.000000e+00</Option>
  </Options>
  <Variables NVar="20">
    <Variable VarIndex="0" Expression="top_mass" Label="top_mass" Title="top_mass" Unit="" Internal="top_mass" Type="D" Min="3.57156525e+01" Max="5.13592920e+03"/>
    <Variable VarIndex="1" Expression="w_mass" Label="w_mass" Title="w_mass" Unit="" Internal="w_mass" Type="D" Min="1.56709528e+01" Max="4.32185889e+03"/>
    <Variable VarIndex="2" Expression="j1j2_sumPt" Label="j1j2_sumPt" Title="j1j2_sumPt" Unit="" Internal="j1j2_sumPt" Type="D" Min="6.00363312e+01" Max="2.69776367e+03"/>
    <Variable VarIndex="3" Expression="j1j2_absdelPt" Label="j1j2_absdelPt" Title="j1j2_absdelPt" Unit="" Internal="j1j2_absdelPt" Type="D" Min="1.52587891e-05" Max="1.55757642e+03"/>
    <Variable VarIndex="4" Expression="j1j2_delR" Label="j1j2_delR" Title="j1j2_delR" Unit="" Internal="j1j2_delR" Type="D" Min="3.72943521e-01" Max="5.66675138e+00"/>
    <Variable VarIndex="5" Expression="whadb_sumPt" Label="whadb_sumPt" Title="whadb_sumPt" Unit="" Internal="whadb_sumPt" Type="D" Min="3.06295624e+01" Max="2.55947729e+03"/>
    <Variable VarIndex="6" Expression="whadb_delPt" Label="whadb_delPt" Title="whadb_delPt" Unit="" Internal="whadb_delPt" Type="D" Min="-1.01059930e+03" Max="1.39872266e+03"/>
    <Variable VarIndex="7" Expression="whadb_delR" Label="whadb_delR" Title="whadb_delR" Unit="" Internal="whadb_delR" Type="D" Min="5.73204737e-03" Max="8.96139145e+00"/>
    <Variable VarIndex="8" Expression="hadblepton_sumPt" Label="hadblepton_sumPt" Title="hadblepton_sumPt" Unit="" Internal="hadblepton_sumPt" Type="D" Min="6.00203705e+01" Max="1.43119653e+03"/>
    <Variable VarIndex="9" Expression="hadblepton_delPt" Label="hadblepton_delPt" Title="hadblepton_delPt" Unit="" Internal="hadblepton_delPt" Type="D" Min="-7.73499451e+02" Max="1.06076465e+03"/>
    <Variable VarIndex="10" Expression="hadblepton_delR" Label="hadblepton_delR" Title="hadblepton_delR" Unit="" Internal="hadblepton_delR" Type="D" Min="5.00000238e-01" Max="5.58469629e+00"/>
    <Variable VarIndex="11" Expression="hadwlepton_sumPt" Label="hadwlepton_sumPt" Title="hadwlepton_sumPt" Unit="" Internal="hadwlepton_sumPt" Type="D" Min="3.10787239e+01" Max="1.93583289e+03"/>
    <Variable VarIndex="12" Expression="hadwlepton_delPt" Label="hadwlepton_delPt" Title="hadwlepton_delPt" Unit="" Internal="hadwlepton_delPt" Type="D" Min="-8.09493469e+02" Max="1.49868909e+03"/>
    <Variable VarIndex="13" Expression="hadwlepton_delR" Label="hadwlepton_delR" Title="hadwlepton_delR" Unit="" Internal="hadwlepton_delR" Type="D" Min="7.12582096e-03" Max="9.17821789e+00"/>
    <Variable VarIndex="14" Expression="hadbmet_delPhi" Label="hadbmet_delPhi" Title="hadbmet_delPhi" Unit="" Internal="hadbmet_delPhi" Type="D" Min="-3.14158225e+00" Max="3.14159250e+00"/>
    <Variable VarIndex="15" Expression="hadbmet_sumPt" Label="hadbmet_sumPt" Title="hadbmet_sumPt" Unit="" Internal="hadbmet_sumPt" Type="D" Min="3.12111607e+01" Max="1.38604565e+03"/>
    <Variable VarIndex="16" Expression="hadbmet_delPt" Label="hadbmet_delPt" Title="hadbmet_delPt" Unit="" Internal="hadbmet_delPt" Type="D" Min="-8.59980835e+02" Max="1.05097571e+03"/>
    <Variable VarIndex="17" Expression="hadwmet_delPhi" Label="hadwmet_delPhi" Title="hadwmet_delPhi" Unit="" Internal="hadwmet_delPhi" Type="D" Min="-3.14158702e+00" Max="3.14159179e+00"/>
    <Variable VarIndex="18" Expression="hadwmet_sumPt" Label="hadwmet_sumPt" Title="hadwmet_sumPt" Unit="" Internal="hadwmet_sumPt" Type="D" Min="6.11416638e-01" Max="2.02260779e+03"/>
    <Variable VarIndex="19" Expression="hadwmet_delPt" Label="hadwmet_delPt" Title="hadwmet_delPt" Unit="" Internal="hadwmet_delPt" Type="D" Min="-8.63287109e+02" Max="1.52675208e+03"/>
  </Variables>
  <Spectators NSpec="0"/>
  <Classes NClass="2">
    <Class Name="Signal" Index="0"/>
    <Class Name="Background" Index="1"/>
  </Classes>
  <Transformations NTransformations="1">
    <Transform Name="Normalize">
      <Selection>
        <Input NInputs="20">
          <Input Type="Variable" Label="top_mass" Expression="top_mass"/>
          <Input Type="Variable" Label="w_mass" Expression="w_mass"/>
          <Input Type="Variable" Label="j1j2_sumPt" Expression="j1j2_sumPt"/>
          <Input Type="Variable" Label="j1j2_absdelPt" Expression="j1j2_absdelPt"/>
          <Input Type="Variable" Label="j1j2_delR" Expression="j1j2_delR"/>
          <Input Type="Variable" Label="whadb_sumPt" Expression="whadb_sumPt"/>
          <Input Type="Variable" Label="whadb_delPt" Expression="whadb_delPt"/>
          <Input Type="Variable" Label="whadb_delR" Expression="whadb_delR"/>
          <Input Type="Variable" Label="hadblepton_sumPt" Expression="hadblepton_sumPt"/>
          <Input Type="Variable" Label="hadblepton_delPt" Expression="hadblepton_delPt"/>
          <Input Type="Variable" Label="hadblepton_delR" Expression="hadblepton_delR"/>
          <Input Type="Variable" Label="hadwlepton_sumPt" Expression="hadwlepton_sumPt"/>
          <Input Type="Variable" Label="hadwlepton_delPt" Expression="hadwlepton_delPt"/>
          <Input Type="Variable" Label="hadwlepton_delR" Expression="hadwlepton_delR"/>
          <Input Type="Variable" Label="hadbmet_delPhi" Expression="hadbmet_delPhi"/>
          <Input Type="Variable" Label="hadbmet_sumPt" Expression="hadbmet_sumPt"/>
          <Input Type="Variable" Label="hadbmet_delPt" Expression="hadbmet_delPt"/>
          <Input Type="Variable" Label="hadwmet_delPhi" Expression="hadwmet_delPhi"/>
          <Input Type="Variable" Label="hadwmet_sumPt" Expression="hadwmet_sumPt"/>
          <Input Type="Variable" Label="hadwmet_delPt" Expression="hadwmet_delPt"/>
        </Input>
        <Output NOutputs="20">
          <Output Type="Variable" Label="top_mass" Expression="top_mass"/>
          <Output Type="Variable" Label="w_mass" Expression="w_mass"/>
          <Output Type="Variable" Label="j1j2_sumPt" Expression="j1j2_sumPt"/>
          <Output Type="Variable" Label="j1j2_absdelPt" Expression="j1j2_absdelPt"/>
          <Output Type="Variable" Label="j1j2_delR" Expression="j1j2_delR"/>
          <Output Type="Variable" Label="whadb_sumPt" Expression="whadb_sumPt"/>
          <Output Type="Variable" Label="whadb_delPt" Expression="whadb_delPt"/>
          <Output Type="Variable" Label="whadb_delR" Expression="whadb_delR"/>
          <Output Type="Variable" Label="hadblepton_sumPt" Expression="hadblepton_sumPt"/>
          <Output Type="Variable" Label="hadblepton_delPt" Expression="hadblepton_delPt"/>
          <Output Type="Variable" Label="hadblepton_delR" Expression="hadblepton_delR"/>
          <Output Type="Variable" Label="hadwlepton_sumPt" Expression="hadwlepton_sumPt"/>
          <Output Type="Variable" Label="hadwlepton_delPt" Expression="hadwlepton_delPt"/>
          <Output Type="Variable" Label="hadwlepton_delR" Expression="hadwlepton_delR"/>
          <Output Type="Variable" Label="hadbmet_delPhi" Expression="hadbmet_delPhi"/>
          <Output Type="Variable" Label="hadbmet_sumPt" Expression="hadbmet_sumPt"/>
          <Output Type="Variable" Label="hadbmet_delPt" Expression="hadbmet_delPt"/>
          <Output Type="Variable" Label="hadwmet_delPhi" Expression="hadwmet_delPhi"/>
          <Output Type="Variable" Label="hadwmet_sumPt" Expression="hadwmet_sumPt"/>
          <Output Type="Variable" Label="hadwmet_delPt" Expression="hadwmet_delPt"/>
        </Output>
      </Selection>
      <Class ClassIndex="0">
        <Ranges>
          <Range Index="0" Min="6.1618576049804688e+01" Max="1.3631823730468750e+03"/>
          <Range Index="1" Min="1.8228761672973633e+01" Max="1.2406948242187500e+03"/>
          <Range Index="2" Min="6.0069396972656250e+01" Max="1.4251539306640625e+03"/>
          <Range Index="3" Min="6.8664550781250000e-05" Max="7.4369824218750000e+02"/>
          <Range Index="4" Min="3.9594838023185730e-01" Max="4.9834489822387695e+00"/>
          <Range Index="5" Min="3.2600418090820312e+01" Max="1.0907436523437500e+03"/>
          <Range Index="6" Min="-5.6719079589843750e+02" Max="7.3029089355468750e+02"/>
          <Range Index="7" Min="1.1967123486101627e-02" Max="7.3150029182434082e+00"/>
          <Range Index="8" Min="6.0020370483398438e+01" Max="1.2718316650390625e+03"/>
          <Range Index="9" Min="-7.5558782958984375e+02" Max="6.7466369628906250e+02"/>
          <Range Index="10" Min="5.0005537271499634e-01" Max="5.4099483489990234e+00"/>
          <Range Index="11" Min="3.1344997406005859e+01" Max="1.3436087646484375e+03"/>
          <Range Index="12" Min="-7.9147210693359375e+02" Max="7.2886480712890625e+02"/>
          <Range Index="13" Min="8.4324311465024948e-03" Max="8.6959486007690430e+00"/>
          <Range Index="14" Min="-3.1415762901306152e+00" Max="3.1415798664093018e+00"/>
          <Range Index="15" Min="3.1211160659790039e+01" Max="1.1981230468750000e+03"/>
          <Range Index="16" Min="-6.9530206298828125e+02" Max="7.2229187011718750e+02"/>
          <Range Index="17" Min="-3.1415734291076660e+00" Max="3.1415915489196777e+00"/>
          <Range Index="18" Min="6.1141663789749146e-01" Max="1.3278613281250000e+03"/>
          <Range Index="19" Min="-6.4786334228515625e+02" Max="6.7902893066406250e+02"/>
        </Ranges>
      </Class>
      <Class ClassIndex="1">
        <Ranges>
          <Range Index="0" Min="3.5715652465820312e+01" Max="5.1359291992187500e+03"/>
          <Range Index="1" Min="1.5670952796936035e+01" Max="4.3218588867187500e+03"/>
          <Range Index="2" Min="6.0036331176757812e+01" Max="2.6977636718750000e+03"/>
          <Range Index="3" Min="1.5258789062500000e-05" Max="1.5575764160156250e+03"/>
          <Range Index="4" Min="3.7294352054595947e-01" Max="5.6667513847351074e+00"/>
          <Range Index="5" Min="3.0629562377929688e+01" Max="2.5594772949218750e+03"/>
          <Range Index="6" Min="-1.0105993041992188e+03" Max="1.3987226562500000e+03"/>
          <Range Index="7" Min="5.7320473715662956e-03" Max="8.9613914489746094e+00"/>
          <Range Index="8" Min="6.0020370483398438e+01" Max="1.4311965332031250e+03"/>
          <Range Index="9" Min="-7.7349945068359375e+02" Max="1.0607646484375000e+03"/>
          <Range Index="10" Min="5.0000023841857910e-01" Max="5.5846962928771973e+00"/>
          <Range Index="11" Min="3.1078723907470703e+01" Max="1.9358328857421875e+03"/>
          <Range Index="12" Min="-8.0949346923828125e+02" Max="1.4986890869140625e+03"/>
          <Range Index="13" Min="7.1258209645748138e-03" Max="9.1782178878784180e+00"/>
          <Range Index="14" Min="-3.1415822505950928e+00" Max="3.1415925025939941e+00"/>
          <Range Index="15" Min="3.1473354339599609e+01" Max="1.3860456542968750e+03"/>
          <Range Index="16" Min="-8.5998083496093750e+02" Max="1.0509757080078125e+03"/>
          <Range Index="17" Min="-3.1415870189666748e+00" Max="3.1415917873382568e+00"/>
          <Range Index="18" Min="6.1141663789749146e-01" Max="2.0226077880859375e+03"/>
          <Range Index="19" Min="-8.6328710937500000e+02" Max="1.5267520751953125e+03"/>
        </Ranges>
      </Class>
      <Class ClassIndex="2">
        <Ranges>
          <Range Index="0" Min="3.5715652465820312e+01" Max="5.1359291992187500e+03"/>
          <Range Index="1" Min="1.5670952796936035e+01" Max="4.3218588867187500e+03"/>
          <Range Index="2" Min="6.0036331176757812e+01" Max="2.6977636718750000e+03"/>
          <Range Index="3" Min="1.5258789062500000e-05" Max="1.5575764160156250e+03"/>
          <Range Index="4" Min="3.7294352054595947e-01" Max="5.6667513847351074e+00"/>
          <Range Index="5" Min="3.0629562377929688e+01" Max="2.5594772949218750e+03"/>
          <Range Index="6" Min="-1.0105993041992188e+03" Max="1.3987226562500000e+03"/>
          <Range Index="7" Min="5.7320473715662956e-03" Max="8.9613914489746094e+00"/>
          <Range Index="8" Min="6.0020370483398438e+01" Max="1.4311965332031250e+03"/>
          <Range Index="9" Min="-7.7349945068359375e+02" Max="1.0607646484375000e+03"/>
          <Range Index="10" Min="5.0000023841857910e-01" Max="5.5846962928771973e+00"/>
          <Range Index="11" Min="3.1078723907470703e+01" Max="1.9358328857421875e+03"/>
          <Range Index="12" Min="-8.0949346923828125e+02" Max="1.4986890869140625e+03"/>
          <Range Index="13" Min="7.1258209645748138e-03" Max="9.1782178878784180e+00"/>
          <Range Index="14" Min="-3.1415822505950928e+00" Max="3.1415925025939941e+00"/>
          <Range Index="15" Min="3.1211160659790039e+01" Max="1.3860456542968750e+03"/>
          <Range Index="16" Min="-8.5998083496093750e+02" Max="1.0509757080078125e+03"/>
          <Range Index="17" Min="-3.1415870189666748e+00" Max="3.1415917873382568e+00"/>
          <Range Index="18" Min="6.1141663789749146e-01" Max="2.0226077880859375e+03"/>
          <Range Index="19" Min="-8.6328710937500000e+02" Max="1.5267520751953125e+03"/>
        </Ranges>
      </Class>
    </Transform>
  </Transformations>
  <MVAPdfs/>
  <Weights>
    <Layout NLayers="5">
      <Layer Index="0" NNeurons="21">
        <Neuron NSynapses="20">
          1.4899109809909557e+01 4.7200770608546613e+01 1.1800799260509507e+01 4.6680506971095070e+00 -2.0264877778641871e+01 -2.1553369196105501e+00 8.3800636254806697e+00 2.0465857142083292e+00 -3.3502053750435344e+01 -6.3713232273433142e+00 -1.3594619976928925e+01 -1.0133354137411430e+01 4.9683606867436545e+00 -4.5383817010734384e-01 -1.6144491684897783e+01 -5.5643078866471960e+00 8.2328217067771249e+01 -7.0675870594414389e+00 4.8335026529241096e+00 -3.0913229161596458e+01 
        </Neuron>
        <Neuron NSynapses="20">
          3.5656248514095652e+00 -1.7560513418151373e+01 -1.2541521509412819e+01 1.2863752462022766e+00 8.8999260986063504e+00 -6.3048821457495130e+00 3.6267391789645433e+00 -6.4219998758034191e-01 -4.7999174068063954e+00 8.0374672041796682e+00 1.0510574045344118e+01 9.4012289930152608e+00 -6.1280658550962990e+00 -6.7140395289555355e-01 -7.2109115826079693e+00 8.2847044030228716e+00 -4.2375546689867683e+01 -5.3515864487186828e+00 -2.7548904303057666e+00 1.5979882262714131e+01 
        </Neuron>
        <Neuron NSynapses="20">
          -1.4039068744432823e+01 6.9403766941265914e+00 -8.0556614398809891e+00 -1.5649650721405124e+00 6.4960030921423204e+00 -2.2470718509039472e+01 -2.3455624136714386e+00 4.9813126038777100e-01 3.8503655272385791e+00 9.4102808959382234e-01 4.8508881909608847e+00 9.7862452954203061e+00 -1.6761369647448765e+00 7.4221275581749357e-01 6.3149869701730710e+00 4.8182446094690521e+00 -2.2344690592981834e+01 1.4109807339457008e+00 2.2911232241973858e+00 -9.8996768034584655e+00 
        </Neuron>
        <Neuron NSynapses="20">
          -1.2809081342767266e+00 -1.3034994645155793e+00 1.4517025764699456e+01 -2.7068775567088688e-01 -3.1644739730047942e+00 8.4498196270409913e+00 -2.6432473313948410e+00 -2.0102429786193419e+00 1.7354308771519943e+01 -6.7114865032478681e+00 -9.0875708823293024e+00 -3.1124048839377045e+00 1.6897437573198220e+00 3.3252055073955411e-01 6.4429556123379426e+00 -6.4575762389380031e+00 8.0818852422184584e+00 4.0880985293662837e+00 3.6706037438271530e+00 4.7368191883751870e-01 
        </Neuron>
        <Neuron NSynapses="20">
          -7.0447880448633327e-01 8.6355540119461838e-01 2.7801396423858189e+00 -9.4244666606854310e-01 9.3688945166769990e+00 -5.0878531584895494e+00 9.2530334207530418e-01 1.3819650454622012e-01 -2.0881370103891221e+00 -7.2238758215577716e+00 4.2545149045994144e+00 -3.0825297762224327e-02 6.1084978525802498e+00 -1.1218712024390942e+00 -1.9091035365619844e+00 5.1189650083044596e+00 -4.4846900783241089e-01 -1.1364199082406973e+01 -9.4668231419883622e+00 3.0696843460556549e+00 
        </Neuron>
        <Neuron NSynapses="20">
          -5.8665221685014464e+00 -4.6918728298127679e+00 -1.6712999778185205e+00 1.3650274603509278e+00 9.5257975056851585e-01 2.0928132774168504e+00 -1.0048571285040366e+00 -1.3102513520081378e+00 2.9597796677596966e-01 1.0207654997944182e+00 2.3039413332183466e-02 -1.2956395510460967e+00 -1.4215109998124935e+00 4.8671741785746991e-01 -1.5050348522414239e+00 4.2882357907075308e+00 -3.1490282048389906e+00 1.0174998675189542e+00 5.5148771981884648e-01 2.8335332512450870e+00 
        </Neuron>
        <Neuron NSynapses="20">
          9.3424394445142406e-03 1.8580146745633122e+00 -3.7362372626942539e+00 1.3332656784183616e+00 3.1214105938820818e+00 -7.0977612130881296e+00 4.0939445267401862e-02 -3.5470517340830865e-01 -7.2136377084334145e+00 -3.2073730685467550e-01 -5.5229105621570920e-02 3.4121405424883761e-01 5.5898774129723994e-01 -1.8577548317734180e+00 -4.7839484661639720e+00 2.6232046669952522e+00 1.2383989586471604e+00 -1.0470393436336609e+01 1.3989151951205869e-01 1.9710399906197087e+00 
        </Neuron>
        <Neuron NSynapses="20">
          1.1733292054691042e+00 -1.7521737099165648e+00 3.3326020585462934e-01 -1.3383726226849673e-02 -2.5083153474458926e+00 1.2868796236226032e+00 -5.1654826927478048e-01 -1.8288237082735170e-01 6.9885185231131353e-01 -1.9484963794334098e+00 -4.8888990347990918e-01 2.8200449098165148e+00 8.0506494355582152e+00 1.4466947301592853e-01 6.6214937475141700e-01 -7.6078153784941793e-01 -8.1318301911001722e-01 5.2841259365681692e+00 5.9117545565516827e-01 -4.0771558360749438e+00 
        </Neuron>
        <Neuron NSynapses="20">
          5.6957904898771510e+00 1.2634820391176782e+00 -9.7392851738567110e-01 -7.9378270585412192e-01 -2.0006218926567573e-01 1.2621035044214448e+00 2.8336820442486816e+00 1.0357815281716534e+00 1.0346264030638856e+00 -1.2605776341319646e+00 6.8675052676204764e+00 -2.3773308195615832e+00 8.6699143591850679e-03 1.8495870964381027e+00 1.1735806087829943e+01 -1.9025206682556282e+00 -1.0718590362867098e+00 5.5435824362330282e+00 2.4946402137021290e-01 -1.8668228606851114e+00 
        </Neuron>
        <Neuron NSynapses="20">
          -1.2105132107965371e+01 1.2783102217750841e+00 7.7301287451150225e-01 -1.1109789226767091e+00 1.5122113065042821e+00 -4.3633371372019730e-01 -2.8575305091792904e+00 1.6133046238439865e+00 -1.1878863644654640e+00 -9.4335010511866202e-01 -7.3075163635103846e-01 -5.9235044507362278e-01 9.2659661945878924e-01 1.5769632908968469e+00 -1.9730350606729417e-03 2.6426294174562019e+00 -1.8554314035937451e+00 8.5655092821643120e+00 1.0904967081662113e-01 -1.1938440130806687e+00 
        </Neuron>
        <Neuron NSynapses="20">
          -7.3080934601243641e-01 1.9455495463630734e-01 -8.6830328707752165e-04 4.9186087684173890e-01 -9.8795326127830541e-02 3.2369111042622484e-01 -7.6788386522916010e+00 3.6956062094529940e-01 -7.9941916272121383e-02 -1.6099709096776443e-01 1.0020331290543631e-01 4.0949059950473536e-02 2.7107606353749641e-01 -2.8048564771532174e+00 4.0353793400612075e+00 7.2342656307494257e-01 1.2729033953440530e-02 2.0534783942985907e-01 2.7128436916815890e-01 2.5089645506785642e-02 
        </Neuron>
        <Neuron NSynapses="20">
          3.6924640827607234e+00 1.0500893360383408e+00 -6.1449844416665922e+00 -4.9674074729272516e-01 3.6317959078400079e+00 -7.1760744552341897e+00 3.7490275369980837e+00 -7.7961417537226141e-01 -5.7973871803542405e+00 -2.5783027495490312e+00 4.2724430050747673e+00 1.6446780693865529e-01 7.5333173307494117e-01 -1.4887956639330562e+00 2.5058452714278250e+00 -3.2383578567736360e-01 -1.6701509580634568e+00 -6.3196637578752082e+00 -1.8418156768177190e+00 7.1178306077449335e-02 
        </Neuron>
        <Neuron NSynapses="20">
          -8.6476970454184698e+00 1.3088445160626281e+00 -6.1655668002228055e+00 -1.5391335444021759e+00 1.8950835975368157e+00 -7.0101055476523095e+00 -3.1339961773175880e+00 -2.2497913897773865e+00 -4.6831241061723974e+00 -2.5592415457502362e+00 1.6374215026410741e-01 -1.4594904812585402e-01 -4.8103306568389387e-01 1.8209378640098381e+00 -3.9454367232342475e+00 3.3104630752791362e+00 -2.0380776519212160e+00 -4.0299759812221154e+00 -1.3722540281223827e+00 -8.9868622624272843e-01 
        </Neuron>
        <Neuron NSynapses="20">
          -1.5769492432018377e+00 -6.2927096833087270e-01 2.2513322249827664e-01 -5.5979171268345429e-01 -6.0907245968900758e-01 -6.6293431975463912e-01 -7.3240387863917100e-01 2.3577619406470705e+00 -7.2720401358976938e-01 -1.1494375599995830e+00 -1.0446087290768846e+00 -6.3506473951855635e-01 -4.3884243178838843e-02 1.5450374636540751e+00 1.0784253215831925e+00 -2.1195441193338733e+00 1.0762858364208226e-01 -3.8564380626566186e-01 7.1892654440161444e-03 -5.4109645757919990e-03 
        </Neuron>
        <Neuron NSynapses="20">
          -3.1056134965410192e-02 -1.7900485082669951e-02 -5.8498057383693045e-03 -7.6208374897387865e-01 -3.2544727726511583e-02 5.5923536744459899e-02 1.2863678799387780e-02 5.5650393637388988e-02 -1.8558137776559340e-02 -2.7933539443207017e-02 -9.9845303830431061e-03 -6.0543393478680381e-02 -4.7400928194577245e-02 3.6055589630012913e-01 9.4109938751322335e-03 4.8745892851097691e-02 -1.2859294165381075e-02 4.4590527265622746e-03 1.6709232596225563e-02 -4.9770703193200662e-03 
        </Neuron>
        <Neuron NSynapses="20">
          2.3284263016480993e+00 2.3897849707006285e+00 -1.5760666641212053e+00 -1.1886030379920907e+00 1.3001993776473502e+00 -3.5888596410702683e-01 -2.4117968648128500e+00 -1.0879830392189522e+00 -1.4012695876182004e+00 -1.3540645596757663e+00 1.8047731620824774e+00 -1.8940030928191551e+00 -1.6329996143675651e+00 1.9783725600329622e+00 6.8077679545197789e+00 1.2525987211637399e+00 1.4534805138172078e+00 4.5818557355179053e+00 3.7650071187159551e-01 -8.6520645357789017e-01 
        </Neuron>
        <Neuron NSynapses="20">
          -1.1025234682566357e+01 8.2125559355989239e-02 -8.8870718517409342e-01 -1.3516689571883083e+00 9.1225397076525894e-01 -2.3152035359134004e-01 1.6060239754126979e+00 9.1778203720632601e-01 -3.1380704857643038e+00 -1.3665135778198843e+00 2.1704624253348586e+00 -2.7093429904256019e+00 -1.1871048184514870e+00 -1.2415317279213933e+00 2.4797995427639870e+00 4.1054924426311823e+00 7.6237731980357082e-01 6.7654756286443982e+00 2.9662319550000849e-01 -6.4074535778087915e-01 
        </Neuron>
        <Neuron NSynapses="20">
          7.3951353821972765e-02 -1.1733158551204115e-01 6.4101222700473160e-03 -6.8668739868443271e+00 -4.1976647372529334e-03 4.6681265099027553e-03 -1.0215688710444881e-01 2.0903343080072490e-01 -6.9868757977449542e-02 4.1847926437633125e-02 -2.0368323264473281e-01 -8.1195447049843672e-01 -1.7621075309941339e-01 8.9895406197307115e-01 -1.7496059206069617e-01 5.1269261261561005e-02 -2.0976842880066109e-02 -1.4538806927262579e-01 4.2715857201935062e-02 3.2842492108032896e-02 
        </Neuron>
        <Neuron NSynapses="20">
          5.0923001982969067e+00 -7.3596434285435186e-01 -5.9756087146495211e+00 -2.3184055112162274e+00 4.0316040924194541e+00 -5.4990365653042268e+00 -2.0950061968612501e+00 -7.0816164475306798e-01 -4.4533119517285149e+00 -1.4989119128504704e+00 8.3092840595181139e-01 4.0666469999367144e-01 -2.4478303873108223e+00 1.3100822040468858e+00 -1.2671238192601288e+00 2.2944643587444933e+00 -2.2154234930627794e+00 -3.4901290701441079e+00 9.9383847550957283e-01 2.0021951119059604e+00 
        </Neuron>
        <Neuron NSynapses="20">
          -7.3303515645797361e+00 6.8441062086724824e-01 -5.3439884781424940e+00 3.9803025594672886e-01 3.4977619606086185e+00 -7.4801917235325543e+00 1.7085825491497382e+00 -7.4479696820974564e-02 -4.1788812965627393e+00 -4.0835082714893645e+00 4.5709653644826025e+00 1.5216019411053494e-01 -1.8867361894659234e+00 -2.5588863485412350e-01 -4.0488274330893432e+00 4.3540727683552749e+00 -2.6136630064154120e-01 -2.7003196402192589e+00 1.6763665762154054e+00 3.8782477206059573e-01 
        </Neuron>
        <Neuron NSynapses="20">
          2.1758911377626844e+00 3.1773989116112343e+01 -1.4016143576036075e+01 -3.7769599480553078e+00 5.9403103828347064e+00 -3.8287944347509786e+01 5.4943079951507556e-01 1.0621359543276918e+00 -3.0430022795717292e+01 -1.6994494820767873e+01 6.5061672501748662e+00 2.1745914447766967e+00 8.1127242706207916e+00 -1.2898084187870573e+00 3.8843662934365426e+00 8.4272893301970910e+00 1.4558902455529497e+01 -9.0714537833626707e+00 -3.4625308051533388e-01 -2.1058543247824161e+01 
        </Neuron>
      </Layer>
      <Layer Index="1" NNeurons="21">
        <Neuron NSynapses="25">
          -3.3363398775876258e+00 -2.2133858040738597e-01 9.0876539031949954e-01 -1.7125695275466863e+00 1.2728381881279751e+00 2.0294164602278064e-01 1.3062570387976082e+00 1.0813729443566524e+00 -4.1093676249877270e-01 2.5829986301908860e+00 -3.4123414264313117e+00 -7.3309812300811106e-01 -1.0677838666465707e+00 -3.6696099543173912e+00 4.3079147659959977e-01 -1.3979061636227299e+00 3.7804169277532329e-01 -1.1977964338795209e-01 5.6159552170248483e-01 1.4773535522800705e+00 -2.4884067701627863e+00 -5.1507983823381165e-01 4.8962422308186614e-02 -2.2571660471051365e+00 2.6065398298349834e-01 
        </Neuron>
        <Neuron NSynapses="25">
          -2.3312394132446492e+00 5.7155551071807640e+00 1.9414202340509260e-01 -5.0411012432982352e+00 -4.0943566513182033e+00 1.7688344662459246e+00 -1.3746472647156356e+00 1.2356013881533023e-01 4.0262532611422159e+00 -2.6017601462870426e+00 -3.7135342969029494e+00 1.6617242265320380e+00 -2.3970143849661163e+00 2.1742165978300916e+00 -3.6312051023823262e+00 7.6046521169185211e-01 -2.5002270944230935e+00 -6.1725164427211621e-01 -2.7479982889172221e+00 -2.7662694239329881e+00 -2.5731613104363742e+00 1.8907419542251442e+00 -4.7240478262577756e+00 -2.8937726784180557e+00 2.1850699130286735e-01 
        </Neuron>
        <Neuron NSynapses="25">
          1.2536273197837260e+00 4.5392039204907055e+00 -2.6251950907015806e+00 3.5157026624228767e+00 1.4836443075106360e+00 -3.6407165658184164e+00 5.1403966893910369e-01 -4.1915432194202644e+00 3.2042144468942251e+00 3.0570220962352304e+00 -2.5926830948149941e+00 6.7541430861014007e-01 2.6595012595903240e+00 2.1614423731792480e+00 -2.2401325084474637e+00 8.3616911876512168e-01 -6.1089820630341962e-01 1.4355022729051627e+00 7.4379662200061682e+00 2.7135504382756319e+00 8.9816688248096976e-01 -2.5966973024280371e-01 -1.3635207399450546e+00 -2.9618404703409933e+00 -1.0193308798763205e+00 
        </Neuron>
        <Neuron NSynapses="25">
          3.1198580391347508e-01 3.5604055215408570e-01 -7.6809464599203314e-01 7.5445585074539009e-02 1.9858536404529223e-01 -3.6407172426773882e-01 -1.5472231438555356e-02 9.5060405755308178e-02 -9.1401134758936978e-02 1.3983420960480648e+00 1.7765820714557773e-01 8.6346034005486372e-01 3.3519576616978514e-01 3.2927209556679199e-01 -1.8715704809289719e+00 5.2834496639584061e-01 7.3322081274876427e-01 9.4104549250223657e-02 1.3790662728345290e-01 -7.2402859711581069e-01 8.8969922716319941e-02 6.9800012580657267e-02 1.2531976624921393e+00 5.7325396491168645e-01 1.2324436243283565e+00 
        </Neuron>
        <Neuron NSynapses="25">
          1.1642191594359441e+00 -3.4465943442243039e+00 1.6094853026046212e+00 1.0536966107606871e+00 1.8665101300905629e-01 3.7800528694393503e+00 4.1911029574728467e+00 5.0276287593289641e+00 -1.7723665070197110e+00 -4.4560564782306047e+00 -1.5334385753992645e+00 2.9402803770560137e-01 4.5233256177393405e-01 2.9780174447594048e+00 1.1686746722361376e-01 -1.1895908577121725e+00 -3.9605985629498428e+00 -1.2678115704367525e+00 -1.0457844735740585e+00 -3.6438439771456852e+00 -2.2670478267269507e+00 -6.1532453539808341e-03 1.2006961585705969e+00 -1.5925072241156357e+00 7.3524881155639576e-01 
        </Neuron>
        <Neuron NSynapses="25">
          -2.6468008361307688e-01 1.5013816743682691e+00 -2.2757220677294550e+00 2.3559889571742856e+00 5.9891087948046540e+00 -6.6312132263184163e+00 -5.6231437196567668e+00 8.0119596513611635e-01 6.6219416783851637e-01 -9.5142771411842852e-01 -1.4003148918744375e+00 -9.9242086223473691e-01 -2.2968596534469423e+00 -2.6653517096577692e+00 -1.2238817853604336e+00 2.0588434732512249e+00 4.4100013837953651e-02 1.7548180202392280e-01 3.0026921672081195e+00 -1.6515506925704260e+00 -1.8024225746351068e+00 2.9277725544076660e-01 -1.4898990647552073e+00 -3.1357103828268449e+00 -2.6336762303944536e+00 
        </Neuron>
        <Neuron NSynapses="25">
          4.5474556747426675e-01 -2.9868709207207850e-01 -4.8680548117688904e-01 7.9012981402927929e-01 3.9052824871692721e-01 4.7164848529472103e-01 -2.0460012359853880e-01 -8.9652133790071198e-01 1.3388621411538997e+00 -1.5491189278256190e-01 7.0772112993045810e-01 5.8727910551960782e-01 -1.3956978393440428e-02 1.3662715887003590e-01 3.5612600857521010e-01 -2.5302085647745227e+00 -1.0494769568054387e+00 7.3123469970930746e+00 -9.2165434002592317e-01 4.0752126514213085e+00 -4.1067767407625464e+00 -3.9097820566276564e-01 3.1396595074957945e-01 -2.0772301884152261e-01 -1.6270290568539394e+00 
        </Neuron>
        <Neuron NSynapses="25">
          1.3982848068440648e+00 -1.3813255651441190e+00 -3.1101984018645417e+00 -3.5002963501100521e+00 -2.9839534155351126e+00 -4.2495281600925783e-01 -1.0419787679098538e+00 2.6109150976060351e+00 -4.8018996496008510e+00 4.6033418834352308e-01 7.3953732131962477e-02 -6.9565421005648320e-01 -3.3150012111849092e+00 -1.6078691861084475e+00 -2.0380709644677677e+00 -8.8078939828941194e-01 1.4866409373613074e+00 -1.9545633088441428e+00 -1.7256780473557047e+00 -7.0341800328224680e-01 2.5859822854397301e+00 -8.7319683042078336e-02 3.3765705896314846e-01 -9.6295037943721684e-01 -1.0062897330923668e+00 
        </Neuron>
        <Neuron NSynapses="25">
          -3.8792395099745375e-01 -9.3284271118761419e-01 6.0895215877754516e-01 5.8629906403814247e-01 -3.1640877681416302e+00 -4.7713286859978075e+00 -7.9656048744169903e+00 -4.1434440901875708e-01 -5.1688366022990389e+00 9.4143449400815227e-01 2.3250532414684035e+00 -2.7512331909018188e+00 -2.1917841797511173e+00 -5.2120829283046111e-01 6.8836494685211647e-01 8.7862214713418751e-01 -4.0544760953505499e+00 1.5340911181715460e+00 2.4140223826748461e+00 -8.7227601005152641e-03 -2.9504783401562142e+00 -3.4602424238163669e+00 -2.8714607961479849e-01 -1.1994872142279938e+00 -2.7113594370330825e+00 
        </Neuron>
        <Neuron NSynapses="25">
          -1.6007981097477326e+00 -2.0576106645071296e-01 6.1859073508645190e-01 3.3808273881973676e+00 -1.9418417737407140e-01 -3.2610132082331065e+00 -8.7533653290003510e+00 -1.7546071888140147e+00 -1.7196489831709254e+00 -2.0071270994099430e+00 4.5042362750725058e+00 -3.1701594387471710e-01 -4.7969534291958560e+00 2.3859790653116204e+00 -2.9358478967291943e+00 8.8854201668814733e-02 2.6374011141051579e+00 5.3745994347601656e-01 3.9181167212121317e+00 -1.2131924430274077e+00 -4.4473434721320650e+00 5.3766705449156305e-01 -2.9997771879888174e-01 7.1714364764349933e-02 -1.5051709498715429e-01 
        </Neuron>
        <Neuron NSynapses="25">
          -5.0685727962638039e+00 1.7179240379120879e-02 -5.6628395780472840e-01 9.1383513259733973e-01 -5.2177405958511847e-01 4.6489078807318496e-01 5.7241345781554231e-01 1.6123062614334294e-01 5.3512263392016179e-01 -3.2232235557162614e+00 1.9504677329357800e-01 1.4426619148803818e-01 1.3332230538450368e-01 -5.5883665241541058e-01 2.4704172837019209e+00 -1.0793551782519699e-01 4.2345125456902855e-01 -3.9427881555761335e+00 -2.2078689898666202e+00 -2.8305982593297316e+00 2.3428717600437485e+00 1.7673604805608575e-01 9.8060065603050334e-02 1.0493751889938259e+00 -8.4805363043628146e-01 
        </Neuron>
        <Neuron NSynapses="25">
          8.4138856388446615e-01 -2.3767178258510713e+00 1.0139504457522244e+00 -7.1580241996118721e-01 1.3462312263843546e-01 7.5005315500698289e-01 8.5974490136961146e-01 6.8811402000344668e-01 -1.7178532274230796e+00 -2.4596746365307003e+00 -8.5813974788025049e-01 -4.0079073784607013e+00 -1.1761076817262821e+00 -1.6575836998801001e+00 4.3029445649066131e+00 -3.5371212546078472e-03 1.3515029407192922e-01 1.8192528531276750e+00 4.5976078001825199e-01 1.3306663468414255e+00 -7.8609666516423193e-01 -4.3051723574677814e-01 -2.5461931349187430e+00 -1.3430200952964086e+00 -1.5089470495932908e+00 
        </Neuron>
        <Neuron NSynapses="25">
          -6.6924863158883782e-02 2.4970254870856796e+00 -3.3751514400269160e+00 -2.6398706792317661e-01 -1.0905392288400344e-01 1.9049880119182303e+00 7.7031710241286389e-01 1.1882677102372576e+00 2.5479949675749580e+00 1.7974927738242452e+00 -1.7815075952643140e+00 -1.3392395638913053e+00 1.6415169281487385e-01 -2.1624649236250293e+00 1.1050394519485438e+00 1.4456584210057148e+00 -1.3443494820210169e+00 4.1206212315931774e+00 -2.0628421722946557e+00 3.4164248662964203e-01 -2.4258205633524299e+00 1.2650564656126317e+00 -4.7639050655396096e+00 1.3901672866797492e+00 -9.4562181597153933e-02 
        </Neuron>
        <Neuron NSynapses="25">
          2.5641547861380398e-01 1.5687062329210921e+00 1.5074001348309736e+00 -1.3496595200697774e+00 -5.7166832987421734e-01 -9.7630079149409452e-02 1.0445829379163423e+00 1.0050363872633217e+00 1.4046685252621012e+00 2.0310349111689301e+00 -2.6199203339524524e-01 8.7981061838948482e-01 -1.2436162436912740e-01 -1.3505473853269796e+00 1.2831131027991018e+00 7.5760150528231351e-01 8.5105474541784287e-01 1.3622319186585874e+00 -8.7846040896494915e-01 1.2164239589440735e+00 2.0806270889386172e-01 -1.1309563221380001e+00 -6.1492951356491632e-01 -1.2832149148878254e+00 -1.2582358628132428e+00 
        </Neuron>
        <Neuron NSynapses="25">
          -4.2328790498812259e+00 -2.8162678826391530e-01 3.0572553700570659e-01 7.6367405900526861e-02 1.1482733440475833e-02 4.0761499059433831e-01 -4.1755403394949275e-01 -2.4485518776806220e-01 -3.5715587949045940e-01 4.1167672349500983e-01 3.7518060919278723e-01 4.9904010210787120e-01 1.7836932184759693e-01 3.2068071565472006e-01 -5.1403529907836265e-01 1.7070624861795269e-01 -1.3065273588934876e+00 -5.3884941444204424e+00 1.0472966388881105e-01 -6.8958812957338838e+00 3.4065215824692907e+00 -1.0735794600614770e+00 -1.4247133250334640e-01 -8.5243479890007612e-01 -2.4245730756044950e-01 
        </Neuron>
        <Neuron NSynapses="25">
          4.1604021311602796e-01 -1.6172883362809021e+00 1.9651014498420309e+00 -1.7871893915508590e+00 -2.3936839330984374e+00 3.5720740042477589e-01 5.6455546782162525e-01 3.3070285935177890e+00 -1.0326920515879348e+00 -5.8676996252395099e+00 -4.9934289793265246e-01 -2.1276226794741745e-01 -2.4383663879823554e+00 -2.0054681000208410e+00 -9.9217607906858907e-01 -3.1003771426944923e-02 -4.8320148718404310e+00 1.7342784998124914e+00 4.0718165678190255e-01 -3.1028507888727583e+00 -4.8066364350204482e+00 -1.6098775278554254e+00 8.8119169549078125e-01 -1.0571361554889547e+00 -1.1727249788667262e+00 
        </Neuron>
        <Neuron NSynapses="25">
          -2.4750366458329642e+00 8.5669760785174471e+00 5.4876265612869823e-01 -5.0446033751960995e+00 5.9605594055845961e+00 -2.3433211407999881e+00 -3.3427163679824932e+00 -9.3514208349719252e-01 5.4847411703656217e+00 1.5510616123827465e+00 -3.6570250600386354e+00 1.9415443265297603e+00 4.8229453042861055e+00 -5.8634616119216262e-02 -8.1407562843074910e+00 2.4382895073423976e+00 6.5860543024832541e-01 -6.0089022295087846e-01 -3.8422151892423542e+00 -2.6681639531779591e+00 -2.5655604435430202e+00 -1.5345480017144348e+00 -8.7716355039814804e+00 -5.6729936215348022e+00 -5.0398765281741031e+00 
        </Neuron>
        <Neuron NSynapses="25">
          1.5755059418608628e+00 7.9610257550696273e-01 -1.0599292734432793e+00 -4.4702484046715779e-01 2.1519675954094947e-01 -6.7238816669056878e-01 -1.9357002918332586e-01 -4.5055045716184914e+00 1.7246856311260095e+00 -2.5169768981375147e+00 1.8472693022122355e+00 -9.3861962096923879e-01 1.1865812312366544e+00 5.9678657534129109e-01 5.5053500807889899e-01 1.3106373819526607e+00 -4.9868416102794694e-01 -4.7084144345483187e-01 2.2703409921845155e+00 -2.0744110525650035e+00 1.4409887494468991e+00 3.4666193307627231e+00 7.5586734857645566e-01 1.2584373676255560e-02 -6.9060957324751782e-01 
        </Neuron>
        <Neuron NSynapses="25">
          -1.8430839021989398e-01 3.4428203160877757e+00 1.3999356129263238e+00 2.3675589690713887e+00 -1.9511672081016813e+00 -5.4999326889047424e+00 -3.5245243029302569e+00 -5.0599190117234469e+00 3.0859060935073126e+00 2.9434368702653981e+00 2.9819879348784535e+00 -1.1558968885352261e-01 -1.3307498260656858e+00 -2.1084991332944614e+00 -4.9699515341556788e+00 -8.3266701236469665e-01 -1.0442203453201349e+00 1.0882515643787116e+00 2.4591865126791626e+00 5.3965637688986046e-01 2.7379558244446783e-01 2.6851615349338247e+00 -1.3892585581809451e+00 2.0344409311056660e-01 4.1955909140251102e-01 
        </Neuron>
        <Neuron NSynapses="25">
          -5.6790155752009619e-01 -5.4678729507273056e+00 -1.8574547087108439e+00 1.2962645144893017e+00 3.2651563683441398e+00 -3.3320982185247123e+00 1.2194055113936684e+00 1.2620353312769443e+00 -1.4610650552579854e+00 3.5597426228531004e-01 -1.2689760729954438e+00 2.6339128429990715e+00 4.4995724848580126e-01 -2.3393367787925620e-01 1.6225499880732781e+00 2.4745578693833847e+00 -4.5441146755572870e-01 7.0460378347781172e-01 3.1655658959981747e+00 5.1714327551990547e-01 -6.5026533290859367e-01 -2.8876543636407481e+00 7.1548038143044659e+00 -1.2506489415633790e+00 -1.4099672126330822e+00 
        </Neuron>
        <Neuron NSynapses="25">
          5.1182989762222231e-01 -1.8592079924331839e+00 -1.0919551957239310e-01 -5.5232487418556342e-01 -3.3444112046776291e+00 3.4099248576566010e-01 -3.5193800504396515e+00 1.7785178254590999e+00 -1.7669509319393681e+00 -2.2828356797234312e-01 -1.5558929421464498e+00 -1.9190811212731662e+00 6.9480968485416086e-02 5.1914773229870270e-01 -2.8194892129220581e+00 7.1365995595862952e-01 -1.5306098144610075e-01 -7.2480251852857791e-01 -2.6765377104224282e+00 1.4730238252994940e+00 2.3036827775436475e+00 -2.1764605450320937e+00 -4.5669919817831811e-01 1.0703818886022054e+00 -7.4210703012863269e-02 
        </Neuron>
      </Layer>
      <Layer Index="2" NNeurons="26">
        <Neuron NSynapses="3">
          -4.3823251945303848e-01 -5.6427310604418957e-01 -1.5558016564554171e+00 
        </Neuron>
        <Neuron NSynapses="3">
          1.1771034206458011e+00 1.7370225506243955e+00 9.3535712109465119e-01 
        </Neuron>
        <Neuron NSynapses="3">
          5.7001520160664920e-01 -2.7532054202308628e-02 9.2982391239220225e-02 
        </Neuron>
        <Neuron NSynapses="3">
          -4.6223957323816889e-01 1.5827058133342056e+00 4.8159339629860849e+00 
        </Neuron>
        <Neuron NSynapses="3">
          -1.0204379597334039e+00 3.8023381036198391e+00 1.1095965296707382e+00 
        </Neuron>
        <Neuron NSynapses="3">
          -3.6382466343750406e+00 2.1207696459098981e+00 1.0067412235270683e+00 
        </Neuron>
        <Neuron NSynapses="3">
          -4.1850717548085905e+00 4.2255872987355012e+00 1.2309398484250829e+00 
        </Neuron>
        <Neuron NSynapses="3">
          2.0272504264757321e+00 -1.0108033129205776e+00 -1.2675567455432959e-01 
        </Neuron>
        <Neuron NSynapses="3">
          2.5622322432479017e+00 2.5821144037986574e+00 5.9711185069326334e-01 
        </Neuron>
        <Neuron NSynapses="3">
          -1.3168027676090455e+00 9.9009096346922354e-01 1.5722512481966573e+00 
        </Neuron>
        <Neuron NSynapses="3">
          -3.7695009862765344e-01 -3.6107337559290176e-01 -1.5589362819640775e+00 
        </Neuron>
        <Neuron NSynapses="3">
          -1.1488373167530705e+00 -1.6982714997587514e+00 1.2351365224831665e+00 
        </Neuron>
        <Neuron NSynapses="3">
          2.1261320401757642e+00 -2.2543809163022518e-01 3.6763559757532214e+00 
        </Neuron>
        <Neuron NSynapses="3">
          -6.9341380711582368e-01 -4.8393429303868196e-01 -2.9275716994301288e+00 
        </Neuron>
        <Neuron NSynapses="3">
          1.1463844267757306e+00 4.9139800741993644e+00 1.3677631491760953e+00 
        </Neuron>
        <Neuron NSynapses="3">
          1.0211164391847010e+00 1.9284827422175161e+00 8.7270073265998549e-01 
        </Neuron>
        <Neuron NSynapses="3">
          -3.4991742630261990e-01 2.5933232034023566e+00 1.0680960717175458e+00 
        </Neuron>
        <Neuron NSynapses="3">
          -3.5162080250423638e-02 7.7147136469855671e-01 1.1694518167938741e+00 
        </Neuron>
        <Neuron NSynapses="3">
          -3.9342527373541620e+00 -4.4570875973306512e-01 -9.7745534866062433e-01 
        </Neuron>
        <Neuron NSynapses="3">
          -1.7001971338124613e+00 -8.6829332431840578e-01 -1.9426101181937294e+00 
        </Neuron>
        <Neuron NSynapses="3">
          -2.7498411847471096e+00 -8.3575523735592749e-01 -2.0221752418495718e+00 
        </Neuron>
        <Neuron NSynapses="3">
          3.2292715638327669e+00 -9.2106956726583211e-01 7.3290702700275911e-01 
        </Neuron>
        <Neuron NSynapses="3">
          2.9962479469803394e+00 4.4834680788196923e+00 2.7535934259913439e+00 
        </Neuron>
        <Neuron NSynapses="3">
          -8.7694474920862608e-01 -2.5555574783352530e+00 -1.3977199092958277e+00 
        </Neuron>
        <Neuron NSynapses="3">
          -5.4208576708837131e-01 -3.9220630714427944e+00 -1.6187462720195365e+00 
        </Neuron>
        <Neuron NSynapses="3">
          1.1873413857210007e+00 -1.1341408423071779e+00 -3.6001668550410684e+00 
        </Neuron>
      </Layer>
      <Layer Index="3" NNeurons="4">
        <Neuron NSynapses="1">
          2.2468426252017024e+00 
        </Neuron>
        <Neuron NSynapses="1">
          -7.8548091242821654e+00 
        </Neuron>
        <Neuron NSynapses="1">
          -7.2789830791993708e+00 
        </Neuron>
        <Neuron NSynapses="1">
          5.1241401879929533e+00 
        </Neuron>
      </Layer>
      <Layer Index="4" NNeurons="1">
        <Neuron NSynapses="0"/>
      </Layer>
    </Layout>
  </Weights>
</MethodSetup>
