<?xml version="1.0"?>
<MethodSetup Method="BDT::BDTG">
  <GeneralInfo>
    <Info name="TMVA Release" value="4.2.1 [262657]"/>
    <Info name="ROOT Release" value="6.10/09 [395785]"/>
    <Info name="Creator" value="cychuang"/>
    <Info name="Date" value="Mon Jan  6 19:54:46 2020"/>
    <Info name="Host" value="Linux cmsbuild49.cern.ch 2.6.32-696.10.2.el6.x86_64 #1 SMP Thu Sep 14 16:35:02 CEST 2017 x86_64 x86_64 x86_64 GNU/Linux"/>
    <Info name="Dir" value="/wk_cms2/cychuang/CMSSW_9_4_2/src/wk_mva"/>
    <Info name="Training events" value="2617521"/>
    <Info name="TrainingTime" value="3.15926632e+03"/>
    <Info name="AnalysisType" value="Classification"/>
  </GeneralInfo>
  <Options>
    <Option name="V" modified="Yes">False</Option>
    <Option name="VerbosityLevel" modified="No">Default</Option>
    <Option name="VarTransform" modified="No">None</Option>
    <Option name="H" modified="Yes">False</Option>
    <Option name="CreateMVAPdfs" modified="No">False</Option>
    <Option name="IgnoreNegWeightsInTraining" modified="No">False</Option>
    <Option name="NTrees" modified="Yes">800</Option>
    <Option name="MaxDepth" modified="Yes">3</Option>
    <Option name="MinNodeSize" modified="Yes">2.5%</Option>
    <Option name="nCuts" modified="Yes">20</Option>
    <Option name="BoostType" modified="Yes">Grad</Option>
    <Option name="AdaBoostR2Loss" modified="No">quadratic</Option>
    <Option name="UseBaggedBoost" modified="Yes">True</Option>
    <Option name="Shrinkage" modified="Yes">1.000000e-01</Option>
    <Option name="AdaBoostBeta" modified="No">5.000000e-01</Option>
    <Option name="UseRandomisedTrees" modified="No">False</Option>
    <Option name="UseNvars" modified="No">5</Option>
    <Option name="UsePoissonNvars" modified="No">True</Option>
    <Option name="BaggedSampleFraction" modified="Yes">5.000000e-01</Option>
    <Option name="UseYesNoLeaf" modified="No">True</Option>
    <Option name="NegWeightTreatment" modified="No">pray</Option>
    <Option name="Css" modified="No">1.000000e+00</Option>
    <Option name="Cts_sb" modified="No">1.000000e+00</Option>
    <Option name="Ctb_ss" modified="No">1.000000e+00</Option>
    <Option name="Cbb" modified="No">1.000000e+00</Option>
    <Option name="NodePurityLimit" modified="No">5.000000e-01</Option>
    <Option name="SeparationType" modified="No">giniindex</Option>
    <Option name="RegressionLossFunctionBDTG" modified="No">huber</Option>
    <Option name="HuberQuantile" modified="No">7.000000e-01</Option>
    <Option name="DoBoostMonitor" modified="No">False</Option>
    <Option name="UseFisherCuts" modified="No">False</Option>
    <Option name="MinLinCorrForFisher" modified="No">8.000000e-01</Option>
    <Option name="UseExclusiveVars" modified="No">False</Option>
    <Option name="DoPreselection" modified="No">False</Option>
    <Option name="SigToBkgFraction" modified="No">1.000000e+00</Option>
    <Option name="PruneMethod" modified="No">nopruning</Option>
    <Option name="PruneStrength" modified="No">0.000000e+00</Option>
    <Option name="PruningValFraction" modified="No">5.000000e-01</Option>
    <Option name="SkipNormalization" modified="No">False</Option>
    <Option name="nEventsMin" modified="No">0</Option>
    <Option name="UseBaggedGrad" modified="No">False</Option>
    <Option name="GradBaggingFraction" modified="No">5.000000e-01</Option>
    <Option name="UseNTrainEvents" modified="No">0</Option>
    <Option name="NNodesMax" modified="No">0</Option>
  </Options>
  <Variables NVar="20">
    <Variable VarIndex="0" Expression="top_mass" Label="top_mass" Title="top_mass" Unit="" Internal="top_mass" Type="D" Min="3.57156525e+01" Max="5.13592920e+03"/>
    <Variable VarIndex="1" Expression="w_mass" Label="w_mass" Title="w_mass" Unit="" Internal="w_mass" Type="D" Min="1.56709528e+01" Max="4.32185889e+03"/>
    <Variable VarIndex="2" Expression="j1j2_sumPt" Label="j1j2_sumPt" Title="j1j2_sumPt" Unit="" Internal="j1j2_sumPt" Type="D" Min="6.00363312e+01" Max="2.69776367e+03"/>
    <Variable VarIndex="3" Expression="j1j2_absdelPt" Label="j1j2_absdelPt" Title="j1j2_absdelPt" Unit="" Internal="j1j2_absdelPt" Type="D" Min="1.52587891e-05" Max="1.55757642e+03"/>
    <Variable VarIndex="4" Expression="j1j2_delR" Label="j1j2_delR" Title="j1j2_delR" Unit="" Internal="j1j2_delR" Type="D" Min="3.72943521e-01" Max="5.66675138e+00"/>
    <Variable VarIndex="5" Expression="whadb_sumPt" Label="whadb_sumPt" Title="whadb_sumPt" Unit="" Internal="whadb_sumPt" Type="D" Min="3.06295624e+01" Max="2.55947729e+03"/>
    <Variable VarIndex="6" Expression="whadb_delPt" Label="whadb_delPt" Title="whadb_delPt" Unit="" Internal="whadb_delPt" Type="D" Min="-1.01059930e+03" Max="1.39872266e+03"/>
    <Variable VarIndex="7" Expression="whadb_delR" Label="whadb_delR" Title="whadb_delR" Unit="" Internal="whadb_delR" Type="D" Min="5.73204737e-03" Max="8.96139145e+00"/>
    <Variable VarIndex="8" Expression="hadblepton_sumPt" Label="hadblepton_sumPt" Title="hadblepton_sumPt" Unit="" Internal="hadblepton_sumPt" Type="D" Min="6.00203705e+01" Max="1.43119653e+03"/>
    <Variable VarIndex="9" Expression="hadblepton_delPt" Label="hadblepton_delPt" Title="hadblepton_delPt" Unit="" Internal="hadblepton_delPt" Type="D" Min="-7.73499451e+02" Max="1.06076465e+03"/>
    <Variable VarIndex="10" Expression="hadblepton_delR" Label="hadblepton_delR" Title="hadblepton_delR" Unit="" Internal="hadblepton_delR" Type="D" Min="5.00000238e-01" Max="5.58469629e+00"/>
    <Variable VarIndex="11" Expression="hadwlepton_sumPt" Label="hadwlepton_sumPt" Title="hadwlepton_sumPt" Unit="" Internal="hadwlepton_sumPt" Type="D" Min="3.10787239e+01" Max="1.93583289e+03"/>
    <Variable VarIndex="12" Expression="hadwlepton_delPt" Label="hadwlepton_delPt" Title="hadwlepton_delPt" Unit="" Internal="hadwlepton_delPt" Type="D" Min="-8.09493469e+02" Max="1.49868909e+03"/>
    <Variable VarIndex="13" Expression="hadwlepton_delR" Label="hadwlepton_delR" Title="hadwlepton_delR" Unit="" Internal="hadwlepton_delR" Type="D" Min="7.12582096e-03" Max="9.17821789e+00"/>
    <Variable VarIndex="14" Expression="hadbmet_delPhi" Label="hadbmet_delPhi" Title="hadbmet_delPhi" Unit="" Internal="hadbmet_delPhi" Type="D" Min="-3.14158225e+00" Max="3.14159250e+00"/>
    <Variable VarIndex="15" Expression="hadbmet_sumPt" Label="hadbmet_sumPt" Title="hadbmet_sumPt" Unit="" Internal="hadbmet_sumPt" Type="D" Min="3.12111607e+01" Max="1.38604565e+03"/>
    <Variable VarIndex="16" Expression="hadbmet_delPt" Label="hadbmet_delPt" Title="hadbmet_delPt" Unit="" Internal="hadbmet_delPt" Type="D" Min="-8.59980835e+02" Max="1.05097571e+03"/>
    <Variable VarIndex="17" Expression="hadwmet_delPhi" Label="hadwmet_delPhi" Title="hadwmet_delPhi" Unit="" Internal="hadwmet_delPhi" Type="D" Min="-3.14158702e+00" Max="3.14159179e+00"/>
    <Variable VarIndex="18" Expression="hadwmet_sumPt" Label="hadwmet_sumPt" Title="hadwmet_sumPt" Unit="" Internal="hadwmet_sumPt" Type="D" Min="6.11416638e-01" Max="2.02260779e+03"/>
    <Variable VarIndex="19" Expression="hadwmet_delPt" Label="hadwmet_delPt" Title="hadwmet_delPt" Unit="" Internal="hadwmet_delPt" Type="D" Min="-8.63287109e+02" Max="1.52675208e+03"/>
  </Variables>
  <Spectators NSpec="0"/>
  <Classes NClass="2">
    <Class Name="Signal" Index="0"/>
    <Class Name="Background" Index="1"/>
  </Classes>
  <Transformations NTransformations="0"/>
  <MVAPdfs/>
  <Weights NTrees="800" AnalysisType="1">
    <BinaryTree type="DecisionTree" boostWeight="1.0000000000000000e+00" itree="0">
      <Node pos="s" depth="0" NCoef="0" IVar="0" Cut="2.4485362243652344e+02" cType="1" res="-4.3861361336894333e-04" rms="4.9999982118606567e-01" purity="4.9956139922142029e-01" nType="0">
        <Node pos="l" depth="1" NCoef="0" IVar="1" Cut="1.0755825805664062e+02" cType="1" res="1.7152877151966095e-01" rms="4.6965718269348145e-01" purity="6.7152875661849976e-01" nType="0">
          <Node pos="l" depth="2" NCoef="0" IVar="1" Cut="5.5179546356201172e+01" cType="1" res="2.3611164093017578e-01" rms="4.4073948264122009e-01" purity="7.3611164093017578e-01" nType="0">
            <Node pos="l" depth="3" NCoef="0" IVar="-1" Cut="0.0000000000000000e+00" cType="1" res="-3.2140996307134628e-02" rms="4.3823838233947754e-01" purity="2.5927790999412537e-01" nType="-99"/>
            <Node pos="r" depth="3" NCoef="0" IVar="-1" Cut="0.0000000000000000e+00" cType="1" res="1.6856409609317780e-02" rms="4.1981211304664612e-01" purity="7.7158385515213013e-01" nType="-99"/>
          </Node>
          <Node pos="r" depth="2" NCoef="0" IVar="1" Cut="1.2501822662353516e+02" cType="1" res="-2.7021330595016479e-01" rms="4.2069557309150696e-01" purity="2.2978670895099640e-01" nType="0">
            <Node pos="l" depth="3" NCoef="0" IVar="-1" Cut="0.0000000000000000e+00" cType="1" res="-1.3483483344316483e-02" rms="4.8368474841117859e-01" purity="3.7331503629684448e-01" nType="-99"/>
            <Node pos="r" depth="3" NCoef="0" IVar="-1" Cut="0.0000000000000000e+00" cType="1" res="-8.0668881535530090e-02" rms="3.0686730146408081e-01" purity="1.0524379462003708e-01" nType="-99"/>
          </Node>
        </Node>
        <Node pos="r" depth="1" NCoef="0" IVar="7" Cut="2.5647058486938477e+00" cType="1" res="-4.7287732362747192e-01" rms="1.6244091093540192e-01" purity="2.7122691273689270e-02" nType="0">
          <Node pos="l" depth="2" NCoef="0" IVar="1" Cut="1.9492884826660156e+02" cType="1" res="-4.5297712087631226e-01" rms="2.1168777346611023e-01" purity="4.7022860497236252e-02" nType="0">
            <Node pos="l" depth="3" NCoef="0" IVar="-1" Cut="0.0000000000000000e+00" cType="1" res="-8.8983587920665741e-02" rms="2.8093081712722778e-01" purity="8.6384378373622894e-02" nType="-99"/>
            <Node pos="r" depth="3" NCoef="0" IVar="-1" Cut="0.0000000000000000e+00" cType="1" res="-1.4063738286495209e-01" rms="1.2843537330627441e-01" purity="1.6777116805315018e-02" nType="-99"/>
          </Node>
          <Node pos="r" depth="2" NCoef="0" IVar="10" Cut="1.6509315967559814e+00" cType="1" res="-4.8468583822250366e-01" rms="1.2279915064573288e-01" purity="1.5314154326915741e-02" nType="0">
            <Node pos="l" depth="3" NCoef="0" IVar="-1" Cut="0.0000000000000000e+00" cType="1" res="-1.4787144958972931e-01" rms="9.4607234001159668e-02" purity="9.0321088209748268e-03" nType="-99"/>
            <Node pos="r" depth="3" NCoef="0" IVar="-1" Cut="0.0000000000000000e+00" cType="1" res="-1.3542127609252930e-01" rms="1.4799310266971588e-01" purity="2.2403892129659653e-02" nType="-99"/>
          </Node>
        </Node>
      </Node>
    </BinaryTree>
    <BinaryTree type="DecisionTree" boostWeight="1.0000000000000000e+00" itree="1">
      <Node pos="s" depth="0" NCoef="0" IVar="0" Cut="2.8500878906250000e+02" cType="1" res="1.4962873421609402e-02" rms="4.7911542654037476e-01" purity="4.9934974312782288e-01" nType="0">
        <Node pos="l" depth="1" NCoef="0" IVar="0" Cut="2.0415963745117188e+02" cType="1" res="1.2467949092388153e-01" rms="4.7401845455169678e-01" purity="6.2235498428344727e-01" nType="0">
          <Node pos="l" depth="2" NCoef="0" IVar="1" Cut="1.0519951629638672e+02" cType="1" res="2.3089246451854706e-01" rms="4.3693667650222778e-01" purity="7.3585605621337891e-01" nType="0">
            <Node pos="l" depth="3" NCoef="0" IVar="-1" Cut="0.0000000000000000e+00" cType="1" res="1.6601094976067543e-02" rms="4.1571706533432007e-01" purity="7.7491015195846558e-01" nType="-99"/>
            <Node pos="r" depth="3" NCoef="0" IVar="-1" Cut="0.0000000000000000e+00" cType="1" res="-2.4524658918380737e-02" rms="4.4776138663291931e-01" purity="2.8927567601203918e-01" nType="-99"/>
          </Node>
          <Node pos="r" depth="2" NCoef="0" IVar="0" Cut="2.1955935668945312e+02" cType="1" res="-2.7550199627876282e-01" rms="3.8641557097434998e-01" purity="1.9471377134323120e-01" nType="0">
            <Node pos="l" depth="3" NCoef="0" IVar="-1" Cut="0.0000000000000000e+00" cType="1" res="-1.0143944993615150e-02" rms="4.8229521512985229e-01" purity="3.9434599876403809e-01" nType="-99"/>
            <Node pos="r" depth="3" NCoef="0" IVar="-1" Cut="0.0000000000000000e+00" cType="1" res="-7.0347242057323456e-02" rms="3.0926594138145447e-01" purity="1.1068749427795410e-01" nType="-99"/>
          </Node>
        </Node>
        <Node pos="r" depth="1" NCoef="0" IVar="10" Cut="2.1463191509246826e+00" cType="1" res="-4.1718170046806335e-01" rms="1.2051551789045334e-01" purity="1.4864822849631310e-02" nType="0">
          <Node pos="l" depth="2" NCoef="0" IVar="2" Cut="1.6374238586425781e+02" cType="1" res="-4.2141908407211304e-01" rms="9.5510922372341156e-02" purity="9.2135062441229820e-03" nType="0">
            <Node pos="l" depth="3" NCoef="0" IVar="-1" Cut="0.0000000000000000e+00" cType="1" res="-1.3391111791133881e-01" rms="6.8849138915538788e-02" purity="4.7443574294447899e-03" nType="-99"/>
            <Node pos="r" depth="3" NCoef="0" IVar="-1" Cut="0.0000000000000000e+00" cType="1" res="-1.2659575045108795e-01" rms="1.1005373299121857e-01" purity="1.2288671918213367e-02" nType="-99"/>
          </Node>
          <Node pos="r" depth="2" NCoef="0" IVar="4" Cut="3.1571459770202637e+00" cType="1" res="-4.1005325317382812e-01" rms="1.5339493751525879e-01" purity="2.4371858686208725e-02" nType="0">
            <Node pos="l" depth="3" NCoef="0" IVar="-1" Cut="0.0000000000000000e+00" cType="1" res="-1.0804900527000427e-01" rms="1.8144093453884125e-01" purity="3.4419469535350800e-02" nType="-99"/>
            <Node pos="r" depth="3" NCoef="0" IVar="-1" Cut="0.0000000000000000e+00" cType="1" res="-1.3244788348674774e-01" rms="8.3116784691810608e-02" purity="6.9802249781787395e-03" nType="-99"/>
          </Node>
        </Node>
      </Node>
    </BinaryTree>
    <BinaryTree type="DecisionTree" boostWeight="1.0000000000000000e+00" itree="2">
      <Node pos="s" depth="0" NCoef="0" IVar="0" Cut="2.2852595520019531e+02" cType="1" res="2.8038838878273964e-02" rms="4.6268177032470703e-01" purity="5.0015252828598022e-01" nType="0">
        <Node pos="l" depth="1" NCoef="0" IVar="1" Cut="1.0673593139648438e+02" cType="1" res="1.8894800543785095e-01" rms="4.5133915543556213e-01" purity="6.9712704420089722e-01" nType="0">
          <Node pos="l" depth="2" NCoef="0" IVar="1" Cut="5.4698234558105469e+01" cType="1" res="2.3788800835609436e-01" rms="4.2904597520828247e-01" purity="7.5145339965820312e-01" nType="0">
            <Node pos="l" depth="3" NCoef="0" IVar="-1" Cut="0.0000000000000000e+00" cType="1" res="-3.0301162973046303e-02" rms="4.3909373879432678e-01" purity="2.6249432563781738e-01" nType="-99"/>
            <Node pos="r" depth="3" NCoef="0" IVar="-1" Cut="0.0000000000000000e+00" cType="1" res="1.6617259010672569e-02" rms="4.0833449363708496e-01" purity="7.8658813238143921e-01" nType="-99"/>
          </Node>
          <Node pos="r" depth="2" NCoef="0" IVar="1" Cut="1.1627614593505859e+02" cType="1" res="-2.0647044479846954e-01" rms="4.3194389343261719e-01" purity="2.5818926095962524e-01" nType="0">
            <Node pos="l" depth="3" NCoef="0" IVar="-1" Cut="0.0000000000000000e+00" cType="1" res="-2.6058012153953314e-03" rms="4.9731454253196716e-01" purity="4.5419642329216003e-01" nType="-99"/>
            <Node pos="r" depth="3" NCoef="0" IVar="-1" Cut="0.0000000000000000e+00" cType="1" res="-5.2488245069980621e-02" rms="3.6011195182800293e-01" purity="1.5602435171604156e-01" nType="-99"/>
          </Node>
        </Node>
        <Node pos="r" depth="1" NCoef="0" IVar="7" Cut="1.7124832868576050e+00" cType="1" res="-3.4935650229454041e-01" rms="1.8771359324455261e-01" purity="3.8169626146554947e-02" nType="0">
          <Node pos="l" depth="2" NCoef="0" IVar="-1" Cut="0.0000000000000000e+00" cType="1" res="-7.0047304034233093e-02" rms="2.6963037252426147e-01" purity="8.4241412580013275e-02" nType="-99"/>
          <Node pos="r" depth="2" NCoef="0" IVar="2" Cut="1.5403195190429688e+02" cType="1" res="-3.5551360249519348e-01" rms="1.6996651887893677e-01" purity="3.0697470530867577e-02" nType="0">
            <Node pos="l" depth="3" NCoef="0" IVar="-1" Cut="0.0000000000000000e+00" cType="1" res="-1.0539429634809494e-01" rms="1.6416360437870026e-01" purity="2.8485262766480446e-02" nType="-99"/>
            <Node pos="r" depth="3" NCoef="0" IVar="-1" Cut="0.0000000000000000e+00" cType="1" res="-9.9224038422107697e-02" rms="1.7489732801914215e-01" purity="3.2815519720315933e-02" nType="-99"/>
          </Node>
        </Node>
      </Node>
    </BinaryTree>
    <BinaryTree type="DecisionTree" boostWeight="1.0000000000000000e+00" itree="3">
      <Node pos="s" depth="0" NCoef="0" IVar="0" Cut="2.8095349121093750e+02" cType="1" res="3.8734134286642075e-02" rms="4.4815698266029358e-01" purity="5.0007987022399902e-01" nType="0">
        <Node pos="l" depth="1" NCoef="0" IVar="0" Cut="2.1159602355957031e+02" cType="1" res="1.3137561082839966e-01" rms="4.5674815773963928e-01" purity="6.2781685590744019e-01" nType="0">
          <Node pos="l" depth="2" NCoef="0" IVar="1" Cut="1.0823003387451172e+02" cType="1" res="2.1027106046676636e-01" rms="4.3644472956657410e-01" purity="7.2579789161682129e-01" nType="0">
            <Node pos="l" depth="3" NCoef="0" IVar="-1" Cut="0.0000000000000000e+00" cType="1" res="1.5361884608864784e-02" rms="4.1905516386032104e-01" purity="7.6662623882293701e-01" nType="-99"/>
            <Node pos="r" depth="3" NCoef="0" IVar="-1" Cut="0.0000000000000000e+00" cType="1" res="-2.8541199862957001e-02" rms="4.2257633805274963e-01" purity="2.4582873284816742e-01" nType="-99"/>
          </Node>
          <Node pos="r" depth="2" NCoef="0" IVar="10" Cut="2.0941026210784912e+00" cType="1" res="-2.5375282764434814e-01" rms="3.4414479136466980e-01" purity="1.4952236413955688e-01" nType="0">
            <Node pos="l" depth="3" NCoef="0" IVar="-1" Cut="0.0000000000000000e+00" cType="1" res="-6.9340690970420837e-02" rms="2.8033143281936646e-01" purity="9.0860873460769653e-02" nType="-99"/>
            <Node pos="r" depth="3" NCoef="0" IVar="-1" Cut="0.0000000000000000e+00" cType="1" res="-2.9303289949893951e-02" rms="3.9470273256301880e-01" purity="2.1509386599063873e-01" nType="-99"/>
          </Node>
        </Node>
        <Node pos="r" depth="1" NCoef="0" IVar="4" Cut="2.6550052165985107e+00" cType="1" res="-3.1216251850128174e-01" rms="1.2554866075515747e-01" purity="1.6252562403678894e-02" nType="0">
          <Node pos="l" depth="2" NCoef="0" IVar="7" Cut="2.8424160480499268e+00" cType="1" res="-3.0796608328819275e-01" rms="1.4423447847366333e-01" purity="2.1665714681148529e-02" nType="0">
            <Node pos="l" depth="3" NCoef="0" IVar="-1" Cut="0.0000000000000000e+00" cType="1" res="-8.5731193423271179e-02" rms="1.9509367644786835e-01" purity="4.0201753377914429e-02" nType="-99"/>
            <Node pos="r" depth="3" NCoef="0" IVar="-1" Cut="0.0000000000000000e+00" cType="1" res="-1.0877329111099243e-01" rms="8.8935613632202148e-02" purity="7.9699931666254997e-03" nType="-99"/>
          </Node>
          <Node pos="r" depth="2" NCoef="0" IVar="16" Cut="3.4054790496826172e+01" cType="1" res="-3.1634378433227539e-01" rms="1.0346268117427826e-01" purity="1.0858959518373013e-02" nType="0">
            <Node pos="l" depth="3" NCoef="0" IVar="-1" Cut="0.0000000000000000e+00" cType="1" res="-1.1122501641511917e-01" rms="8.8487595319747925e-02" purity="7.8849745914340019e-03" nType="-99"/>
            <Node pos="r" depth="3" NCoef="0" IVar="-1" Cut="0.0000000000000000e+00" cType="1" res="-1.0272054374217987e-01" rms="1.2188889086246490e-01" purity="1.5187232755124569e-02" nType="-99"/>
          </Node>
        </Node>
      </Node>
    </BinaryTree>
    <BinaryTree type="DecisionTree" boostWeight="1.0000000000000000e+00" itree="4">
      <Node pos="s" depth="0" NCoef="0" IVar="0" Cut="2.7858297729492188e+02" cType="1" res="4.6810515224933624e-02" rms="4.3667390942573547e-01" purity="4.9983397126197815e-01" nType="0">
        <Node pos="l" depth="1" NCoef="0" IVar="0" Cut="2.0919198608398438e+02" cType="1" res="1.3157583773136139e-01" rms="4.5127218961715698e-01" purity="6.2970107793807983e-01" nType="0">
          <Node pos="l" depth="2" NCoef="0" IVar="1" Cut="1.0848421478271484e+02" cType="1" res="2.0757342875003815e-01" rms="4.3334069848060608e-01" purity="7.2956037521362305e-01" nType="0">
            <Node pos="l" depth="3" NCoef="0" IVar="-1" Cut="0.0000000000000000e+00" cType="1" res="1.4982117339968681e-02" rms="4.1820913553237915e-01" purity="7.6804304122924805e-01" nType="-99"/>
            <Node pos="r" depth="3" NCoef="0" IVar="-1" Cut="0.0000000000000000e+00" cType="1" res="-2.8197847306728363e-02" rms="4.1873413324356079e-01" purity="2.3850573599338531e-01" nType="-99"/>
          </Node>
          <Node pos="r" depth="2" NCoef="0" IVar="7" Cut="2.0568532943725586e+00" cType="1" res="-2.2441193461418152e-01" rms="3.5237452387809753e-01" purity="1.6194024682044983e-01" nType="0">
            <Node pos="l" depth="3" NCoef="0" IVar="-1" Cut="0.0000000000000000e+00" cType="1" res="-2.0505927503108978e-02" rms="4.1241458058357239e-01" purity="2.4994105100631714e-01" nType="-99"/>
            <Node pos="r" depth="3" NCoef="0" IVar="-1" Cut="0.0000000000000000e+00" cType="1" res="-5.4579004645347595e-02" rms="3.1161245703697205e-01" purity="1.1863336712121964e-01" nType="-99"/>
          </Node>
        </Node>
        <Node pos="r" depth="1" NCoef="0" IVar="10" Cut="1.4407539367675781e+00" cType="1" res="-2.6827016472816467e-01" rms="1.2852087616920471e-01" purity="1.7105720937252045e-02" nType="0">
          <Node pos="l" depth="2" NCoef="0" IVar="8" Cut="2.0399319458007812e+02" cType="1" res="-2.7288228273391724e-01" rms="8.8175654411315918e-02" purity="7.7809146605432034e-03" nType="0">
            <Node pos="l" depth="3" NCoef="0" IVar="-1" Cut="0.0000000000000000e+00" cType="1" res="-9.9502027034759521e-02" rms="1.0739443451166153e-01" purity="1.1680686846375465e-02" nType="-99"/>
            <Node pos="r" depth="3" NCoef="0" IVar="-1" Cut="0.0000000000000000e+00" cType="1" res="-1.0538659989833832e-01" rms="5.7851471006870270e-02" purity="3.2381906639784575e-03" nType="-99"/>
          </Node>
          <Node pos="r" depth="2" NCoef="0" IVar="2" Cut="1.4430191040039062e+02" cType="1" res="-2.6522490382194519e-01" rms="1.4922085404396057e-01" purity="2.3262659087777138e-02" nType="0">
            <Node pos="l" depth="3" NCoef="0" IVar="-1" Cut="0.0000000000000000e+00" cType="1" res="-9.9930576980113983e-02" rms="1.0673858225345612e-01" purity="1.1660297401249409e-02" nType="-99"/>
            <Node pos="r" depth="3" NCoef="0" IVar="-1" Cut="0.0000000000000000e+00" cType="1" res="-8.5813656449317932e-02" rms="1.6851696372032166e-01" purity="2.9885981231927872e-02" nType="-99"/>
          </Node>
        </Node>
      </Node>
    </BinaryTree>
    <BinaryTree type="DecisionTree" boostWeight="1.0000000000000000e+00" itree="5">
      <Node pos="s" depth="0" NCoef="0" IVar="0" Cut="2.8079486083984375e+02" cType="1" res="5.3849678486585617e-02" rms="4.2710244655609131e-01" purity="5.0008469820022583e-01" nType="0">
        <Node pos="l" depth="1" NCoef="0" IVar="0" Cut="1.9987579345703125e+02" cType="1" res="1.2914137542247772e-01" rms="4.4647368788719177e-01" purity="6.2766855955123901e-01" nType="0">
          <Node pos="l" depth="2" NCoef="0" IVar="0" Cut="1.3051678466796875e+02" cType="1" res="2.1282261610031128e-01" rms="4.2612814903259277e-01" purity="7.4264746904373169e-01" nType="0">
            <Node pos="l" depth="3" NCoef="0" IVar="-1" Cut="0.0000000000000000e+00" cType="1" res="-2.6871155947446823e-02" rms="4.5743104815483093e-01" purity="3.0543440580368042e-01" nType="-99"/>
            <Node pos="r" depth="3" NCoef="0" IVar="-1" Cut="0.0000000000000000e+00" cType="1" res="1.5281692147254944e-02" rms="4.0533044934272766e-01" purity="7.7577537298202515e-01" nType="-99"/>
          </Node>
          <Node pos="r" depth="2" NCoef="0" IVar="0" Cut="2.1528892517089844e+02" cType="1" res="-1.5266607701778412e-01" rms="3.9513134956359863e-01" purity="2.4046233296394348e-01" nType="0">
            <Node pos="l" depth="3" NCoef="0" IVar="-1" Cut="0.0000000000000000e+00" cType="1" res="-9.3152350746095181e-04" rms="4.7984692454338074e-01" purity="4.7113043069839478e-01" nType="-99"/>
            <Node pos="r" depth="3" NCoef="0" IVar="-1" Cut="0.0000000000000000e+00" cType="1" res="-4.4134102761745453e-02" rms="3.2866331934928894e-01" purity="1.3357684016227722e-01" nType="-99"/>
          </Node>
        </Node>
        <Node pos="r" depth="1" NCoef="0" IVar="1" Cut="2.2123725891113281e+02" cType="1" res="-2.3232135176658630e-01" rms="1.2106874585151672e-01" purity="1.5160115435719490e-02" nType="0">
          <Node pos="l" depth="2" NCoef="0" IVar="1" Cut="1.4313009643554688e+02" cType="1" res="-2.2846539318561554e-01" rms="1.3819475471973419e-01" purity="1.9957710057497025e-02" nType="0">
            <Node pos="l" depth="3" NCoef="0" IVar="-1" Cut="0.0000000000000000e+00" cType="1" res="-9.3471981585025787e-02" rms="1.0363196581602097e-01" purity="1.1160388588905334e-02" nType="-99"/>
            <Node pos="r" depth="3" NCoef="0" IVar="-1" Cut="0.0000000000000000e+00" cType="1" res="-7.8991085290908813e-02" rms="1.7182776331901550e-01" purity="3.1066939234733582e-02" nType="-99"/>
          </Node>
          <Node pos="r" depth="2" NCoef="0" IVar="7" Cut="2.3153333663940430e+00" cType="1" res="-2.3713658750057220e-01" rms="9.5242395997047424e-02" purity="9.1689703986048698e-03" nType="0">
            <Node pos="l" depth="3" NCoef="0" IVar="-1" Cut="0.0000000000000000e+00" cType="1" res="-9.6243061125278473e-02" rms="1.0063220560550690e-01" purity="1.0263719595968723e-02" nType="-99"/>
            <Node pos="r" depth="3" NCoef="0" IVar="-1" Cut="0.0000000000000000e+00" cType="1" res="-9.6738390624523163e-02" rms="9.1893307864665985e-02" purity="8.5406880825757980e-03" nType="-99"/>
          </Node>
        </Node>
      </Node>
    </BinaryTree>
    <BinaryTree type="DecisionTree" boostWeight="1.0000000000000000e+00" itree="6">
      <Node pos="s" depth="0" NCoef="0" IVar="0" Cut="2.2044322204589844e+02" cType="1" res="5.8777090162038803e-02" rms="4.1923046112060547e-01" purity="4.9950277805328369e-01" nType="0">
        <Node pos="l" depth="1" NCoef="0" IVar="1" Cut="1.0637361145019531e+02" cType="1" res="1.8095782399177551e-01" rms="4.3684324622154236e-01" purity="7.0962309837341309e-01" nType="0">
          <Node pos="l" depth="2" NCoef="0" IVar="1" Cut="5.4543468475341797e+01" cType="1" res="2.1823871135711670e-01" rms="4.2073652148246765e-01" purity="7.5809746980667114e-01" nType="0">
            <Node pos="l" depth="3" NCoef="0" IVar="-1" Cut="0.0000000000000000e+00" cType="1" res="-2.9939938336610794e-02" rms="4.3736287951469421e-01" purity="2.6263812184333801e-01" nType="-99"/>
            <Node pos="r" depth="3" NCoef="0" IVar="-1" Cut="0.0000000000000000e+00" cType="1" res="1.5292153693735600e-02" rms="4.0140366554260254e-01" purity="7.9299181699752808e-01" nType="-99"/>
          </Node>
          <Node pos="r" depth="2" NCoef="0" IVar="4" Cut="2.1883015632629395e+00" cType="1" res="-1.5211431682109833e-01" rms="4.3690156936645508e-01" purity="2.7654734253883362e-01" nType="0">
            <Node pos="l" depth="3" NCoef="0" IVar="-1" Cut="0.0000000000000000e+00" cType="1" res="1.1770800920203328e-03" rms="4.8827815055847168e-01" purity="4.5097222924232483e-01" nType="-99"/>
            <Node pos="r" depth="3" NCoef="0" IVar="-1" Cut="0.0000000000000000e+00" cType="1" res="-4.1873127222061157e-02" rms="3.7215790152549744e-01" purity="1.7536775767803192e-01" nType="-99"/>
          </Node>
        </Node>
        <Node pos="r" depth="1" NCoef="0" IVar="5" Cut="1.5118807983398438e+02" cType="1" res="-2.0312727987766266e-01" rms="2.0697833597660065e-01" purity="4.9092676490545273e-02" nType="0">
          <Node pos="l" depth="2" NCoef="0" IVar="0" Cut="3.2372418212890625e+02" cType="1" res="-2.2820767760276794e-01" rms="1.7943315207958221e-01" purity="3.3973425626754761e-02" nType="0">
            <Node pos="l" depth="3" NCoef="0" IVar="-1" Cut="0.0000000000000000e+00" cType="1" res="-7.4948936700820923e-02" rms="2.1108129620552063e-01" purity="4.7667287290096283e-02" nType="-99"/>
            <Node pos="r" depth="3" NCoef="0" IVar="-1" Cut="0.0000000000000000e+00" cType="1" res="-9.4895802438259125e-02" rms="8.0427326261997223e-02" purity="6.5222322009503841e-03" nType="-99"/>
          </Node>
          <Node pos="r" depth="2" NCoef="0" IVar="10" Cut="1.8850246667861938e+00" cType="1" res="-1.9478671252727509e-01" rms="2.1471120417118073e-01" purity="5.4120626300573349e-02" nType="0">
            <Node pos="l" depth="3" NCoef="0" IVar="-1" Cut="0.0000000000000000e+00" cType="1" res="-7.9925626516342163e-02" rms="1.5929080545902252e-01" purity="2.7079621329903603e-02" nType="-99"/>
            <Node pos="r" depth="3" NCoef="0" IVar="-1" Cut="0.0000000000000000e+00" cType="1" res="-4.6315439045429230e-02" rms="2.6854258775711060e-01" purity="8.9110724627971649e-02" nType="-99"/>
          </Node>
        </Node>
      </Node>
    </BinaryTree>
    <BinaryTree type="DecisionTree" boostWeight="1.0000000000000000e+00" itree="7">
      <Node pos="s" depth="0" NCoef="0" IVar="0" Cut="2.4445637512207031e+02" cType="1" res="6.3251420855522156e-02" rms="4.1122841835021973e-01" purity="4.9887987971305847e-01" nType="0">
        <Node pos="l" depth="1" NCoef="0" IVar="1" Cut="1.0534095001220703e+02" cType="1" res="1.5281432867050171e-01" rms="4.3760874867439270e-01" purity="6.7116236686706543e-01" nType="0">
          <Node pos="l" depth="2" NCoef="0" IVar="1" Cut="5.8370723724365234e+01" cType="1" res="1.9941130280494690e-01" rms="4.2257371544837952e-01" purity="7.3836976289749146e-01" nType="0">
            <Node pos="l" depth="3" NCoef="0" IVar="-1" Cut="0.0000000000000000e+00" cType="1" res="-1.8783494830131531e-02" rms="4.5260381698608398e-01" purity="3.2166931033134460e-01" nType="-99"/>
            <Node pos="r" depth="3" NCoef="0" IVar="-1" Cut="0.0000000000000000e+00" cType="1" res="1.4629343524575233e-02" rms="4.0271481871604919e-01" purity="7.7917504310607910e-01" nType="-99"/>
          </Node>
          <Node pos="r" depth="2" NCoef="0" IVar="4" Cut="2.0696558952331543e+00" cType="1" res="-1.3650718331336975e-01" rms="4.1786766052246094e-01" purity="2.5387001037597656e-01" nType="0">
            <Node pos="l" depth="3" NCoef="0" IVar="-1" Cut="0.0000000000000000e+00" cType="1" res="3.5748279187828302e-03" rms="4.8271256685256958e-01" purity="4.5458656549453735e-01" nType="-99"/>
            <Node pos="r" depth="3" NCoef="0" IVar="-1" Cut="0.0000000000000000e+00" cType="1" res="-3.8034792989492416e-02" rms="3.6167284846305847e-01" purity="1.6730345785617828e-01" nType="-99"/>
          </Node>
        </Node>
        <Node pos="r" depth="1" NCoef="0" IVar="5" Cut="2.0359713745117188e+02" cType="1" res="-1.8164324760437012e-01" rms="1.6116195917129517e-01" purity="2.7802385389804840e-02" nType="0">
          <Node pos="l" depth="2" NCoef="0" IVar="0" Cut="3.4659350585937500e+02" cType="1" res="-1.9125773012638092e-01" rms="1.4385411143302917e-01" purity="2.1159587427973747e-02" nType="0">
            <Node pos="l" depth="3" NCoef="0" IVar="-1" Cut="0.0000000000000000e+00" cType="1" res="-7.7401287853717804e-02" rms="1.7071519792079926e-01" purity="2.9995137825608253e-02" nType="-99"/>
            <Node pos="r" depth="3" NCoef="0" IVar="-1" Cut="0.0000000000000000e+00" cType="1" res="-9.1303884983062744e-02" rms="7.9618617892265320e-02" purity="6.3894488848745823e-03" nType="-99"/>
          </Node>
          <Node pos="r" depth="2" NCoef="0" IVar="7" Cut="2.0697400569915771e+00" cType="1" res="-1.7363288998603821e-01" rms="1.7386880517005920e-01" purity="3.3336862921714783e-02" nType="0">
            <Node pos="l" depth="3" NCoef="0" IVar="-1" Cut="0.0000000000000000e+00" cType="1" res="-4.5148245990276337e-02" rms="2.6427301764488220e-01" purity="8.1444516777992249e-02" nType="-99"/>
            <Node pos="r" depth="3" NCoef="0" IVar="-1" Cut="0.0000000000000000e+00" cType="1" res="-7.9014442861080170e-02" rms="1.3978199660778046e-01" purity="2.0513983443379402e-02" nType="-99"/>
          </Node>
        </Node>
      </Node>
    </BinaryTree>
    <BinaryTree type="DecisionTree" boostWeight="1.0000000000000000e+00" itree="8">
      <Node pos="s" depth="0" NCoef="0" IVar="0" Cut="2.8079486083984375e+02" cType="1" res="6.8762540817260742e-02" rms="4.0462139248847961e-01" purity="5.0078153610229492e-01" nType="0">
        <Node pos="l" depth="1" NCoef="0" IVar="0" Cut="1.9987586975097656e+02" cType="1" res="1.2714551389217377e-01" rms="4.3156981468200684e-01" purity="6.2822920083999634e-01" nType="0">
          <Node pos="l" depth="2" NCoef="0" IVar="0" Cut="1.3051678466796875e+02" cType="1" res="1.9771765172481537e-01" rms="4.1934031248092651e-01" purity="7.4301147460937500e-01" nType="0">
            <Node pos="l" depth="3" NCoef="0" IVar="-1" Cut="0.0000000000000000e+00" cType="1" res="-2.5577865540981293e-02" rms="4.5567125082015991e-01" purity="3.0398452281951904e-01" nType="-99"/>
            <Node pos="r" depth="3" NCoef="0" IVar="-1" Cut="0.0000000000000000e+00" cType="1" res="1.4350902289152145e-02" rms="4.0000605583190918e-01" purity="7.7628588676452637e-01" nType="-99"/>
          </Node>
          <Node pos="r" depth="2" NCoef="0" IVar="5" Cut="2.4725883483886719e+02" cType="1" res="-1.1189510673284531e-01" rms="3.8404443860054016e-01" purity="2.3944060504436493e-01" nType="0">
            <Node pos="l" depth="3" NCoef="0" IVar="-1" Cut="0.0000000000000000e+00" cType="1" res="-2.4404712021350861e-02" rms="3.6491218209266663e-01" purity="2.0308582484722137e-01" nType="-99"/>
            <Node pos="r" depth="3" NCoef="0" IVar="-1" Cut="0.0000000000000000e+00" cType="1" res="7.6884897425770760e-03" rms="4.3596863746643066e-01" purity="4.5613178610801697e-01" nType="-99"/>
          </Node>
        </Node>
        <Node pos="r" depth="1" NCoef="0" IVar="0" Cut="5.1199172973632812e+02" cType="1" res="-1.5304243564605713e-01" rms="1.2633901834487915e-01" purity="1.6590233892202377e-02" nType="0">
          <Node pos="l" depth="2" NCoef="0" IVar="0" Cut="3.3584161376953125e+02" cType="1" res="-1.5112292766571045e-01" rms="1.3680760562419891e-01" purity="1.9556453451514244e-02" nType="0">
            <Node pos="l" depth="3" NCoef="0" IVar="-1" Cut="0.0000000000000000e+00" cType="1" res="-6.6506654024124146e-02" rms="1.7347997426986694e-01" purity="3.1961251050233841e-02" nType="-99"/>
            <Node pos="r" depth="3" NCoef="0" IVar="-1" Cut="0.0000000000000000e+00" cType="1" res="-8.3314642310142517e-02" rms="1.0499251633882523e-01" purity="1.1242407374083996e-02" nType="-99"/>
          </Node>
          <Node pos="r" depth="2" NCoef="0" IVar="-1" Cut="0.0000000000000000e+00" cType="1" res="-8.6740255355834961e-02" rms="8.3353973925113678e-02" purity="6.9396262988448143e-03" nType="-99"/>
        </Node>
      </Node>
    </BinaryTree>
    <BinaryTree type="DecisionTree" boostWeight="1.0000000000000000e+00" itree="9">
      <Node pos="s" depth="0" NCoef="0" IVar="0" Cut="2.4445637512207031e+02" cType="1" res="7.1509391069412231e-02" rms="3.9977589249610901e-01" purity="5.0120609998703003e-01" nType="0">
        <Node pos="l" depth="1" NCoef="0" IVar="1" Cut="1.0742982482910156e+02" cType="1" res="1.4813876152038574e-01" rms="4.3156233429908752e-01" purity="6.7314988374710083e-01" nType="0">
          <Node pos="l" depth="2" NCoef="0" IVar="1" Cut="5.0626636505126953e+01" cType="1" res="1.8927447497844696e-01" rms="4.1947755217552185e-01" purity="7.3743420839309692e-01" nType="0">
            <Node pos="l" depth="3" NCoef="0" IVar="-1" Cut="0.0000000000000000e+00" cType="1" res="-4.3017320334911346e-02" rms="3.8269865512847900e-01" purity="1.8527269363403320e-01" nType="-99"/>
            <Node pos="r" depth="3" NCoef="0" IVar="-1" Cut="0.0000000000000000e+00" cType="1" res="1.3586721383035183e-02" rms="4.0716359019279480e-01" purity="7.6702380180358887e-01" nType="-99"/>
          </Node>
          <Node pos="r" depth="2" NCoef="0" IVar="4" Cut="2.0540142059326172e+00" cType="1" res="-1.3420881330966949e-01" rms="4.0682068467140198e-01" purity="2.3191475868225098e-01" nType="0">
            <Node pos="l" depth="3" NCoef="0" IVar="-1" Cut="0.0000000000000000e+00" cType="1" res="3.1081254128366709e-03" rms="4.8426571488380432e-01" purity="4.3699756264686584e-01" nType="-99"/>
            <Node pos="r" depth="3" NCoef="0" IVar="-1" Cut="0.0000000000000000e+00" cType="1" res="-3.8271266967058182e-02" rms="3.5241767764091492e-01" purity="1.5273140370845795e-01" nType="-99"/>
          </Node>
        </Node>
        <Node pos="r" depth="1" NCoef="0" IVar="2" Cut="1.5917033386230469e+02" cType="1" res="-1.3909718394279480e-01" rms="1.6340215504169464e-01" purity="2.8639288619160652e-02" nType="0">
          <Node pos="l" depth="2" NCoef="0" IVar="0" Cut="3.1874060058593750e+02" cType="1" res="-1.5011590719223022e-01" rms="1.4779597520828247e-01" purity="2.2882588207721710e-02" nType="0">
            <Node pos="l" depth="3" NCoef="0" IVar="-1" Cut="0.0000000000000000e+00" cType="1" res="-6.6582821309566498e-02" rms="1.8708021938800812e-01" purity="3.7211026996374130e-02" nType="-99"/>
            <Node pos="r" depth="3" NCoef="0" IVar="-1" Cut="0.0000000000000000e+00" cType="1" res="-8.5124619305133820e-02" rms="7.6537013053894043e-02" purity="5.8826035819947720e-03" nType="-99"/>
          </Node>
          <Node pos="r" depth="2" NCoef="0" IVar="4" Cut="1.8997833728790283e+00" cType="1" res="-1.2928467988967896e-01" rms="1.7555859684944153e-01" purity="3.3765807747840881e-02" nType="0">
            <Node pos="l" depth="3" NCoef="0" IVar="-1" Cut="0.0000000000000000e+00" cType="1" res="-4.8268727958202362e-02" rms="2.1498070657253265e-01" purity="5.3969696164131165e-02" nType="-99"/>
            <Node pos="r" depth="3" NCoef="0" IVar="-1" Cut="0.0000000000000000e+00" cType="1" res="-7.0143617689609528e-02" rms="1.5336267650127411e-01" purity="2.4325028061866760e-02" nType="-99"/>
          </Node>
        </Node>
      </Node>
    </BinaryTree>
    <BinaryTree type="DecisionTree" boostWeight="1.0000000000000000e+00" itree="10">
      <Node pos="s" depth="0" NCoef="0" IVar="0" Cut="2.1823133850097656e+02" cType="1" res="7.3103927075862885e-02" rms="3.9460974931716919e-01" purity="5.0008010864257812e-01" nType="0">
        <Node pos="l" depth="1" NCoef="0" IVar="5" Cut="1.4560740661621094e+02" cType="1" res="1.6786928474903107e-01" rms="4.2542400956153870e-01" purity="7.1361207962036133e-01" nType="0">
          <Node pos="l" depth="2" NCoef="0" IVar="1" Cut="1.0158581542968750e+02" cType="1" res="4.1800923645496368e-02" rms="4.6513837575912476e-01" purity="5.7523250579833984e-01" nType="0">
            <Node pos="l" depth="3" NCoef="0" IVar="-1" Cut="0.0000000000000000e+00" cType="1" res="6.8675661459565163e-03" rms="4.6340975165367126e-01" purity="6.5456503629684448e-01" nType="-99"/>
            <Node pos="r" depth="3" NCoef="0" IVar="-1" Cut="0.0000000000000000e+00" cType="1" res="-2.7559673413634300e-02" rms="4.0167540311813354e-01" purity="2.3153522610664368e-01" nType="-99"/>
          </Node>
          <Node pos="r" depth="2" NCoef="0" IVar="1" Cut="6.0798900604248047e+01" cType="1" res="2.4891717731952667e-01" rms="3.7611365318298340e-01" purity="8.0257469415664673e-01" nType="0">
            <Node pos="l" depth="3" NCoef="0" IVar="-1" Cut="0.0000000000000000e+00" cType="1" res="-5.6325080804526806e-03" rms="4.7480177879333496e-01" purity="4.3177497386932373e-01" nType="-99"/>
            <Node pos="r" depth="3" NCoef="0" IVar="-1" Cut="0.0000000000000000e+00" cType="1" res="1.6531543806195259e-02" rms="3.4898853302001953e-01" purity="8.4134840965270996e-01" nType="-99"/>
          </Node>
        </Node>
        <Node pos="r" depth="1" NCoef="0" IVar="2" Cut="1.6371080017089844e+02" cType="1" res="-1.2550811469554901e-01" rms="2.1092569828033447e-01" purity="5.2553415298461914e-02" nType="0">
          <Node pos="l" depth="2" NCoef="0" IVar="1" Cut="9.2764167785644531e+01" cType="1" res="-1.3994070887565613e-01" rms="2.1281471848487854e-01" purity="5.2179642021656036e-02" nType="0">
            <Node pos="l" depth="3" NCoef="0" IVar="-1" Cut="0.0000000000000000e+00" cType="1" res="-6.5922476351261139e-02" rms="2.0091092586517334e-01" purity="4.1909378021955490e-02" nType="-99"/>
            <Node pos="r" depth="3" NCoef="0" IVar="-1" Cut="0.0000000000000000e+00" cType="1" res="-4.9597680568695068e-02" rms="2.1599288284778595e-01" purity="5.6151375174522400e-02" nType="-99"/>
          </Node>
          <Node pos="r" depth="2" NCoef="0" IVar="4" Cut="1.9006086587905884e+00" cType="1" res="-1.0823969542980194e-01" rms="2.0732702314853668e-01" purity="5.3000628948211670e-02" nType="0">
            <Node pos="l" depth="3" NCoef="0" IVar="-1" Cut="0.0000000000000000e+00" cType="1" res="-2.5195559486746788e-02" rms="2.7553689479827881e-01" purity="1.0456070303916931e-01" nType="-99"/>
            <Node pos="r" depth="3" NCoef="0" IVar="-1" Cut="0.0000000000000000e+00" cType="1" res="-6.6908277571201324e-02" rms="1.5869715809822083e-01" purity="2.5928173214197159e-02" nType="-99"/>
          </Node>
        </Node>
      </Node>
    </BinaryTree>
    <BinaryTree type="DecisionTree" boostWeight="1.0000000000000000e+00" itree="11">
      <Node pos="s" depth="0" NCoef="0" IVar="4" Cut="1.8833513259887695e+00" cType="1" res="7.4708424508571625e-02" rms="3.8998836278915405e-01" purity="4.9982604384422302e-01" nType="0">
        <Node pos="l" depth="1" NCoef="0" IVar="0" Cut="2.0235163879394531e+02" cType="1" res="1.6099727153778076e-01" rms="3.9134290814399719e-01" purity="6.5413951873779297e-01" nType="0">
          <Node pos="l" depth="2" NCoef="0" IVar="1" Cut="5.5492004394531250e+01" cType="1" res="2.3372486233711243e-01" rms="3.8201713562011719e-01" purity="7.9987847805023193e-01" nType="0">
            <Node pos="l" depth="3" NCoef="0" IVar="-1" Cut="0.0000000000000000e+00" cType="1" res="-1.9404670223593712e-02" rms="4.5076826214790344e-01" purity="3.0028134584426880e-01" nType="-99"/>
            <Node pos="r" depth="3" NCoef="0" IVar="-1" Cut="0.0000000000000000e+00" cType="1" res="1.6108892858028412e-02" rms="3.5056743025779724e-01" purity="8.5088783502578735e-01" nType="-99"/>
          </Node>
          <Node pos="r" depth="2" NCoef="0" IVar="7" Cut="2.1257059574127197e+00" cType="1" res="-8.0195501446723938e-02" rms="3.1835871934890747e-01" purity="1.7081294953823090e-01" nType="0">
            <Node pos="l" depth="3" NCoef="0" IVar="-1" Cut="0.0000000000000000e+00" cType="1" res="8.9882565662264824e-03" rms="4.4292154908180237e-01" purity="4.6172720193862915e-01" nType="-99"/>
            <Node pos="r" depth="3" NCoef="0" IVar="-1" Cut="0.0000000000000000e+00" cType="1" res="-4.1642569005489349e-02" rms="2.4828223884105682e-01" purity="8.3930030465126038e-02" nType="-99"/>
          </Node>
        </Node>
        <Node pos="r" depth="1" NCoef="0" IVar="6" Cut="-5.3231636047363281e+01" cType="1" res="-3.6807186901569366e-02" rms="3.5869887471199036e-01" purity="3.0039849877357483e-01" nType="0">
          <Node pos="l" depth="2" NCoef="0" IVar="0" Cut="2.6039364624023438e+02" cType="1" res="7.6384983956813812e-02" rms="3.7707820534706116e-01" purity="4.6711009740829468e-01" nType="0">
            <Node pos="l" depth="3" NCoef="0" IVar="-1" Cut="0.0000000000000000e+00" cType="1" res="1.1482592672109604e-02" rms="4.1889151930809021e-01" purity="6.7355668544769287e-01" nType="-99"/>
            <Node pos="r" depth="3" NCoef="0" IVar="-1" Cut="0.0000000000000000e+00" cType="1" res="-6.4188927412033081e-02" rms="1.4752388000488281e-01" purity="2.3034377023577690e-02" nType="-99"/>
          </Node>
          <Node pos="r" depth="2" NCoef="0" IVar="4" Cut="2.4227845668792725e+00" cType="1" res="-7.1801647543907166e-02" rms="3.4539595246315002e-01" purity="2.4885801970958710e-01" nType="0">
            <Node pos="l" depth="3" NCoef="0" IVar="-1" Cut="0.0000000000000000e+00" cType="1" res="5.3743319585919380e-04" rms="4.1238126158714294e-01" purity="4.2506057024002075e-01" nType="-99"/>
            <Node pos="r" depth="3" NCoef="0" IVar="-1" Cut="0.0000000000000000e+00" cType="1" res="-3.1042745336890221e-02" rms="2.7984356880187988e-01" purity="1.2980140745639801e-01" nType="-99"/>
          </Node>
        </Node>
      </Node>
    </BinaryTree>
    <BinaryTree type="DecisionTree" boostWeight="1.0000000000000000e+00" itree="12">
      <Node pos="s" depth="0" NCoef="0" IVar="0" Cut="2.4469499206542969e+02" cType="1" res="7.6279811561107635e-02" rms="3.8640835881233215e-01" purity="5.0128787755966187e-01" nType="0">
        <Node pos="l" depth="1" NCoef="0" IVar="1" Cut="1.1576049804687500e+02" cType="1" res="1.4115492999553680e-01" rms="4.2258560657501221e-01" purity="6.7329365015029907e-01" nType="0">
          <Node pos="l" depth="2" NCoef="0" IVar="0" Cut="1.3644602966308594e+02" cType="1" res="1.7161981761455536e-01" rms="4.1698414087295532e-01" purity="7.2605609893798828e-01" nType="0">
            <Node pos="l" depth="3" NCoef="0" IVar="-1" Cut="0.0000000000000000e+00" cType="1" res="-1.3287440873682499e-02" rms="4.7471347451210022e-01" purity="3.9308923482894897e-01" nType="-99"/>
            <Node pos="r" depth="3" NCoef="0" IVar="-1" Cut="0.0000000000000000e+00" cType="1" res="1.3103383593261242e-02" rms="3.9828503131866455e-01" purity="7.6008814573287964e-01" nType="-99"/>
          </Node>
          <Node pos="r" depth="2" NCoef="0" IVar="5" Cut="1.4213781738281250e+02" cType="1" res="-1.5632686018943787e-01" rms="3.5628971457481384e-01" purity="1.5808221697807312e-01" nType="0">
            <Node pos="l" depth="3" NCoef="0" IVar="-1" Cut="0.0000000000000000e+00" cType="1" res="-5.4579973220825195e-02" rms="2.8434228897094727e-01" purity="8.9171595871448517e-02" nType="-99"/>
            <Node pos="r" depth="3" NCoef="0" IVar="-1" Cut="0.0000000000000000e+00" cType="1" res="-1.3963920064270496e-02" rms="4.2005726695060730e-01" purity="2.4395947158336639e-01" nType="-99"/>
          </Node>
        </Node>
        <Node pos="r" depth="1" NCoef="0" IVar="2" Cut="1.5842933654785156e+02" cType="1" res="-1.0268364101648331e-01" rms="1.5791541337966919e-01" purity="2.6795396581292152e-02" nType="0">
          <Node pos="l" depth="2" NCoef="0" IVar="0" Cut="3.1343743896484375e+02" cType="1" res="-1.1047549545764923e-01" rms="1.4144848287105560e-01" purity="2.0976996049284935e-02" nType="0">
            <Node pos="l" depth="3" NCoef="0" IVar="-1" Cut="0.0000000000000000e+00" cType="1" res="-6.1036422848701477e-02" rms="1.8091607093811035e-01" purity="3.4836106002330780e-02" nType="-99"/>
            <Node pos="r" depth="3" NCoef="0" IVar="-1" Cut="0.0000000000000000e+00" cType="1" res="-7.9658843576908112e-02" rms="7.9502023756504059e-02" purity="6.3971644267439842e-03" nType="-99"/>
          </Node>
          <Node pos="r" depth="2" NCoef="0" IVar="10" Cut="1.9111307859420776e+00" cType="1" res="-9.5818243920803070e-02" rms="1.7082190513610840e-01" purity="3.1921990215778351e-02" nType="0">
            <Node pos="l" depth="3" NCoef="0" IVar="-1" Cut="0.0000000000000000e+00" cType="1" res="-6.9709286093711853e-02" rms="1.2909531593322754e-01" purity="1.7328238114714622e-02" nType="-99"/>
            <Node pos="r" depth="3" NCoef="0" IVar="-1" Cut="0.0000000000000000e+00" cType="1" res="-4.3452225625514984e-02" rms="2.1355067193508148e-01" purity="5.1236100494861603e-02" nType="-99"/>
          </Node>
        </Node>
      </Node>
    </BinaryTree>
    <BinaryTree type="DecisionTree" boostWeight="1.0000000000000000e+00" itree="13">
      <Node pos="s" depth="0" NCoef="0" IVar="4" Cut="1.8833513259887695e+00" cType="1" res="7.6446697115898132e-02" rms="3.8257005810737610e-01" purity="5.0016331672668457e-01" nType="0">
        <Node pos="l" depth="1" NCoef="0" IVar="0" Cut="2.2852595520019531e+02" cType="1" res="1.5630017220973969e-01" rms="3.8480970263481140e-01" purity="6.5484231710433960e-01" nType="0">
          <Node pos="l" depth="2" NCoef="0" IVar="1" Cut="6.1126609802246094e+01" cType="1" res="2.0474708080291748e-01" rms="3.9167758822441101e-01" purity="7.7193671464920044e-01" nType="0">
            <Node pos="l" depth="3" NCoef="0" IVar="-1" Cut="0.0000000000000000e+00" cType="1" res="-1.0404362343251705e-02" rms="4.5987522602081299e-01" purity="3.8260167837142944e-01" nType="-99"/>
            <Node pos="r" depth="3" NCoef="0" IVar="-1" Cut="0.0000000000000000e+00" cType="1" res="1.5265701338648796e-02" rms="3.5697939991950989e-01" purity="8.3367037773132324e-01" nType="-99"/>
          </Node>
          <Node pos="r" depth="2" NCoef="0" IVar="10" Cut="2.1182565689086914e+00" cType="1" res="-9.1459609568119049e-02" rms="2.1775704622268677e-01" purity="5.6016463786363602e-02" nType="0">
            <Node pos="l" depth="3" NCoef="0" IVar="-1" Cut="0.0000000000000000e+00" cType="1" res="-6.1289437115192413e-02" rms="1.6316233575344086e-01" purity="2.8308285400271416e-02" nType="-99"/>
            <Node pos="r" depth="3" NCoef="0" IVar="-1" Cut="0.0000000000000000e+00" cType="1" res="-1.5171051956713200e-02" rms="3.1521117687225342e-01" purity="1.2815912067890167e-01" nType="-99"/>
          </Node>
        </Node>
        <Node pos="r" depth="1" NCoef="0" IVar="10" Cut="2.1447436809539795e+00" cType="1" res="-2.6984605938196182e-02" rms="3.5380271077156067e-01" purity="2.9981321096420288e-01" nType="0">
          <Node pos="l" depth="2" NCoef="0" IVar="9" Cut="-2.2334760665893555e+01" cType="1" res="-8.7708346545696259e-02" rms="3.1599521636962891e-01" purity="1.9219139218330383e-01" nType="0">
            <Node pos="l" depth="3" NCoef="0" IVar="-1" Cut="0.0000000000000000e+00" cType="1" res="-5.1296759396791458e-02" rms="2.6270881295204163e-01" purity="8.7389126420021057e-02" nType="-99"/>
            <Node pos="r" depth="3" NCoef="0" IVar="-1" Cut="0.0000000000000000e+00" cType="1" res="-1.1874963529407978e-02" rms="3.2569664716720581e-01" purity="2.2136867046356201e-01" nType="-99"/>
          </Node>
          <Node pos="r" depth="2" NCoef="0" IVar="0" Cut="2.1837826538085938e+02" cType="1" res="2.5303892791271210e-02" rms="3.7559655308723450e-01" purity="3.9248508214950562e-01" nType="0">
            <Node pos="l" depth="3" NCoef="0" IVar="-1" Cut="0.0000000000000000e+00" cType="1" res="8.1917578354477882e-03" rms="4.3854206800460815e-01" purity="6.4052075147628784e-01" nType="-99"/>
            <Node pos="r" depth="3" NCoef="0" IVar="-1" Cut="0.0000000000000000e+00" cType="1" res="-4.0748957544565201e-02" rms="2.2186687588691711e-01" purity="5.7720173150300980e-02" nType="-99"/>
          </Node>
        </Node>
      </Node>
    </BinaryTree>
    <BinaryTree type="DecisionTree" boostWeight="1.0000000000000000e+00" itree="14">
      <Node pos="s" depth="0" NCoef="0" IVar="0" Cut="2.2852595520019531e+02" cType="1" res="7.6296709477901459e-02" rms="3.7924230098724365e-01" purity="4.9951118230819702e-01" nType="0">
        <Node pos="l" depth="1" NCoef="0" IVar="5" Cut="1.8983386230468750e+02" cType="1" res="1.4587247371673584e-01" rms="4.1807502508163452e-01" purity="6.9714653491973877e-01" nType="0">
          <Node pos="l" depth="2" NCoef="0" IVar="0" Cut="1.2753002929687500e+02" cType="1" res="8.1706993281841278e-02" rms="4.4345197081565857e-01" purity="6.2143015861511230e-01" nType="0">
            <Node pos="l" depth="3" NCoef="0" IVar="-1" Cut="0.0000000000000000e+00" cType="1" res="-3.5909377038478851e-02" rms="4.2147281765937805e-01" purity="2.3963950574398041e-01" nType="-99"/>
            <Node pos="r" depth="3" NCoef="0" IVar="-1" Cut="0.0000000000000000e+00" cType="1" res="7.9311905428767204e-03" rms="4.3523606657981873e-01" purity="6.4920854568481445e-01" nType="-99"/>
          </Node>
          <Node pos="r" depth="2" NCoef="0" IVar="0" Cut="2.0352467346191406e+02" cType="1" res="2.7377846837043762e-01" rms="3.2655566930770874e-01" purity="8.4807777404785156e-01" nType="0">
            <Node pos="l" depth="3" NCoef="0" IVar="-1" Cut="0.0000000000000000e+00" cType="1" res="1.7094891518354416e-02" rms="2.9216635227203369e-01" purity="8.9268511533737183e-01" nType="-99"/>
            <Node pos="r" depth="3" NCoef="0" IVar="-1" Cut="0.0000000000000000e+00" cType="1" res="4.6943644993007183e-03" rms="4.6628490090370178e-01" purity="5.0054985284805298e-01" nType="-99"/>
          </Node>
        </Node>
        <Node pos="r" depth="1" NCoef="0" IVar="5" Cut="2.2645155334472656e+02" cType="1" res="-8.6342364549636841e-02" rms="1.8352450430393219e-01" purity="3.7522394210100174e-02" nType="0">
          <Node pos="l" depth="2" NCoef="0" IVar="2" Cut="1.2799862670898438e+02" cType="1" res="-9.5738314092159271e-02" rms="1.7763912677764893e-01" purity="3.3619463443756104e-02" nType="0">
            <Node pos="l" depth="3" NCoef="0" IVar="-1" Cut="0.0000000000000000e+00" cType="1" res="-6.4933195710182190e-02" rms="1.5835303068161011e-01" purity="2.5647122412919998e-02" nType="-99"/>
            <Node pos="r" depth="3" NCoef="0" IVar="-1" Cut="0.0000000000000000e+00" cType="1" res="-4.8437610268592834e-02" rms="1.9163325428962708e-01" purity="4.0417585521936417e-02" nType="-99"/>
          </Node>
          <Node pos="r" depth="2" NCoef="0" IVar="10" Cut="1.6541957855224609e+00" cType="1" res="-7.3495358228683472e-02" rms="1.9053025543689728e-01" purity="4.2858842760324478e-02" nType="0">
            <Node pos="l" depth="3" NCoef="0" IVar="-1" Cut="0.0000000000000000e+00" cType="1" res="-6.9231599569320679e-02" rms="1.1846346408128738e-01" purity="1.4312693849205971e-02" nType="-99"/>
            <Node pos="r" depth="3" NCoef="0" IVar="-1" Cut="0.0000000000000000e+00" cType="1" res="-2.4060428142547607e-02" rms="2.5241720676422119e-01" purity="7.8724667429924011e-02" nType="-99"/>
          </Node>
        </Node>
      </Node>
    </BinaryTree>
    <BinaryTree type="DecisionTree" boostWeight="1.0000000000000000e+00" itree="15">
      <Node pos="s" depth="0" NCoef="0" IVar="4" Cut="1.8824880123138428e+00" cType="1" res="7.6668635010719299e-02" rms="3.7628078460693359e-01" purity="4.9966937303543091e-01" nType="0">
        <Node pos="l" depth="1" NCoef="0" IVar="1" Cut="6.6223724365234375e+01" cType="1" res="1.5213711559772491e-01" rms="3.7863209843635559e-01" purity="6.5548634529113770e-01" nType="0">
          <Node pos="l" depth="2" NCoef="0" IVar="1" Cut="4.9372520446777344e+01" cType="1" res="-3.2397460192441940e-02" rms="4.3024232983589172e-01" purity="4.2241302132606506e-01" nType="0">
            <Node pos="l" depth="3" NCoef="0" IVar="-1" Cut="0.0000000000000000e+00" cType="1" res="-4.4149685651063919e-02" rms="3.4313598275184631e-01" purity="1.4233182370662689e-01" nType="-99"/>
            <Node pos="r" depth="3" NCoef="0" IVar="-1" Cut="0.0000000000000000e+00" cType="1" res="4.7400249168276787e-03" rms="4.3765300512313843e-01" purity="5.5142563581466675e-01" nType="-99"/>
          </Node>
          <Node pos="r" depth="2" NCoef="0" IVar="0" Cut="2.2483412170410156e+02" cType="1" res="1.9702257215976715e-01" rms="3.5058587789535522e-01" purity="7.1217823028564453e-01" nType="0">
            <Node pos="l" depth="3" NCoef="0" IVar="-1" Cut="0.0000000000000000e+00" cType="1" res="1.5132591128349304e-02" rms="3.4569641947746277e-01" purity="8.4642678499221802e-01" nType="-99"/>
            <Node pos="r" depth="3" NCoef="0" IVar="-1" Cut="0.0000000000000000e+00" cType="1" res="-2.5504659861326218e-02" rms="2.4433641135692596e-01" purity="7.5974680483341217e-02" nType="-99"/>
          </Node>
        </Node>
        <Node pos="r" depth="1" NCoef="0" IVar="6" Cut="-5.0857109069824219e+01" cType="1" res="-2.1072013303637505e-02" rms="3.4979823231697083e-01" purity="2.9786783456802368e-01" nType="0">
          <Node pos="l" depth="2" NCoef="0" IVar="10" Cut="1.8597598075866699e+00" cType="1" res="7.6286517083644867e-02" rms="3.6828392744064331e-01" purity="4.5853081345558167e-01" nType="0">
            <Node pos="l" depth="3" NCoef="0" IVar="-1" Cut="0.0000000000000000e+00" cType="1" res="-1.5165241435170174e-02" rms="3.2048866152763367e-01" purity="2.0340029895305634e-01" nType="-99"/>
            <Node pos="r" depth="3" NCoef="0" IVar="-1" Cut="0.0000000000000000e+00" cType="1" res="1.2608842924237251e-02" rms="3.6689206957817078e-01" purity="5.7789123058319092e-01" nType="-99"/>
          </Node>
          <Node pos="r" depth="2" NCoef="0" IVar="4" Cut="2.4216122627258301e+00" cType="1" res="-5.3160116076469421e-02" rms="3.3738714456558228e-01" purity="2.4491542577743530e-01" nType="0">
            <Node pos="l" depth="3" NCoef="0" IVar="-1" Cut="0.0000000000000000e+00" cType="1" res="1.1778888292610645e-03" rms="4.0621078014373779e-01" purity="4.2291963100433350e-01" nType="-99"/>
            <Node pos="r" depth="3" NCoef="0" IVar="-1" Cut="0.0000000000000000e+00" cType="1" res="-2.6913139969110489e-02" rms="2.7229589223861694e-01" purity="1.2327019870281219e-01" nType="-99"/>
          </Node>
        </Node>
      </Node>
    </BinaryTree>
    <BinaryTree type="DecisionTree" boostWeight="1.0000000000000000e+00" itree="16">
      <Node pos="s" depth="0" NCoef="0" IVar="4" Cut="1.8824880123138428e+00" cType="1" res="7.6338596642017365e-02" rms="3.7403765320777893e-01" purity="5.0017225742340088e-01" nType="0">
        <Node pos="l" depth="1" NCoef="0" IVar="0" Cut="1.9755484008789062e+02" cType="1" res="1.4788363873958588e-01" rms="3.7645941972732544e-01" purity="6.5439671277999878e-01" nType="0">
          <Node pos="l" depth="2" NCoef="0" IVar="1" Cut="5.5031532287597656e+01" cType="1" res="2.1076489984989166e-01" rms="3.7085273861885071e-01" purity="8.0330181121826172e-01" nType="0">
            <Node pos="l" depth="3" NCoef="0" IVar="-1" Cut="0.0000000000000000e+00" cType="1" res="-1.6583073884248734e-02" rms="4.4448286294937134e-01" purity="2.9504522681236267e-01" nType="-99"/>
            <Node pos="r" depth="3" NCoef="0" IVar="-1" Cut="0.0000000000000000e+00" cType="1" res="1.4774026349186897e-02" rms="3.4443417191505432e-01" purity="8.5423702001571655e-01" nType="-99"/>
          </Node>
          <Node pos="r" depth="2" NCoef="0" IVar="7" Cut="2.1368217468261719e+00" cType="1" res="-3.6608062684535980e-02" rms="3.2920601963996887e-01" purity="2.1751378476619720e-01" nType="0">
            <Node pos="l" depth="3" NCoef="0" IVar="-1" Cut="0.0000000000000000e+00" cType="1" res="1.0215451940894127e-02" rms="4.2735204100608826e-01" purity="5.2575600147247314e-01" nType="-99"/>
            <Node pos="r" depth="3" NCoef="0" IVar="-1" Cut="0.0000000000000000e+00" cType="1" res="-2.8747508302330971e-02" rms="2.6521840691566467e-01" purity="1.0556834191083908e-01" nType="-99"/>
          </Node>
        </Node>
        <Node pos="r" depth="1" NCoef="0" IVar="10" Cut="2.3563077449798584e+00" cType="1" res="-1.6269750893115997e-02" rms="3.4978505969047546e-01" purity="3.0054321885108948e-01" nType="0">
          <Node pos="l" depth="2" NCoef="0" IVar="9" Cut="-3.2569972991943359e+01" cType="1" res="-6.4923919737339020e-02" rms="3.2311683893203735e-01" purity="2.1149653196334839e-01" nType="0">
            <Node pos="l" depth="3" NCoef="0" IVar="-1" Cut="0.0000000000000000e+00" cType="1" res="-4.8939961940050125e-02" rms="2.5775796175003052e-01" purity="8.2235150039196014e-02" nType="-99"/>
            <Node pos="r" depth="3" NCoef="0" IVar="-1" Cut="0.0000000000000000e+00" cType="1" res="-8.4750037640333176e-03" rms="3.3196276426315308e-01" purity="2.3702605068683624e-01" nType="-99"/>
          </Node>
          <Node pos="r" depth="2" NCoef="0" IVar="0" Cut="2.2117591857910156e+02" cType="1" res="4.0835652500391006e-02" rms="3.7063768506050110e-01" purity="4.0505737066268921e-01" nType="0">
            <Node pos="l" depth="3" NCoef="0" IVar="-1" Cut="0.0000000000000000e+00" cType="1" res="8.6637120693922043e-03" rms="4.3204605579376221e-01" purity="6.5061241388320923e-01" nType="-99"/>
            <Node pos="r" depth="3" NCoef="0" IVar="-1" Cut="0.0000000000000000e+00" cType="1" res="-3.5821601748466492e-02" rms="2.1715667843818665e-01" purity="5.4786343127489090e-02" nType="-99"/>
          </Node>
        </Node>
      </Node>
    </BinaryTree>
    <BinaryTree type="DecisionTree" boostWeight="1.0000000000000000e+00" itree="17">
      <Node pos="s" depth="0" NCoef="0" IVar="0" Cut="2.2691612243652344e+02" cType="1" res="7.4550107121467590e-02" rms="3.7130025029182434e-01" purity="4.9826160073280334e-01" nType="0">
        <Node pos="l" depth="1" NCoef="0" IVar="5" Cut="1.9403871154785156e+02" cType="1" res="1.3674762845039368e-01" rms="4.1224119067192078e-01" purity="6.9828897714614868e-01" nType="0">
          <Node pos="l" depth="2" NCoef="0" IVar="1" Cut="1.0572808074951172e+02" cType="1" res="7.8869767487049103e-02" rms="4.3748471140861511e-01" purity="6.2533843517303467e-01" nType="0">
            <Node pos="l" depth="3" NCoef="0" IVar="-1" Cut="0.0000000000000000e+00" cType="1" res="8.0613940954208374e-03" rms="4.3548277020454407e-01" purity="6.9006597995758057e-01" nType="-99"/>
            <Node pos="r" depth="3" NCoef="0" IVar="-1" Cut="0.0000000000000000e+00" cType="1" res="-2.2524800151586533e-02" rms="3.8709530234336853e-01" purity="2.1084363758563995e-01" nType="-99"/>
          </Node>
          <Node pos="r" depth="2" NCoef="0" IVar="0" Cut="1.9508062744140625e+02" cType="1" res="2.6335012912750244e-01" rms="3.1570097804069519e-01" purity="8.5786163806915283e-01" nType="0">
            <Node pos="l" depth="3" NCoef="0" IVar="-1" Cut="0.0000000000000000e+00" cType="1" res="1.6731182113289833e-02" rms="2.7405658364295959e-01" purity="9.0591913461685181e-01" nType="-99"/>
            <Node pos="r" depth="3" NCoef="0" IVar="-1" Cut="0.0000000000000000e+00" cType="1" res="9.4753559678792953e-03" rms="4.3251362442970276e-01" purity="6.4331245422363281e-01" nType="-99"/>
          </Node>
        </Node>
        <Node pos="r" depth="1" NCoef="0" IVar="10" Cut="2.3815145492553711e+00" cType="1" res="-6.8035408854484558e-02" rms="1.8741662800312042e-01" purity="3.9706464856863022e-02" nType="0">
          <Node pos="l" depth="2" NCoef="0" IVar="2" Cut="1.5721441650390625e+02" cType="1" res="-7.5197793543338776e-02" rms="1.5801109373569489e-01" purity="2.6683090254664421e-02" nType="0">
            <Node pos="l" depth="3" NCoef="0" IVar="-1" Cut="0.0000000000000000e+00" cType="1" res="-6.1635535210371017e-02" rms="1.5026260912418365e-01" purity="2.3114420473575592e-02" nType="-99"/>
            <Node pos="r" depth="3" NCoef="0" IVar="-1" Cut="0.0000000000000000e+00" cType="1" res="-4.8960287123918533e-02" rms="1.6403903067111969e-01" purity="2.9950039461255074e-02" nType="-99"/>
          </Node>
          <Node pos="r" depth="2" NCoef="0" IVar="4" Cut="2.1311082839965820e+00" cType="1" res="-5.3041551262140274e-02" rms="2.3676283657550812e-01" purity="6.6969811916351318e-02" nType="0">
            <Node pos="l" depth="3" NCoef="0" IVar="-1" Cut="0.0000000000000000e+00" cType="1" res="-7.7434964478015900e-03" rms="3.1970351934432983e-01" purity="1.3316568732261658e-01" nType="-99"/>
            <Node pos="r" depth="3" NCoef="0" IVar="-1" Cut="0.0000000000000000e+00" cType="1" res="-4.1742805391550064e-02" rms="1.9527415931224823e-01" purity="4.1872099041938782e-02" nType="-99"/>
          </Node>
        </Node>
      </Node>
    </BinaryTree>
    <BinaryTree type="DecisionTree" boostWeight="1.0000000000000000e+00" itree="18">
      <Node pos="s" depth="0" NCoef="0" IVar="0" Cut="2.4485362243652344e+02" cType="1" res="7.6498903334140778e-02" rms="3.6885419487953186e-01" purity="5.0145208835601807e-01" nType="0">
        <Node pos="l" depth="1" NCoef="0" IVar="1" Cut="1.1627060699462891e+02" cType="1" res="1.2508869171142578e-01" rms="4.0900096297264099e-01" purity="6.7288333177566528e-01" nType="0">
          <Node pos="l" depth="2" NCoef="0" IVar="0" Cut="1.2676832580566406e+02" cType="1" res="1.5021733939647675e-01" rms="4.0628314018249512e-01" purity="7.2554224729537964e-01" nType="0">
            <Node pos="l" depth="3" NCoef="0" IVar="-1" Cut="0.0000000000000000e+00" cType="1" res="-3.0123371630907059e-02" rms="4.2874181270599365e-01" purity="2.5681546330451965e-01" nType="-99"/>
            <Node pos="r" depth="3" NCoef="0" IVar="-1" Cut="0.0000000000000000e+00" cType="1" res="1.1451408267021179e-02" rms="3.9541280269622803e-01" purity="7.5096637010574341e-01" nType="-99"/>
          </Node>
          <Node pos="r" depth="2" NCoef="0" IVar="0" Cut="2.1791430664062500e+02" cType="1" res="-1.2357369065284729e-01" rms="3.4803292155265808e-01" purity="1.5179362893104553e-01" nType="0">
            <Node pos="l" depth="3" NCoef="0" IVar="-1" Cut="0.0000000000000000e+00" cType="1" res="-3.2862428575754166e-02" rms="3.4928059577941895e-01" purity="1.5883398056030273e-01" nType="-99"/>
            <Node pos="r" depth="3" NCoef="0" IVar="-1" Cut="0.0000000000000000e+00" cType="1" res="-1.5371389687061310e-02" rms="3.3490869402885437e-01" purity="1.4139135181903839e-01" nType="-99"/>
          </Node>
        </Node>
        <Node pos="r" depth="1" NCoef="0" IVar="10" Cut="2.6166961193084717e+00" cType="1" res="-5.7903885841369629e-02" rms="1.5836276113986969e-01" purity="2.7261219918727875e-02" nType="0">
          <Node pos="l" depth="2" NCoef="0" IVar="2" Cut="1.6378479003906250e+02" cType="1" res="-6.1424922198057175e-02" rms="1.3690991699695587e-01" purity="1.9889932125806808e-02" nType="0">
            <Node pos="l" depth="3" NCoef="0" IVar="-1" Cut="0.0000000000000000e+00" cType="1" res="-6.4768873155117035e-02" rms="1.1860422044992447e-01" purity="1.4569865539669991e-02" nType="-99"/>
            <Node pos="r" depth="3" NCoef="0" IVar="-1" Cut="0.0000000000000000e+00" cType="1" res="-5.1038447767496109e-02" rms="1.5180420875549316e-01" purity="2.4844992905855179e-02" nType="-99"/>
          </Node>
          <Node pos="r" depth="2" NCoef="0" IVar="15" Cut="1.5220962524414062e+02" cType="1" res="-4.7134306281805038e-02" rms="2.1047480404376984e-01" purity="4.9807339906692505e-02" nType="0">
            <Node pos="l" depth="3" NCoef="0" IVar="-1" Cut="0.0000000000000000e+00" cType="1" res="-4.4294770807027817e-02" rms="1.7949944734573364e-01" purity="3.4792792052030563e-02" nType="-99"/>
            <Node pos="r" depth="3" NCoef="0" IVar="-1" Cut="0.0000000000000000e+00" cType="1" res="-2.1705877035856247e-02" rms="2.3660014569759369e-01" purity="6.4585588872432709e-02" nType="-99"/>
          </Node>
        </Node>
      </Node>
    </BinaryTree>
    <BinaryTree type="DecisionTree" boostWeight="1.0000000000000000e+00" itree="19">
      <Node pos="s" depth="0" NCoef="0" IVar="0" Cut="2.4248309326171875e+02" cType="1" res="7.5150027871131897e-02" rms="3.6681875586509705e-01" purity="4.9977117776870728e-01" nType="0">
        <Node pos="l" depth="1" NCoef="0" IVar="5" Cut="1.9692599487304688e+02" cType="1" res="1.2224239856004715e-01" rms="4.0846484899520874e-01" purity="6.7488908767700195e-01" nType="0">
          <Node pos="l" depth="2" NCoef="0" IVar="1" Cut="1.0328366088867188e+02" cType="1" res="6.9938875734806061e-02" rms="4.3083485960960388e-01" purity="6.0672020912170410e-01" nType="0">
            <Node pos="l" depth="3" NCoef="0" IVar="-1" Cut="0.0000000000000000e+00" cType="1" res="7.6334825716912746e-03" rms="4.3084931373596191e-01" purity="6.8586194515228271e-01" nType="-99"/>
            <Node pos="r" depth="3" NCoef="0" IVar="-1" Cut="0.0000000000000000e+00" cType="1" res="-1.6291180625557899e-02" rms="3.8980895280838013e-01" purity="2.2788552939891815e-01" nType="-99"/>
          </Node>
          <Node pos="r" depth="2" NCoef="0" IVar="0" Cut="2.0768113708496094e+02" cType="1" res="2.4213294684886932e-01" rms="3.2118928432464600e-01" purity="8.3114618062973022e-01" nType="0">
            <Node pos="l" depth="3" NCoef="0" IVar="-1" Cut="0.0000000000000000e+00" cType="1" res="1.6002487391233444e-02" rms="2.8485092520713806e-01" purity="8.9592486619949341e-01" nType="-99"/>
            <Node pos="r" depth="3" NCoef="0" IVar="-1" Cut="0.0000000000000000e+00" cType="1" res="1.8203286454081535e-03" rms="4.4488650560379028e-01" purity="3.8031771779060364e-01" nType="-99"/>
          </Node>
        </Node>
        <Node pos="r" depth="1" NCoef="0" IVar="16" Cut="4.9998470306396484e+01" cType="1" res="-5.1831938326358795e-02" rms="1.5934295952320099e-01" purity="2.7575632557272911e-02" nType="0">
          <Node pos="l" depth="2" NCoef="0" IVar="2" Cut="1.4430191040039062e+02" cType="1" res="-5.5336106568574905e-02" rms="1.5325944125652313e-01" purity="2.5209745392203331e-02" nType="0">
            <Node pos="l" depth="3" NCoef="0" IVar="-1" Cut="0.0000000000000000e+00" cType="1" res="-6.2298852950334549e-02" rms="1.2529243528842926e-01" purity="1.6213659197092056e-02" nType="-99"/>
            <Node pos="r" depth="3" NCoef="0" IVar="-1" Cut="0.0000000000000000e+00" cType="1" res="-4.4475678354501724e-02" rms="1.6721430420875549e-01" purity="3.0437920242547989e-02" nType="-99"/>
          </Node>
          <Node pos="r" depth="2" NCoef="0" IVar="10" Cut="1.6541957855224609e+00" cType="1" res="-4.5393593609333038e-02" rms="1.6976533830165863e-01" purity="3.1922563910484314e-02" nType="0">
            <Node pos="l" depth="3" NCoef="0" IVar="-1" Cut="0.0000000000000000e+00" cType="1" res="-6.6778689622879028e-02" rms="1.0000981390476227e-01" purity="1.0187114588916302e-02" nType="-99"/>
            <Node pos="r" depth="3" NCoef="0" IVar="-1" Cut="0.0000000000000000e+00" cType="1" res="-2.1138131618499756e-02" rms="2.2825796902179718e-01" purity="5.9191089123487473e-02" nType="-99"/>
          </Node>
        </Node>
      </Node>
    </BinaryTree>
    <BinaryTree type="DecisionTree" boostWeight="1.0000000000000000e+00" itree="20">
      <Node pos="s" depth="0" NCoef="0" IVar="4" Cut="1.8833513259887695e+00" cType="1" res="7.5005359947681427e-02" rms="3.6447736620903015e-01" purity="5.0028789043426514e-01" nType="0">
        <Node pos="l" depth="1" NCoef="0" IVar="0" Cut="2.0195439147949219e+02" cType="1" res="1.3814696669578552e-01" rms="3.6856684088706970e-01" purity="6.5592819452285767e-01" nType="0">
          <Node pos="l" depth="2" NCoef="0" IVar="1" Cut="5.5663246154785156e+01" cType="1" res="1.8953640758991241e-01" rms="3.6931669712066650e-01" purity="8.0136561393737793e-01" nType="0">
            <Node pos="l" depth="3" NCoef="0" IVar="-1" Cut="0.0000000000000000e+00" cType="1" res="-1.5762547031044960e-02" rms="4.4640281796455383e-01" purity="3.0536037683486938e-01" nType="-99"/>
            <Node pos="r" depth="3" NCoef="0" IVar="-1" Cut="0.0000000000000000e+00" cType="1" res="1.3743301853537560e-02" rms="3.4416016936302185e-01" purity="8.5272574424743652e-01" nType="-99"/>
          </Node>
          <Node pos="r" depth="2" NCoef="0" IVar="7" Cut="2.1330657005310059e+00" cType="1" res="-3.1591668725013733e-02" rms="3.1061214208602905e-01" purity="1.7555026710033417e-01" nType="0">
            <Node pos="l" depth="3" NCoef="0" IVar="-1" Cut="0.0000000000000000e+00" cType="1" res="9.8641980439424515e-03" rms="4.2989641427993774e-01" purity="4.7002759575843811e-01" nType="-99"/>
            <Node pos="r" depth="3" NCoef="0" IVar="-1" Cut="0.0000000000000000e+00" cType="1" res="-2.8240926563739777e-02" rms="2.5026580691337585e-01" purity="8.4888190031051636e-02" nType="-99"/>
          </Node>
        </Node>
        <Node pos="r" depth="1" NCoef="0" IVar="9" Cut="-5.3874945640563965e+00" cType="1" res="-7.0468485355377197e-03" rms="3.4210333228111267e-01" purity="2.9803404211997986e-01" nType="0">
          <Node pos="l" depth="2" NCoef="0" IVar="7" Cut="1.7118145227432251e+00" cType="1" res="-7.7770173549652100e-02" rms="3.2111740112304688e-01" purity="1.9920872151851654e-01" nType="0">
            <Node pos="l" depth="3" NCoef="0" IVar="-1" Cut="0.0000000000000000e+00" cType="1" res="-3.4050405025482178e-02" rms="3.0269491672515869e-01" purity="1.4284734427928925e-01" nType="-99"/>
            <Node pos="r" depth="3" NCoef="0" IVar="-1" Cut="0.0000000000000000e+00" cType="1" res="-1.0872399434447289e-02" rms="3.2351881265640259e-01" purity="2.1658869087696075e-01" nType="-99"/>
          </Node>
          <Node pos="r" depth="2" NCoef="0" IVar="10" Cut="2.1197779178619385e+00" cType="1" res="2.8066696599125862e-02" rms="3.4674009680747986e-01" purity="3.4709998965263367e-01" nType="0">
            <Node pos="l" depth="3" NCoef="0" IVar="-1" Cut="0.0000000000000000e+00" cType="1" res="-6.1719301156699657e-03" rms="3.1799200177192688e-01" purity="2.2240649163722992e-01" nType="-99"/>
            <Node pos="r" depth="3" NCoef="0" IVar="-1" Cut="0.0000000000000000e+00" cType="1" res="8.3491681143641472e-03" rms="3.6108270287513733e-01" purity="4.4739070534706116e-01" nType="-99"/>
          </Node>
        </Node>
      </Node>
    </BinaryTree>
    <BinaryTree type="DecisionTree" boostWeight="1.0000000000000000e+00" itree="21">
      <Node pos="s" depth="0" NCoef="0" IVar="4" Cut="1.8833513259887695e+00" cType="1" res="7.3361657559871674e-02" rms="3.6321327090263367e-01" purity="4.9937918782234192e-01" nType="0">
        <Node pos="l" depth="1" NCoef="0" IVar="1" Cut="6.6223724365234375e+01" cType="1" res="1.3345557451248169e-01" rms="3.6749324202537537e-01" purity="6.5333431959152222e-01" nType="0">
          <Node pos="l" depth="2" NCoef="0" IVar="1" Cut="4.6965293884277344e+01" cType="1" res="-3.4672152251005173e-02" rms="4.2036858201026917e-01" purity="4.1848117113113403e-01" nType="0">
            <Node pos="l" depth="3" NCoef="0" IVar="-1" Cut="0.0000000000000000e+00" cType="1" res="-4.9916725605726242e-02" rms="3.1695145368576050e-01" purity="1.1389987170696259e-01" nType="-99"/>
            <Node pos="r" depth="3" NCoef="0" IVar="-1" Cut="0.0000000000000000e+00" cType="1" res="2.9807793907821178e-03" rms="4.3301653861999512e-01" purity="5.3005951642990112e-01" nType="-99"/>
          </Node>
          <Node pos="r" depth="2" NCoef="0" IVar="0" Cut="2.6692398071289062e+02" cType="1" res="1.7447903752326965e-01" rms="3.4103727340698242e-01" purity="7.1063882112503052e-01" nType="0">
            <Node pos="l" depth="3" NCoef="0" IVar="-1" Cut="0.0000000000000000e+00" cType="1" res="1.3367944397032261e-02" rms="3.4896472096443176e-01" purity="8.0393087863922119e-01" nType="-99"/>
            <Node pos="r" depth="3" NCoef="0" IVar="-1" Cut="0.0000000000000000e+00" cType="1" res="-3.8589403033256531e-02" rms="1.5987680852413177e-01" purity="2.8269963338971138e-02" nType="-99"/>
          </Node>
        </Node>
        <Node pos="r" depth="1" NCoef="0" IVar="10" Cut="2.3511745929718018e+00" cType="1" res="-4.2269816622138023e-03" rms="3.4234985709190369e-01" purity="3.0060413479804993e-01" nType="0">
          <Node pos="l" depth="2" NCoef="0" IVar="9" Cut="2.9546377182006836e+01" cType="1" res="-4.7921191900968552e-02" rms="3.1773877143859863e-01" purity="2.0853205025196075e-01" nType="0">
            <Node pos="l" depth="3" NCoef="0" IVar="-1" Cut="0.0000000000000000e+00" cType="1" res="-1.5144538134336472e-02" rms="3.2105755805969238e-01" purity="1.9203002750873566e-01" nType="-99"/>
            <Node pos="r" depth="3" NCoef="0" IVar="-1" Cut="0.0000000000000000e+00" cType="1" res="-3.2892005401663482e-04" rms="3.0611589550971985e-01" purity="2.3956257104873657e-01" nType="-99"/>
          </Node>
          <Node pos="r" depth="2" NCoef="0" IVar="6" Cut="1.1670235633850098e+01" cType="1" res="4.6489629894495010e-02" rms="3.6231431365013123e-01" purity="4.0747377276420593e-01" nType="0">
            <Node pos="l" depth="3" NCoef="0" IVar="-1" Cut="0.0000000000000000e+00" cType="1" res="8.4906024858355522e-03" rms="3.8018769025802612e-01" purity="5.0395911931991577e-01" nType="-99"/>
            <Node pos="r" depth="3" NCoef="0" IVar="-1" Cut="0.0000000000000000e+00" cType="1" res="-1.8186181783676147e-02" rms="2.7840912342071533e-01" purity="1.4082925021648407e-01" nType="-99"/>
          </Node>
        </Node>
      </Node>
    </BinaryTree>
    <BinaryTree type="DecisionTree" boostWeight="1.0000000000000000e+00" itree="22">
      <Node pos="s" depth="0" NCoef="0" IVar="0" Cut="2.1137358093261719e+02" cType="1" res="7.2390533983707428e-02" rms="3.6132472753524780e-01" purity="4.9984824657440186e-01" nType="0">
        <Node pos="l" depth="1" NCoef="0" IVar="0" Cut="1.3609127807617188e+02" cType="1" res="1.3487078249454498e-01" rms="4.0034690499305725e-01" purity="7.2571069002151489e-01" nType="0">
          <Node pos="l" depth="2" NCoef="0" IVar="0" Cut="1.2175164031982422e+02" cType="1" res="-1.1643393337726593e-01" rms="4.6061334013938904e-01" purity="3.8612484931945801e-01" nType="0">
            <Node pos="l" depth="3" NCoef="0" IVar="-1" Cut="0.0000000000000000e+00" cType="1" res="-4.1483584791421890e-02" rms="3.9062273502349854e-01" purity="1.9450639188289642e-01" nType="-99"/>
            <Node pos="r" depth="3" NCoef="0" IVar="-1" Cut="0.0000000000000000e+00" cType="1" res="-1.6758419806137681e-03" rms="4.8141860961914062e-01" purity="5.2250897884368896e-01" nType="-99"/>
          </Node>
          <Node pos="r" depth="2" NCoef="0" IVar="1" Cut="1.0018900299072266e+02" cType="1" res="1.6041338443756104e-01" rms="3.8461989164352417e-01" purity="7.6022619009017944e-01" nType="0">
            <Node pos="l" depth="3" NCoef="0" IVar="-1" Cut="0.0000000000000000e+00" cType="1" res="1.2372898869216442e-02" rms="3.6622759699821472e-01" purity="8.1875997781753540e-01" nType="-99"/>
            <Node pos="r" depth="3" NCoef="0" IVar="-1" Cut="0.0000000000000000e+00" cType="1" res="-4.2831101454794407e-03" rms="4.3221661448478699e-01" purity="3.9928305149078369e-01" nType="-99"/>
          </Node>
        </Node>
        <Node pos="r" depth="1" NCoef="0" IVar="10" Cut="2.3511745929718018e+00" cType="1" res="-4.6844776719808578e-02" rms="2.2840307652950287e-01" purity="6.8819597363471985e-02" nType="0">
          <Node pos="l" depth="2" NCoef="0" IVar="12" Cut="5.7720947265625000e+01" cType="1" res="-5.6914042681455612e-02" rms="1.9714798033237457e-01" purity="4.5729789882898331e-02" nType="0">
            <Node pos="l" depth="3" NCoef="0" IVar="-1" Cut="0.0000000000000000e+00" cType="1" res="-4.5224007219076157e-02" rms="1.9138526916503906e-01" purity="3.9660729467868805e-02" nType="-99"/>
            <Node pos="r" depth="3" NCoef="0" IVar="-1" Cut="0.0000000000000000e+00" cType="1" res="-2.4374146014451981e-02" rms="2.0344316959381104e-01" purity="5.4239533841609955e-02" nType="-99"/>
          </Node>
          <Node pos="r" depth="2" NCoef="0" IVar="1" Cut="1.3711170959472656e+02" cType="1" res="-2.7568649500608444e-02" rms="2.7760475873947144e-01" purity="1.1302164196968079e-01" nType="0">
            <Node pos="l" depth="3" NCoef="0" IVar="-1" Cut="0.0000000000000000e+00" cType="1" res="2.0316687878221273e-03" rms="3.6911851167678833e-01" purity="2.2931309044361115e-01" nType="-99"/>
            <Node pos="r" depth="3" NCoef="0" IVar="-1" Cut="0.0000000000000000e+00" cType="1" res="-3.6271225661039352e-02" rms="2.0080325007438660e-01" purity="4.3532621115446091e-02" nType="-99"/>
          </Node>
        </Node>
      </Node>
    </BinaryTree>
    <BinaryTree type="DecisionTree" boostWeight="1.0000000000000000e+00" itree="23">
      <Node pos="s" depth="0" NCoef="0" IVar="0" Cut="2.4469499206542969e+02" cType="1" res="7.1902595460414886e-02" rms="3.5861790180206299e-01" purity="5.0034558773040771e-01" nType="0">
        <Node pos="l" depth="1" NCoef="0" IVar="5" Cut="2.0558110046386719e+02" cType="1" res="1.1194912344217300e-01" rms="4.0057751536369324e-01" purity="6.7243516445159912e-01" nType="0">
          <Node pos="l" depth="2" NCoef="0" IVar="1" Cut="1.0409695434570312e+02" cType="1" res="6.8387962877750397e-02" rms="4.2112305760383606e-01" purity="6.1143732070922852e-01" nType="0">
            <Node pos="l" depth="3" NCoef="0" IVar="-1" Cut="0.0000000000000000e+00" cType="1" res="7.3061813600361347e-03" rms="4.2198681831359863e-01" purity="6.9036972522735596e-01" nType="-99"/>
            <Node pos="r" depth="3" NCoef="0" IVar="-1" Cut="0.0000000000000000e+00" cType="1" res="-1.5183385461568832e-02" rms="3.8143974542617798e-01" purity="2.1551838517189026e-01" nType="-99"/>
          </Node>
          <Node pos="r" depth="2" NCoef="0" IVar="0" Cut="2.0113371276855469e+02" cType="1" res="2.3139509558677673e-01" rms="3.0773374438285828e-01" purity="8.3969289064407349e-01" nType="0">
            <Node pos="l" depth="3" NCoef="0" IVar="-1" Cut="0.0000000000000000e+00" cType="1" res="1.5618201345205307e-02" rms="2.6358166337013245e-01" purity="9.1192460060119629e-01" nType="-99"/>
            <Node pos="r" depth="3" NCoef="0" IVar="-1" Cut="0.0000000000000000e+00" cType="1" res="6.7137749865651131e-03" rms="4.3338185548782349e-01" purity="4.8357996344566345e-01" nType="-99"/>
          </Node>
        </Node>
        <Node pos="r" depth="1" NCoef="0" IVar="4" Cut="1.9032771587371826e+00" cType="1" res="-3.8436554372310638e-02" rms="1.5570041537284851e-01" purity="2.6191834360361099e-02" nType="0">
          <Node pos="l" depth="2" NCoef="0" IVar="7" Cut="2.6891672611236572e+00" cType="1" res="-2.9703704640269279e-02" rms="1.7905130982398987e-01" purity="3.6178722977638245e-02" nType="0">
            <Node pos="l" depth="3" NCoef="0" IVar="-1" Cut="0.0000000000000000e+00" cType="1" res="-3.8952711038291454e-03" rms="2.6682057976722717e-01" purity="8.3595417439937592e-02" nType="-99"/>
            <Node pos="r" depth="3" NCoef="0" IVar="-1" Cut="0.0000000000000000e+00" cType="1" res="-5.9517472982406616e-02" rms="1.0908403992652893e-01" purity="1.2248062528669834e-02" nType="-99"/>
          </Node>
          <Node pos="r" depth="2" NCoef="0" IVar="4" Cut="3.3369853496551514e+00" cType="1" res="-4.2215451598167419e-02" rms="1.4426660537719727e-01" purity="2.1870285272598267e-02" nType="0">
            <Node pos="l" depth="3" NCoef="0" IVar="-1" Cut="0.0000000000000000e+00" cType="1" res="-4.1988968849182129e-02" rms="1.6295094788074493e-01" purity="2.8044110164046288e-02" nType="-99"/>
            <Node pos="r" depth="3" NCoef="0" IVar="-1" Cut="0.0000000000000000e+00" cType="1" res="-7.2200097143650055e-02" rms="7.7684067189693451e-02" purity="6.0340235941112041e-03" nType="-99"/>
          </Node>
        </Node>
      </Node>
    </BinaryTree>
    <BinaryTree type="DecisionTree" boostWeight="1.0000000000000000e+00" itree="24">
      <Node pos="s" depth="0" NCoef="0" IVar="0" Cut="2.0655508422851562e+02" cType="1" res="7.2185091674327850e-02" rms="3.5799580812454224e-01" purity="5.0134277343750000e-01" nType="0">
        <Node pos="l" depth="1" NCoef="0" IVar="0" Cut="1.3333813476562500e+02" cType="1" res="1.3291582465171814e-01" rms="3.9514303207397461e-01" purity="7.3421204090118408e-01" nType="0">
          <Node pos="l" depth="2" NCoef="0" IVar="13" Cut="2.6376175880432129e+00" cType="1" res="-1.3823053240776062e-01" rms="4.5069923996925354e-01" purity="3.4332662820816040e-01" nType="0">
            <Node pos="l" depth="3" NCoef="0" IVar="-1" Cut="0.0000000000000000e+00" cType="1" res="-2.0458871498703957e-02" rms="4.3953490257263184e-01" purity="3.1352424621582031e-01" nType="-99"/>
            <Node pos="r" depth="3" NCoef="0" IVar="-1" Cut="0.0000000000000000e+00" cType="1" res="-1.2564202770590782e-02" rms="4.6047177910804749e-01" purity="3.7386351823806763e-01" nType="-99"/>
          </Node>
          <Node pos="r" depth="2" NCoef="0" IVar="1" Cut="1.0544162750244141e+02" cType="1" res="1.5648171305656433e-01" rms="3.8093134760856628e-01" purity="7.6818472146987915e-01" nType="0">
            <Node pos="l" depth="3" NCoef="0" IVar="-1" Cut="0.0000000000000000e+00" cType="1" res="1.1747563257813454e-02" rms="3.6952474713325500e-01" purity="8.1546074151992798e-01" nType="-99"/>
            <Node pos="r" depth="3" NCoef="0" IVar="-1" Cut="0.0000000000000000e+00" cType="1" res="-1.1979288421571255e-02" rms="4.0956348180770874e-01" purity="2.8388497233390808e-01" nType="-99"/>
          </Node>
        </Node>
        <Node pos="r" depth="1" NCoef="0" IVar="10" Cut="2.3511745929718018e+00" cType="1" res="-3.5782128572463989e-02" rms="2.4537631869316101e-01" purity="8.7347343564033508e-02" nType="0">
          <Node pos="l" depth="2" NCoef="0" IVar="2" Cut="1.5930079650878906e+02" cType="1" res="-4.9709282815456390e-02" rms="2.1194362640380859e-01" purity="5.6838739663362503e-02" nType="0">
            <Node pos="l" depth="3" NCoef="0" IVar="-1" Cut="0.0000000000000000e+00" cType="1" res="-3.5743355751037598e-02" rms="2.2262763977050781e-01" purity="5.8856859803199768e-02" nType="-99"/>
            <Node pos="r" depth="3" NCoef="0" IVar="-1" Cut="0.0000000000000000e+00" cType="1" res="-1.9383732229471207e-02" rms="1.9702860713005066e-01" purity="5.4573621600866318e-02" nType="-99"/>
          </Node>
          <Node pos="r" depth="2" NCoef="0" IVar="1" Cut="1.4845077514648438e+02" cType="1" res="-9.8297800868749619e-03" rms="2.9608350992202759e-01" purity="1.4419816434383392e-01" nType="0">
            <Node pos="l" depth="3" NCoef="0" IVar="-1" Cut="0.0000000000000000e+00" cType="1" res="4.6663349494338036e-03" rms="3.8045489788055420e-01" purity="2.6911592483520508e-01" nType="-99"/>
            <Node pos="r" depth="3" NCoef="0" IVar="-1" Cut="0.0000000000000000e+00" cType="1" res="-3.6057110875844955e-02" rms="1.9306915998458862e-01" purity="3.8574676960706711e-02" nType="-99"/>
          </Node>
        </Node>
      </Node>
    </BinaryTree>
    <BinaryTree type="DecisionTree" boostWeight="1.0000000000000000e+00" itree="25">
      <Node pos="s" depth="0" NCoef="0" IVar="0" Cut="2.2691612243652344e+02" cType="1" res="7.0201680064201355e-02" rms="3.5588204860687256e-01" purity="4.9995595216751099e-01" nType="0">
        <Node pos="l" depth="1" NCoef="0" IVar="5" Cut="1.8289558410644531e+02" cType="1" res="1.1462155729532242e-01" rms="4.0005117654800415e-01" purity="6.9963288307189941e-01" nType="0">
          <Node pos="l" depth="2" NCoef="0" IVar="0" Cut="1.2784807586669922e+02" cType="1" res="5.9142310172319412e-02" rms="4.2882955074310303e-01" purity="6.1818045377731323e-01" nType="0">
            <Node pos="l" depth="3" NCoef="0" IVar="-1" Cut="0.0000000000000000e+00" cType="1" res="-2.7478620409965515e-02" rms="4.2183601856231689e-01" purity="2.4784857034683228e-01" nType="-99"/>
            <Node pos="r" depth="3" NCoef="0" IVar="-1" Cut="0.0000000000000000e+00" cType="1" res="6.1800265684723854e-03" rms="4.2326316237449646e-01" purity="6.4692658185958862e-01" nType="-99"/>
          </Node>
          <Node pos="r" depth="2" NCoef="0" IVar="0" Cut="2.0209660339355469e+02" cType="1" res="2.1019928157329559e-01" rms="3.2327806949615479e-01" purity="8.3995640277862549e-01" nType="0">
            <Node pos="l" depth="3" NCoef="0" IVar="-1" Cut="0.0000000000000000e+00" cType="1" res="1.4394006691873074e-02" rms="2.9342442750930786e-01" purity="8.8531947135925293e-01" nType="-99"/>
            <Node pos="r" depth="3" NCoef="0" IVar="-1" Cut="0.0000000000000000e+00" cType="1" res="3.6261258646845818e-03" rms="4.5389842987060547e-01" purity="5.0927066802978516e-01" nType="-99"/>
          </Node>
        </Node>
        <Node pos="r" depth="1" NCoef="0" IVar="10" Cut="2.3494234085083008e+00" cType="1" res="-3.2110162079334259e-02" rms="1.8637406826019287e-01" purity="4.0042135864496231e-02" nType="0">
          <Node pos="l" depth="2" NCoef="0" IVar="2" Cut="1.5930079650878906e+02" cType="1" res="-3.8321066647768021e-02" rms="1.5226034820079803e-01" purity="2.4965528398752213e-02" nType="0">
            <Node pos="l" depth="3" NCoef="0" IVar="-1" Cut="0.0000000000000000e+00" cType="1" res="-5.0082344561815262e-02" rms="1.4402090013027191e-01" purity="2.1464386954903603e-02" nType="-99"/>
            <Node pos="r" depth="3" NCoef="0" IVar="-1" Cut="0.0000000000000000e+00" cType="1" res="-3.5436533391475677e-02" rms="1.5946473181247711e-01" purity="2.8333477675914764e-02" nType="-99"/>
          </Node>
          <Node pos="r" depth="2" NCoef="0" IVar="2" Cut="1.3887419128417969e+02" cType="1" res="-1.9695052877068520e-02" rms="2.3999112844467163e-01" purity="7.0179089903831482e-02" nType="0">
            <Node pos="l" depth="3" NCoef="0" IVar="-1" Cut="0.0000000000000000e+00" cType="1" res="-2.5018235668540001e-02" rms="2.1992890536785126e-01" purity="5.6430507451295853e-02" nType="-99"/>
            <Node pos="r" depth="3" NCoef="0" IVar="-1" Cut="0.0000000000000000e+00" cType="1" res="-3.2490326557308435e-03" rms="2.5264084339141846e-01" purity="8.0188021063804626e-02" nType="-99"/>
          </Node>
        </Node>
      </Node>
    </BinaryTree>
    <BinaryTree type="DecisionTree" boostWeight="1.0000000000000000e+00" itree="26">
      <Node pos="s" depth="0" NCoef="0" IVar="0" Cut="2.2494285583496094e+02" cType="1" res="6.8759493529796600e-02" rms="3.5482940077781677e-01" purity="4.9959146976470947e-01" nType="0">
        <Node pos="l" depth="1" NCoef="0" IVar="5" Cut="2.1090267944335938e+02" cType="1" res="1.1202961951494217e-01" rms="3.9940634369850159e-01" purity="7.0235186815261841e-01" nType="0">
          <Node pos="l" depth="2" NCoef="0" IVar="0" Cut="1.2582364654541016e+02" cType="1" res="7.1648038923740387e-02" rms="4.2211332917213440e-01" purity="6.4291650056838989e-01" nType="0">
            <Node pos="l" depth="3" NCoef="0" IVar="-1" Cut="0.0000000000000000e+00" cType="1" res="-3.0241217464208603e-02" rms="4.0916755795478821e-01" purity="2.2427998483181000e-01" nType="-99"/>
            <Node pos="r" depth="3" NCoef="0" IVar="-1" Cut="0.0000000000000000e+00" cType="1" res="6.7847962491214275e-03" rms="4.1730630397796631e-01" purity="6.6850203275680542e-01" nType="-99"/>
          </Node>
          <Node pos="r" depth="2" NCoef="0" IVar="0" Cut="1.8731001281738281e+02" cType="1" res="2.3594395816326141e-01" rms="2.8622484207153320e-01" purity="8.8473445177078247e-01" nType="0">
            <Node pos="l" depth="3" NCoef="0" IVar="-1" Cut="0.0000000000000000e+00" cType="1" res="1.5350923873484135e-02" rms="2.4771487712860107e-01" purity="9.2258214950561523e-01" nType="-99"/>
            <Node pos="r" depth="3" NCoef="0" IVar="-1" Cut="0.0000000000000000e+00" cType="1" res="1.2350049801170826e-02" rms="3.6215353012084961e-01" purity="7.8772646188735962e-01" nType="-99"/>
          </Node>
        </Node>
        <Node pos="r" depth="1" NCoef="0" IVar="7" Cut="2.0564222335815430e+00" cType="1" res="-2.8861518949270248e-02" rms="1.9051775336265564e-01" purity="4.2147029191255569e-02" nType="0">
          <Node pos="l" depth="2" NCoef="0" IVar="4" Cut="2.6417183876037598e+00" cType="1" res="-1.4026019722223282e-02" rms="2.5670069456100464e-01" purity="8.4569007158279419e-02" nType="0">
            <Node pos="l" depth="3" NCoef="0" IVar="-1" Cut="0.0000000000000000e+00" cType="1" res="5.6445389054715633e-03" rms="3.3937159180641174e-01" purity="1.5569657087326050e-01" nType="-99"/>
            <Node pos="r" depth="3" NCoef="0" IVar="-1" Cut="0.0000000000000000e+00" cType="1" res="-4.1179154068231583e-02" rms="1.5711773931980133e-01" purity="2.7193030342459679e-02" nType="-99"/>
          </Node>
          <Node pos="r" depth="2" NCoef="0" IVar="16" Cut="-2.9737043380737305e+01" cType="1" res="-3.3019028604030609e-02" rms="1.6710305213928223e-01" purity="3.0258674174547195e-02" nType="0">
            <Node pos="l" depth="3" NCoef="0" IVar="-1" Cut="0.0000000000000000e+00" cType="1" res="-4.9848545342683792e-02" rms="1.4142473042011261e-01" purity="2.0832544192671776e-02" nType="-99"/>
            <Node pos="r" depth="3" NCoef="0" IVar="-1" Cut="0.0000000000000000e+00" cType="1" res="-3.2785564661026001e-02" rms="1.7209364473819733e-01" purity="3.2305460423231125e-02" nType="-99"/>
          </Node>
        </Node>
      </Node>
    </BinaryTree>
    <BinaryTree type="DecisionTree" boostWeight="1.0000000000000000e+00" itree="27">
      <Node pos="s" depth="0" NCoef="0" IVar="4" Cut="2.1340787410736084e+00" cType="1" res="6.8611837923526764e-02" rms="3.5332500934600830e-01" purity="5.0094425678253174e-01" nType="0">
        <Node pos="l" depth="1" NCoef="0" IVar="0" Cut="2.0195439147949219e+02" cType="1" res="1.1223265528678894e-01" rms="3.6355414986610413e-01" purity="6.3614654541015625e-01" nType="0">
          <Node pos="l" depth="2" NCoef="0" IVar="1" Cut="6.3574375152587891e+01" cType="1" res="1.5439984202384949e-01" rms="3.7044590711593628e-01" purity="7.8902906179428101e-01" nType="0">
            <Node pos="l" depth="3" NCoef="0" IVar="-1" Cut="0.0000000000000000e+00" cType="1" res="-3.7298526149243116e-03" rms="4.5416381955146790e-01" purity="4.6865686774253845e-01" nType="-99"/>
            <Node pos="r" depth="3" NCoef="0" IVar="-1" Cut="0.0000000000000000e+00" cType="1" res="1.2310083024203777e-02" rms="3.4190729260444641e-01" purity="8.4672778844833374e-01" nType="-99"/>
          </Node>
          <Node pos="r" depth="2" NCoef="0" IVar="7" Cut="1.9531261920928955e+00" cType="1" res="-1.5326754190027714e-02" rms="3.0857557058334351e-01" purity="1.7366343736648560e-01" nType="0">
            <Node pos="l" depth="3" NCoef="0" IVar="-1" Cut="0.0000000000000000e+00" cType="1" res="1.0950781404972076e-02" rms="4.1713917255401611e-01" purity="4.7196021676063538e-01" nType="-99"/>
            <Node pos="r" depth="3" NCoef="0" IVar="-1" Cut="0.0000000000000000e+00" cType="1" res="-1.7311038449406624e-02" rms="2.6805049180984497e-01" purity="1.0162486881017685e-01" nType="-99"/>
          </Node>
        </Node>
        <Node pos="r" depth="1" NCoef="0" IVar="6" Cut="-6.0605194091796875e+01" cType="1" res="-1.0481447912752628e-02" rms="3.1911811232566833e-01" purity="2.5579541921615601e-01" nType="0">
          <Node pos="l" depth="2" NCoef="0" IVar="0" Cut="2.2890524291992188e+02" cType="1" res="7.8997604548931122e-02" rms="3.4274756908416748e-01" purity="4.5165976881980896e-01" nType="0">
            <Node pos="l" depth="3" NCoef="0" IVar="-1" Cut="0.0000000000000000e+00" cType="1" res="1.0244107805192471e-02" rms="4.0134283900260925e-01" purity="7.4124658107757568e-01" nType="-99"/>
            <Node pos="r" depth="3" NCoef="0" IVar="-1" Cut="0.0000000000000000e+00" cType="1" res="-1.6907094046473503e-02" rms="2.0048075914382935e-01" purity="4.5944768935441971e-02" nType="-99"/>
          </Node>
          <Node pos="r" depth="2" NCoef="0" IVar="7" Cut="1.6455688476562500e+00" cType="1" res="-3.6012634634971619e-02" rms="3.0730697512626648e-01" purity="1.9990915060043335e-01" nType="0">
            <Node pos="l" depth="3" NCoef="0" IVar="-1" Cut="0.0000000000000000e+00" cType="1" res="-2.6084944605827332e-02" rms="3.0390542745590210e-01" purity="1.4467026293277740e-01" nType="-99"/>
            <Node pos="r" depth="3" NCoef="0" IVar="-1" Cut="0.0000000000000000e+00" cType="1" res="-4.2206519283354282e-03" rms="3.0594626069068909e-01" purity="2.1333487331867218e-01" nType="-99"/>
          </Node>
        </Node>
      </Node>
    </BinaryTree>
    <BinaryTree type="DecisionTree" boostWeight="1.0000000000000000e+00" itree="28">
      <Node pos="s" depth="0" NCoef="0" IVar="4" Cut="1.8854600191116333e+00" cType="1" res="6.7303605377674103e-02" rms="3.5246226191520691e-01" purity="5.0061082839965820e-01" nType="0">
        <Node pos="l" depth="1" NCoef="0" IVar="0" Cut="1.9755484008789062e+02" cType="1" res="1.1714107543230057e-01" rms="3.5709670186042786e-01" purity="6.5545165538787842e-01" nType="0">
          <Node pos="l" depth="2" NCoef="0" IVar="1" Cut="6.2840667724609375e+01" cType="1" res="1.5942482650279999e-01" rms="3.5879278182983398e-01" purity="8.0378603935241699e-01" nType="0">
            <Node pos="l" depth="3" NCoef="0" IVar="-1" Cut="0.0000000000000000e+00" cType="1" res="-3.4940803889185190e-03" rms="4.5494148135185242e-01" purity="4.5903995633125305e-01" nType="-99"/>
            <Node pos="r" depth="3" NCoef="0" IVar="-1" Cut="0.0000000000000000e+00" cType="1" res="1.2714332900941372e-02" rms="3.2451915740966797e-01" purity="8.6916750669479370e-01" nType="-99"/>
          </Node>
          <Node pos="r" depth="2" NCoef="0" IVar="7" Cut="2.1046431064605713e+00" cType="1" res="-6.9380579516291618e-03" rms="3.2142320275306702e-01" purity="2.2017334401607513e-01" nType="0">
            <Node pos="l" depth="3" NCoef="0" IVar="-1" Cut="0.0000000000000000e+00" cType="1" res="1.0302806273102760e-02" rms="4.1654729843139648e-01" purity="5.4532212018966675e-01" nType="-99"/>
            <Node pos="r" depth="3" NCoef="0" IVar="-1" Cut="0.0000000000000000e+00" cType="1" res="-1.7929183319211006e-02" rms="2.6927402615547180e-01" purity="1.0768575221300125e-01" nType="-99"/>
          </Node>
        </Node>
        <Node pos="r" depth="1" NCoef="0" IVar="16" Cut="8.2243242263793945e+00" cType="1" res="2.6448164135217667e-03" rms="3.3549976348876953e-01" purity="2.9972139000892639e-01" nType="0">
          <Node pos="l" depth="2" NCoef="0" IVar="9" Cut="1.8959411621093750e+01" cType="1" res="-4.8042610287666321e-02" rms="3.2522833347320557e-01" purity="2.2574955224990845e-01" nType="0">
            <Node pos="l" depth="3" NCoef="0" IVar="-1" Cut="0.0000000000000000e+00" cType="1" res="-1.3846311718225479e-02" rms="3.2104662060737610e-01" purity="2.0101605355739594e-01" nType="-99"/>
            <Node pos="r" depth="3" NCoef="0" IVar="-1" Cut="0.0000000000000000e+00" cType="1" res="2.3385509848594666e-03" rms="3.3176314830780029e-01" purity="3.1190988421440125e-01" nType="-99"/>
          </Node>
          <Node pos="r" depth="2" NCoef="0" IVar="10" Cut="1.9527705907821655e+00" cType="1" res="3.8338843733072281e-02" rms="3.3801764249801636e-01" purity="3.5181230306625366e-01" nType="0">
            <Node pos="l" depth="3" NCoef="0" IVar="-1" Cut="0.0000000000000000e+00" cType="1" res="-6.4456956461071968e-03" rms="3.0147385597229004e-01" purity="1.9243513047695160e-01" nType="-99"/>
            <Node pos="r" depth="3" NCoef="0" IVar="-1" Cut="0.0000000000000000e+00" cType="1" res="9.0875551104545593e-03" rms="3.5305675864219666e-01" purity="4.5463573932647705e-01" nType="-99"/>
          </Node>
        </Node>
      </Node>
    </BinaryTree>
    <BinaryTree type="DecisionTree" boostWeight="1.0000000000000000e+00" itree="29">
      <Node pos="s" depth="0" NCoef="0" IVar="0" Cut="2.3073785400390625e+02" cType="1" res="6.5677255392074585e-02" rms="3.5119375586509705e-01" purity="5.0100779533386230e-01" nType="0">
        <Node pos="l" depth="1" NCoef="0" IVar="5" Cut="1.6579409790039062e+02" cType="1" res="1.0237194597721100e-01" rms="3.9564189314842224e-01" purity="6.9361209869384766e-01" nType="0">
          <Node pos="l" depth="2" NCoef="0" IVar="1" Cut="9.8608261108398438e+01" cType="1" res="3.9843890815973282e-02" rms="4.2852941155433655e-01" purity="5.9354388713836670e-01" nType="0">
            <Node pos="l" depth="3" NCoef="0" IVar="-1" Cut="0.0000000000000000e+00" cType="1" res="5.5448440834879875e-03" rms="4.2908746004104614e-01" purity="6.7797684669494629e-01" nType="-99"/>
            <Node pos="r" depth="3" NCoef="0" IVar="-1" Cut="0.0000000000000000e+00" cType="1" res="-1.1508478783071041e-02" rms="4.0481150150299072e-01" purity="2.8582346439361572e-01" nType="-99"/>
          </Node>
          <Node pos="r" depth="2" NCoef="0" IVar="1" Cut="6.3216110229492188e+01" cType="1" res="1.7280882596969604e-01" rms="3.4151655435562134e-01" purity="8.0633729696273804e-01" nType="0">
            <Node pos="l" depth="3" NCoef="0" IVar="-1" Cut="0.0000000000000000e+00" cType="1" res="-1.9419735763221979e-03" rms="4.4619157910346985e-01" purity="4.8509335517883301e-01" nType="-99"/>
